435 200
American -0.006883 -0.031840 0.062803 0.035664 0.152785 -0.049464 -0.133395 -0.114351 -0.056705 0.025978 -0.100843 -0.076295 -0.125560 0.011420 0.084764 -0.042033 -0.046409 0.006595 -0.023138 0.074946 -0.129705 0.020088 -0.107503 0.050998 0.101753 0.078224 0.067057 0.034447 -0.041713 -0.002917 0.004884 0.045786 -0.062453 0.109825 -0.034561 0.027162 -0.053816 -0.045281 -0.087886 0.004630 -0.067807 0.066009 0.090257 -0.002014 0.126827 -0.053886 0.074019 0.006052 -0.074555 0.095029 -0.004040 -0.086293 0.047276 0.032571 -0.065522 0.036413 -0.077703 0.020719 0.094527 -0.068957 -0.063879 -0.069354 0.049216 -0.032549 -0.092827 -0.056848 -0.096221 0.074920 -0.001821 -0.076109 0.029394 -0.083676 0.073463 0.076720 0.102595 0.008393 -0.083840 -0.102582 0.019731 -0.050688 -0.058513 -0.018758 0.030578 -0.097803 0.054890 0.022990 0.048011 -0.052971 -0.048767 0.035088 -0.013771 0.030242 0.028839 -0.007290 -0.121333 -0.006097 -0.035754 -0.022439 0.131753 0.128745 -0.055681 0.116981 0.110023 -0.118570 -0.049838 -0.053019 -0.087332 0.012063 -0.101607 -0.017834 0.066734 -0.092134 -0.044302 -0.037662 0.032150 0.033253 0.100540 -0.124360 0.037371 0.029631 0.139029 0.032060 0.042390 -0.018180 0.032662 -0.045073 -0.039434 0.075353 -0.072755 0.069187 0.079816 -0.037894 -0.182918 0.035243 -0.075282 0.139808 -0.004983 -0.128252 0.063524 -0.134061 -0.035275 -0.088178 0.019401 -0.016090 -0.058632 -0.043229 -0.043385 0.029057 -0.067626 0.010285 0.005306 -0.071836 -0.016897 0.043098 0.184676 -0.024104 -0.076133 -0.087952 -0.031978 -0.060963 -0.060915 0.006753 -0.073989 -0.010652 0.014159 0.023543 -0.057078 -0.038540 0.040950 -0.157857 -0.179739 0.094249 -0.040689 -0.070226 0.002682 -0.016006 -0.035790 -0.018049 0.010422 0.099745 -0.006954 0.088263 -0.009246 -0.029289 0.106061 0.005005 0.010648 -0.076877 -0.078251 0.048642 0.139843 -0.005217 -0.081150 0.023165 -0.022980 0.046566 -0.031420 -0.035003 -0.081150 -0.102358
Arafat -0.087789 -0.073277 -0.129403 -0.033298 0.023596 0.081971 0.018701 0.009245 0.023124 -0.004835 -0.023743 0.051265 -0.063624 0.013531 0.012953 -0.134498 -0.081990 0.034605 -0.056553 0.067855 0.087054 -0.102541 0.024332 -0.003156 0.049668 -0.175916 -0.026744 -0.056686 0.033980 -0.009305 0.042178 0.099383 -0.030825 0.043742 0.018551 0.096765 0.028210 0.016986 -0.011520 0.122621 0.026641 0.135770 -0.083985 -0.034862 0.134524 -0.053954 0.062805 -0.135562 0.040986 0.107177 0.085656 0.110350 -0.119300 -0.096409 -0.024353 -0.161241 -0.017656 -0.173341 0.021887 -0.090364 -0.109480 0.019005 0.031236 -0.007271 -0.028387 0.115615 -0.010226 0.047700 -0.065387 -0.027111 0.039035 -0.069926 0.010469 -0.025381 0.041009 -0.169840 -0.034861 -0.000326 0.093440 0.051360 -0.045622 0.028465 0.060506 0.013737 0.292967 -0.102326 -0.020227 -0.025272 0.020676 0.027073 0.036158 -0.033441 0.070834 0.050954 -0.005591 0.042334 0.151109 0.050800 0.042103 -0.087536 -0.034676 0.100590 -0.103106 0.029956 -0.055146 -0.037371 0.074393 -0.101259 0.028313 -0.117948 -0.004955 0.055733 0.107969 -0.101645 0.049042 -0.011684 0.076195 -0.024693 -0.016835 -0.029665 0.097262 0.119586 -0.106835 -0.020123 -0.045113 -0.060261 -0.113997 0.003918 0.064468 0.014123 0.059835 -0.058765 -0.108646 0.058872 0.055039 -0.063969 0.057211 0.076544 0.057917 -0.045882 0.059302 0.042939 0.008438 -0.028887 -0.059956 0.005043 -0.009795 0.008172 0.051644 -0.009911 0.028671 0.041844 0.027480 0.057838 -0.011805 -0.007725 0.105674 0.017536 0.111684 -0.052261 0.022107 0.045937 0.000337 -0.064241 -0.154201 -0.060367 -0.047667 -0.129372 0.063525 -0.063556 -0.019195 0.034794 -0.111059 0.055453 -0.092676 -0.001339 -0.005642 -0.048447 0.025065 -0.016016 0.043138 0.074389 0.100684 -0.030720 -0.064486 0.021659 0.045932 -0.000433 0.077433 0.001372 -0.026953 0.085895 -0.080203 -0.030826 0.050139 -0.021699 0.070306 0.060925 -0.026681 0.027710
Brazil 0.061608 0.088666 -0.047450 0.016596 -0.000804 -0.051573 -0.067990 0.008560 -0.142259 0.022441 -0.023970 0.099267 -0.087283 -0.102380 0.050071 0.094341 0.140777 -0.007702 -0.070270 -0.094742 -0.003255 0.029901 0.105175 0.018364 0.084547 -0.051569 0.031965 -0.029156 0.071276 -0.103673 0.010997 0.070048 -0.018332 0.080604 0.134052 -0.022715 -0.033790 0.123726 0.052987 0.064851 -0.113004 0.045678 0.026171 -0.017226 -0.033784 -0.072550 -0.003241 0.111880 -0.060109 -0.099816 -0.060965 -0.072136 0.071166 0.118114 -0.012246 0.047857 -0.080169 -0.013145 0.069259 0.070621 0.059751 -0.163880 0.118786 -0.122363 -0.008206 0.095446 -0.018302 -0.039146 0.028314 0.033932 -0.014266 -0.026972 0.109358 -0.003903 -0.031143 0.168208 0.069337 -0.038141 0.080313 0.056879 -0.078372 0.028859 0.046283 -0.044783 -0.070492 -0.016988 -0.016883 -0.026025 -0.011911 0.047356 -0.046186 0.039159 0.035111 -0.036607 0.003623 -0.020658 -0.030464 0.092697 0.094739 0.005202 0.025248 -0.035271 0.069988 -0.034351 -0.097446 0.028638 -0.059415 -0.078103 -0.051242 0.025470 0.087688 -0.060646 -0.026376 0.085326 0.053780 0.081792 -0.014615 -0.012561 -0.060243 0.063464 -0.020813 0.014991 0.045034 0.022831 0.104067 -0.062516 0.067506 -0.069168 -0.144514 0.031466 0.073782 0.060536 -0.067153 0.037713 0.120805 -0.005595 -0.188664 -0.066356 -0.108721 -0.076427 0.010196 -0.026074 0.045891 0.078844 0.013997 0.007126 -0.021880 -0.151774 -0.082590 0.027354 0.026640 -0.101073 0.042332 0.026987 0.136115 0.188509 0.059826 -0.048323 -0.013446 -0.060919 -0.055410 -0.093458 0.035372 -0.044683 -0.055132 0.059059 0.055699 0.103639 -0.017681 0.039881 -0.103263 0.027935 -0.024791 0.001220 -0.007324 -0.003518 0.012727 -0.036216 0.063631 0.083026 -0.037332 0.117326 0.184938 -0.098654 0.051151 -0.003288 -0.085357 -0.059962 -0.021154 -0.066129 0.003497 -0.081155 -0.085622 0.074718 0.074451 0.095420 -0.079279 -0.062897 -0.042134 0.108952
CD -0.058745 0.080925 0.037093 -0.013096 0.001332 0.063217 0.102220 0.079093 0.110624 0.007032 0.065725 0.016057 0.057078 0.138767 0.010381 -0.039713 -0.061832 -0.014839 0.057688 0.087718 0.014166 -0.068860 0.021626 -0.045359 -0.033968 0.015718 -0.057898 0.165793 0.013448 -0.022326 0.045132 -0.019251 0.041462 0.065413 0.090815 -0.040789 -0.059180 0.102419 -0.022622 0.002337 0.106456 0.015668 -0.047601 0.064681 0.006052 -0.044991 -0.013198 -0.106199 0.059566 -0.030990 -0.062553 -0.094677 -0.209204 -0.004272 0.023030 0.100924 0.008449 0.022742 -0.029921 0.046708 0.075231 0.033362 0.066211 0.042867 -0.071785 -0.051468 -0.045711 -0.112520 -0.085768 -0.127538 -0.046023 0.102411 -0.114893 0.045567 -0.064099 0.054162 0.012512 -0.028783 0.013244 -0.168782 0.006404 0.049760 -0.035660 -0.011034 0.031880 0.012142 -0.098275 -0.173923 -0.032766 0.008030 -0.047579 0.106260 0.022837 0.025816 -0.119039 -0.148357 -0.089562 -0.085241 -0.039271 -0.106275 0.070292 0.102998 0.038645 0.008194 0.081852 -0.007405 -0.032651 -0.001109 0.114685 -0.015649 -0.026551 0.092494 -0.063968 0.030857 0.081238 0.147125 -0.069366 -0.085806 -0.130181 0.018512 0.062315 -0.055162 -0.052960 0.002044 -0.040910 0.103360 -0.004509 0.044753 -0.056294 -0.008545 -0.101040 0.046915 0.032878 -0.048759 0.024269 -0.039456 0.010415 0.001610 0.074087 -0.035908 0.141833 -0.042292 -0.054400 0.013366 0.047703 0.041034 0.062566 0.169382 -0.066182 -0.088484 0.085565 -0.059633 0.006749 0.038887 -0.063661 -0.014537 -0.055814 0.051426 0.136377 0.010959 -0.029155 -0.020029 -0.068577 -0.001068 0.073808 -0.033695 0.113981 0.032631 -0.049634 0.042209 -0.031867 0.072933 0.083171 0.022283 0.048316 -0.030900 -0.058263 0.100343 0.073779 -0.083129 -0.029232 -0.022374 0.001140 -0.129343 0.129333 -0.072982 -0.046019 -0.090923 -0.018933 -0.081355 -0.018223 -0.037341 -0.009887 0.055512 -0.132232 -0.006376 -0.044708 0.107959 0.169634 0.093552
FBI 0.039660 0.028219 -0.029810 -0.135481 0.111920 -0.000350 -0.035499 0.015955 -0.065428 0.031526 -0.007203 -0.057752 -0.001128 -0.007882 -0.020858 0.010058 -0.026874 -0.062908 -0.066986 0.070468 0.013448 0.009428 0.051578 0.063640 0.047337 -0.088498 0.033734 0.018076 0.131079 -0.057492 0.017855 0.012861 0.168718 0.081400 -0.059309 -0.039731 0.142040 0.002986 -0.077948 -0.004940 0.193978 -0.011103 0.074283 0.030738 -0.008836 0.031916 0.109904 -0.037437 0.001159 -0.016201 0.014439 0.121188 -0.038053 -0.115847 -0.012334 -0.043101 0.010358 -0.011976 0.188868 0.041845 -0.119202 0.069792 -0.054111 0.028264 0.031567 -0.004798 -0.046692 -0.028054 0.035035 0.052359 -0.023155 0.049473 0.028221 0.059111 0.076677 0.023685 -0.006033 0.014045 0.039570 -0.064265 0.091314 -0.127212 0.046469 0.060967 0.120151 0.024015 -0.101870 -0.078532 0.139082 0.042561 -0.045092 0.035860 0.072947 0.026082 -0.129642 0.046716 0.094228 -0.113475 -0.058167 0.025763 -0.031109 0.039047 0.003394 -0.011248 -0.054999 0.020403 -0.001109 0.068212 0.004701 -0.115344 0.049576 0.254869 0.064072 0.056514 -0.050468 0.006961 0.110722 -0.044616 0.004444 0.075863 0.045735 -0.080541 -0.105835 -0.114896 -0.039893 -0.032757 -0.040057 -0.000215 -0.014613 0.075850 -0.046790 -0.014859 -0.169241 0.053944 -0.079678 -0.104997 0.005036 -0.104203 -0.069609 -0.005345 -0.082157 0.014104 -0.003368 0.043296 -0.078941 -0.007319 0.038182 -0.041026 -0.019176 -0.146841 -0.021585 -0.129180 -0.108318 0.053851 -0.046549 -0.011426 0.020082 -0.029750 0.078431 0.053028 0.012296 0.048728 -0.001307 -0.094574 -0.016020 0.126900 -0.000840 -0.065503 -0.027309 -0.051786 -0.099686 0.029056 -0.089377 0.013549 -0.081817 0.036181 0.019508 -0.098470 -0.053869 -0.004550 0.036317 -0.162096 0.014588 0.085890 -0.128188 0.109412 -0.065429 0.074751 -0.084274 0.024883 0.070599 0.001890 0.025140 0.066282 -0.015087 -0.004885 0.135502 0.041199 -0.023053 -0.122881
Freud 0.049818 0.000150 0.039151 -0.075331 0.027165 0.008861 -0.016246 -0.106287 -0.048685 0.000811 -0.126309 -0.002858 -0.073712 0.045124 0.011445 0.011559 -0.048879 0.010777 -0.045954 0.063127 -0.034204 -0.019998 0.032211 0.038088 -0.007683 0.031992 0.021123 0.020680 0.065450 -0.142222 0.034818 0.002016 -0.066084 -0.013265 0.096248 -0.177183 0.064718 -0.028728 -0.022211 -0.063800 0.160166 -0.192729 0.015780 0.058491 0.054290 0.002109 -0.092702 0.059382 0.080889 -0.068820 -0.005310 0.077176 -0.060295 -0.028300 -0.097389 0.005249 -0.008600 -0.069355 0.050689 0.032630 0.083651 -0.068958 0.034571 -0.039265 -0.128314 -0.108697 0.156429 0.014794 0.112815 0.065772 0.075917 0.013465 0.003032 0.032704 0.125909 0.066734 -0.087127 -0.022335 -0.021624 0.131541 0.048385 0.068144 0.005821 0.142448 -0.025847 0.060119 -0.104813 -0.058513 0.161028 -0.060624 -0.056478 0.146312 -0.035952 0.067159 -0.031089 0.072240 0.087917 -0.035189 0.008412 -0.036050 -0.130789 0.117239 0.004078 -0.066046 0.032354 0.041661 -0.079513 0.085029 0.046581 -0.209185 -0.030861 -0.014266 0.050776 -0.030092 0.012786 0.109605 0.041977 -0.013297 0.032138 -0.050116 0.095923 0.061849 0.017608 -0.080983 0.070803 -0.025127 0.016140 0.075942 -0.033104 -0.038772 0.055385 0.123929 -0.040871 0.000920 -0.038197 -0.037813 -0.063793 -0.038161 0.121037 -0.033230 -0.109201 0.016666 -0.001572 -0.058621 0.020588 -0.141743 -0.013206 -0.119266 0.026043 -0.003862 -0.108002 0.140863 -0.026046 0.038662 -0.030562 0.003031 0.041051 0.052009 -0.051175 0.079221 0.013894 -0.115781 -0.003449 0.141247 -0.046076 0.012510 -0.140160 -0.017305 0.026136 0.026337 0.201655 -0.022964 0.018892 -0.085449 0.055219 0.039026 -0.043861 -0.091260 -0.016267 -0.031625 0.067694 0.045165 0.037719 0.026085 -0.000961 0.004700 0.072519 -0.026728 0.076542 -0.022587 -0.072490 0.072196 0.050669 -0.107428 -0.027756 -0.039139 -0.067207 0.016885 -0.039697 0.037614
Harvard 0.030051 0.094767 0.122745 -0.078329 0.059192 -0.056551 -0.020741 -0.082237 -0.013614 0.032582 -0.028702 0.031633 -0.052288 -0.001280 -0.056126 0.046554 0.022347 -0.126923 -0.097662 0.054219 -0.095514 0.049643 0.105332 0.063022 0.000769 0.141485 0.025676 -0.000733 0.051047 0.029294 0.015311 -0.046997 0.001006 0.026063 -0.109390 0.111326 0.061975 0.030709 0.059576 -0.053886 -0.095273 0.052102 0.065447 0.006629 0.155805 0.038068 0.009939 -0.022335 0.037604 0.087035 -0.050034 -0.039221 0.144999 0.027575 0.055896 -0.004552 -0.055939 0.043850 0.028078 0.004901 -0.007571 0.051261 -0.003218 -0.103478 0.031892 -0.103074 0.053274 -0.044211 0.020719 -0.036745 0.002286 -0.109688 -0.061475 -0.091184 -0.014813 -0.038421 -0.119958 -0.050641 0.013993 0.027481 0.077083 -0.104338 -0.122338 0.025629 -0.054408 0.030795 -0.021813 -0.031056 0.025709 0.074292 -0.008753 0.104767 0.122458 -0.012461 -0.038533 -0.038629 -0.036849 -0.074255 -0.008653 0.086350 -0.106695 -0.038515 0.000436 0.046127 0.063400 0.050858 -0.046368 -0.050250 0.089131 -0.108495 0.031562 -0.008682 0.044420 0.044012 0.054104 0.027698 0.214122 -0.095677 0.022331 -0.032068 -0.033040 0.135723 -0.032932 -0.043484 -0.078110 0.009923 0.001016 -0.015535 -0.029730 0.071008 -0.012882 0.027427 -0.146851 0.156285 -0.060875 0.071805 -0.002020 0.041494 -0.055262 -0.121254 -0.073921 -0.028020 0.096721 -0.036460 -0.132093 -0.048921 0.041115 -0.117938 0.066301 -0.010539 -0.092339 0.013575 -0.004278 0.049632 -0.065552 -0.022361 -0.187877 0.021335 -0.046095 -0.202791 -0.028857 0.110901 -0.026564 0.044174 -0.035525 0.050781 0.000843 0.126553 0.113093 -0.170367 0.009959 0.033422 -0.034968 0.026620 0.005550 -0.059703 0.009451 0.071318 -0.034926 0.032004 -0.102286 -0.023045 0.063559 -0.015950 -0.038017 -0.045912 0.045607 0.089089 -0.057729 -0.136999 0.187129 -0.044903 -0.119046 0.005189 0.036364 -0.050513 0.050406 -0.037690 0.015003 -0.032540
Israel -0.151120 -0.021890 -0.098548 0.012476 -0.074376 -0.050924 0.040299 0.130992 -0.085401 0.020448 0.073463 0.103843 -0.104677 0.117560 0.075779 -0.028251 -0.016253 0.031898 -0.067688 0.097207 0.135904 0.013384 -0.048065 0.038641 0.073482 -0.080945 -0.059905 0.010851 0.053447 -0.011614 0.057839 0.031602 -0.040756 0.142600 0.156764 0.054892 0.030619 0.010386 -0.060200 0.146284 -0.027275 0.072727 0.037528 -0.039224 -0.004866 -0.151111 0.025012 -0.061642 0.036804 0.095701 0.066900 -0.050650 -0.122417 0.038819 -0.058348 -0.170102 -0.121628 -0.107778 0.114133 0.036720 -0.151316 -0.046184 -0.019002 -0.021510 0.002632 0.025351 0.017707 -0.046497 0.127993 0.046287 0.043751 -0.075927 -0.081031 -0.007287 0.044656 0.000837 -0.064317 0.029931 -0.002667 0.098272 -0.065316 -0.101741 0.074468 -0.005618 0.157715 -0.023710 0.051925 -0.043527 0.093714 -0.067980 0.059209 -0.091160 0.100388 -0.017458 0.097052 -0.072895 0.080203 0.072134 0.049474 -0.033699 -0.002446 -0.078068 -0.004074 -0.038843 -0.042263 0.004241 -0.050300 -0.031164 -0.036070 -0.098452 0.092069 0.039021 0.046046 0.076927 -0.025104 -0.018858 0.020253 -0.031702 0.114074 -0.156439 -0.029869 0.078763 -0.096147 -0.049311 0.021565 0.013806 0.117134 0.001529 -0.023954 0.106762 0.114443 -0.006482 0.056906 0.020319 0.090513 -0.052166 -0.000720 0.175631 0.019562 -0.085530 -0.073634 -0.113004 0.054018 -0.060420 -0.021188 0.091978 -0.003192 -0.080238 0.063812 -0.036454 0.074835 0.041480 0.076934 -0.070813 -0.050626 -0.000622 0.011549 0.044124 -0.015222 0.024121 0.038572 0.005100 -0.057849 -0.139050 -0.152626 -0.064928 -0.006771 -0.055654 -0.054803 -0.003172 -0.001372 0.041718 0.082194 0.025419 -0.022257 0.022658 0.051102 -0.052905 0.046573 0.056658 0.023694 0.050566 0.072921 -0.020565 0.046315 0.001398 0.017357 -0.010366 -0.038835 -0.015353 0.018972 0.082453 -0.105676 0.046610 0.063552 -0.137149 0.094232 0.041819 -0.017965 -0.043270
Jackson 0.106867 -0.017030 -0.005911 -0.007884 0.067875 -0.085132 -0.099397 -0.128780 0.070740 0.116121 0.027900 -0.042912 0.030390 0.023731 0.018898 -0.055011 -0.017882 0.074511 -0.015298 -0.018882 -0.101807 0.015477 -0.062587 0.116573 0.042095 0.046587 -0.000830 0.004512 0.050097 0.087833 0.029251 0.031437 -0.007389 0.021999 -0.047504 -0.105527 0.098791 -0.003917 0.014999 0.072824 -0.017267 0.064795 -0.067157 -0.126238 -0.017016 -0.057283 0.008424 0.069178 0.067196 -0.105015 -0.043470 0.029618 0.046924 0.039441 -0.062011 -0.006330 -0.023117 -0.115265 -0.044795 -0.003116 -0.066079 0.046347 0.109676 -0.023637 -0.018732 -0.011281 0.059275 0.083590 -0.060757 0.069450 0.011340 0.017303 -0.097672 0.151835 -0.015540 0.012982 -0.012350 -0.107353 -0.060512 -0.042334 0.100439 -0.024225 -0.037466 0.116275 0.180683 0.006368 0.008701 0.069715 -0.032686 -0.029099 -0.060181 0.024906 -0.040692 0.042931 -0.126521 -0.020224 -0.010785 0.004898 0.015469 -0.023747 0.015038 -0.096523 -0.008642 0.024683 -0.054669 -0.145814 -0.129376 -0.044888 -0.069935 0.005594 -0.001551 0.037061 -0.057898 -0.013230 0.080102 0.043925 0.179115 -0.062729 -0.014660 -0.006767 0.108456 0.009059 0.031051 -0.138287 0.032490 -0.021965 0.028079 0.112018 0.043460 0.029875 0.031163 -0.107754 -0.033166 -0.050343 -0.128573 -0.091557 0.022091 0.067102 0.022561 -0.052927 0.038504 -0.010608 -0.034360 -0.100070 0.047223 0.061901 0.004095 0.057149 0.111735 0.022735 0.037321 -0.104567 -0.024275 0.057925 0.011322 -0.066807 -0.009830 0.013250 0.021975 -0.033446 -0.132441 0.119243 -0.174837 -0.047541 0.031809 0.026489 -0.065533 -0.091494 -0.020054 -0.168582 -0.243104 0.068376 -0.136895 0.024398 -0.033793 -0.000067 0.042754 -0.039358 -0.053951 0.057278 -0.058693 -0.124834 -0.043652 0.089248 -0.025097 0.028898 -0.005966 -0.102164 -0.066706 -0.018959 0.099213 0.163182 -0.030841 0.096048 -0.097999 0.045800 0.065136 0.018349 0.004335 -0.121356
Japanese 0.021972 0.052880 0.092987 0.114604 0.041463 0.082245 -0.005551 0.018535 -0.062934 0.096158 0.085748 -0.024838 -0.102770 0.067154 0.083434 -0.155713 -0.119338 0.057879 -0.019501 -0.021997 -0.121802 0.007040 -0.086220 0.044311 0.133006 0.167479 0.036193 -0.008754 0.008574 -0.042904 -0.022747 0.041870 0.014617 0.056644 0.064384 -0.093319 0.100363 0.020682 -0.037600 -0.020088 -0.031535 -0.097002 0.126002 -0.040692 0.095928 -0.089882 0.012136 0.060846 -0.033394 0.109284 0.042526 0.046697 -0.146967 -0.018518 -0.165051 0.005272 -0.029355 0.047518 0.057732 0.083751 -0.041689 0.014805 0.038834 0.035790 0.039008 0.003859 0.022806 0.099518 0.066815 -0.118104 -0.044969 -0.059352 0.000606 0.030207 0.045611 0.064218 -0.032159 0.054802 -0.035836 -0.045550 -0.017339 0.012625 -0.025020 -0.131512 -0.020040 -0.022761 0.005158 0.063514 -0.048306 -0.015335 0.056097 -0.054388 0.031164 -0.022128 0.027407 -0.027294 0.020853 0.031384 -0.014534 0.091318 -0.069154 -0.076661 -0.048864 -0.088741 0.071253 0.075660 0.001877 0.068424 -0.019974 0.128853 -0.033787 -0.066693 -0.060818 0.037709 -0.121678 0.067702 0.039848 -0.162739 0.016996 0.012110 0.015642 0.029296 -0.026960 -0.016529 0.124122 -0.070403 0.011593 0.153554 -0.001773 -0.034737 -0.013597 -0.080004 -0.056666 -0.016341 0.110543 -0.019661 -0.050822 -0.028498 -0.021003 -0.078171 -0.034268 -0.101048 0.008368 0.014553 -0.017288 0.002381 0.011454 -0.002057 -0.106207 -0.028560 0.079454 -0.100374 -0.098686 0.027569 0.148603 -0.050851 0.009886 -0.041489 -0.024236 -0.043281 0.031523 0.047619 -0.048073 -0.013772 -0.075069 0.042660 0.131735 -0.003160 -0.076488 0.040165 0.030126 0.080645 0.070525 -0.143866 0.006792 0.035550 -0.034242 -0.032289 -0.112592 0.104343 -0.137700 0.078252 0.092629 -0.031742 0.048631 -0.119938 0.033661 -0.031517 -0.038767 -0.034486 0.065871 -0.002108 0.132945 -0.151530 -0.006602 0.003219 -0.103948 0.001712 -0.253204 -0.024036
Jerusalem -0.148342 0.085024 0.061258 -0.064676 -0.044999 -0.026234 -0.019242 0.005041 0.017813 -0.062103 0.029288 0.020106 -0.124937 0.037952 0.055475 -0.065820 0.027080 0.060155 -0.015970 -0.005413 0.081819 0.021588 0.005288 0.051125 -0.036869 -0.019693 0.070082 -0.021557 -0.030117 0.040155 0.058865 -0.042092 -0.075704 -0.025838 0.169225 0.136876 0.101770 -0.050724 0.004009 0.101718 0.079989 0.135688 -0.062130 0.057007 0.007738 -0.065628 -0.050450 -0.075613 0.107772 0.004889 -0.044515 -0.148659 -0.050768 0.022840 -0.024637 -0.049709 0.010171 -0.150344 0.003721 -0.014457 -0.008174 0.011511 -0.061081 0.020271 -0.024201 0.080451 0.076004 -0.037335 0.157504 -0.022609 -0.064823 -0.092189 -0.162672 -0.064294 -0.035875 0.009455 -0.176364 -0.090392 -0.064800 0.079345 -0.030752 -0.189556 0.015760 -0.041600 0.090935 0.002689 0.127630 -0.029259 -0.008102 -0.067793 0.106585 -0.158244 -0.022155 -0.005735 0.072724 -0.049478 -0.015848 0.017361 0.069154 -0.034139 0.045675 -0.069160 -0.013394 0.005426 -0.010390 0.033183 -0.038328 0.014686 0.016673 -0.038880 -0.074499 0.107377 0.128618 0.034181 -0.103829 0.001535 0.096164 -0.032712 0.042292 -0.155541 -0.025492 0.096844 -0.011477 -0.093495 -0.030905 -0.020114 0.079810 0.043940 -0.015539 0.038198 0.054490 -0.034357 -0.034914 -0.051664 0.094331 -0.037007 0.127466 0.165163 0.030756 -0.033231 -0.030435 -0.051173 0.068512 -0.085209 -0.001023 0.083847 -0.045658 -0.036037 0.102194 0.013738 0.074993 -0.044714 0.025992 -0.019932 0.052107 -0.010484 0.026292 -0.001264 0.012546 -0.018015 0.054477 -0.019244 0.024861 -0.185012 -0.110987 0.143826 0.006954 -0.022459 0.039563 -0.041432 0.083453 0.003847 0.074163 0.041565 0.030790 0.000296 0.063800 -0.047274 -0.033152 -0.009183 -0.064712 0.013196 0.018700 0.094601 0.135340 0.044260 -0.029442 0.014877 0.111264 -0.085378 -0.009129 0.046922 -0.179358 0.082039 -0.075178 -0.109306 0.060347 -0.018703 0.058862 -0.003554
Maradona 0.141571 0.041237 0.000164 -0.046065 0.139212 -0.029960 0.000323 -0.012589 -0.080032 0.019781 -0.027926 0.132295 0.023037 0.062940 -0.059990 -0.017873 0.080045 -0.036421 0.043860 -0.020613 0.054861 0.090052 0.014199 -0.070042 -0.000196 -0.023537 0.003248 -0.043290 0.108821 -0.007055 -0.036945 0.068837 -0.005905 -0.023291 0.020591 -0.103852 0.004621 -0.138600 0.010845 0.136792 0.004034 -0.039922 -0.090200 -0.024915 0.056618 -0.008373 -0.022810 0.046119 -0.084023 -0.088245 -0.023036 0.002271 0.065232 0.057210 -0.018635 -0.118506 0.129138 -0.030134 -0.065695 -0.014887 -0.098259 0.052259 0.108661 0.073141 0.034746 -0.012991 -0.093148 0.004605 0.036321 0.054448 0.035118 -0.130522 0.029475 0.022696 -0.181231 0.138817 0.025069 0.020689 0.027838 0.051766 0.061780 0.002999 -0.043872 0.067996 0.038115 -0.061472 0.003670 -0.005619 0.022744 -0.002133 -0.034649 -0.072320 0.127240 0.106336 0.010357 0.037760 0.034227 -0.079884 0.096256 -0.090297 0.159329 -0.036853 -0.050632 -0.023259 0.065763 -0.002476 0.014848 -0.022523 -0.011614 -0.017308 0.005308 0.162818 0.164574 -0.002328 0.039998 -0.023740 0.156394 -0.010134 -0.063163 0.083198 0.093553 -0.011403 -0.042188 0.113000 0.024209 -0.061766 0.072048 -0.028101 0.032431 -0.054895 0.038116 0.049617 0.057675 0.011069 -0.006252 0.008813 -0.035828 -0.006795 0.106158 -0.012744 -0.112151 -0.030384 0.078341 -0.035556 0.006404 0.066478 -0.050668 0.052919 0.027785 0.061910 -0.046468 -0.067530 -0.042141 0.024040 0.045291 0.088829 0.120539 -0.034287 0.178414 -0.080251 0.050048 -0.099910 0.030929 -0.099935 -0.033437 0.024522 0.106244 0.081949 -0.002540 -0.085133 0.001702 0.025615 -0.120658 0.061280 0.058656 -0.075797 -0.085592 -0.066689 0.019368 0.039086 -0.101145 -0.104652 0.113743 -0.172253 -0.016067 -0.041249 -0.019791 0.060441 -0.145308 -0.138517 0.026021 -0.058993 -0.010667 0.023978 0.050281 0.092484 -0.051798 -0.091093 -0.137794 0.108782
Mars -0.094359 0.027841 0.071895 -0.045493 0.040074 0.044666 -0.057465 -0.053706 -0.028296 -0.042365 0.008880 0.027704 -0.120168 0.046778 -0.078441 0.019465 -0.038428 -0.066844 -0.054623 -0.111111 0.021684 -0.191975 -0.047475 0.057812 -0.006749 0.094775 0.089594 -0.022557 0.009390 -0.128619 -0.029443 -0.033050 0.026235 -0.003793 0.031241 -0.013365 -0.070678 0.041003 -0.067309 -0.073915 -0.031947 0.020597 -0.025733 -0.068730 0.056425 0.029787 0.062730 -0.146245 0.006487 -0.080010 0.005716 -0.047426 0.026757 0.023718 0.022006 -0.051587 -0.061780 0.093722 0.075472 0.182665 0.101605 -0.061479 0.105681 0.011133 -0.114377 0.071546 -0.006092 0.033585 0.133166 0.067114 0.032623 -0.100114 -0.031391 0.011162 -0.050191 0.080734 -0.033038 0.015007 0.020882 -0.047990 0.001038 0.023621 0.093085 0.037735 -0.171281 -0.008298 -0.017496 0.020711 -0.065657 -0.139921 -0.044844 0.050612 0.016681 -0.077021 -0.045307 -0.068013 -0.005796 0.067438 -0.037116 -0.074619 -0.063548 0.054667 0.040396 -0.053384 -0.073114 0.085192 -0.031709 -0.042555 0.103737 -0.021775 -0.066812 0.041955 0.112049 0.009769 -0.130015 0.077109 0.033593 -0.050341 -0.038370 0.075926 -0.032237 0.068634 -0.106451 0.048348 0.050081 -0.122997 0.122620 0.146415 0.098571 -0.084519 -0.045508 -0.040689 -0.067663 -0.014767 -0.017135 0.036340 0.019887 -0.028104 0.053056 -0.024606 -0.123908 0.061935 -0.080554 0.127859 0.113600 0.012675 -0.020871 0.040977 -0.061859 0.125721 0.136752 -0.035067 -0.006788 -0.082057 -0.091911 -0.081477 0.027257 0.086506 -0.042571 -0.002284 -0.039121 0.050362 -0.182776 0.135992 -0.020893 -0.068306 -0.074483 0.087153 0.067861 -0.009751 -0.075164 0.069314 0.085183 0.044776 0.041457 -0.033511 0.035296 0.049315 -0.072821 -0.048683 -0.028003 0.008785 -0.001238 0.081091 0.031643 0.135161 -0.059186 0.072260 0.028846 0.007074 0.214486 0.005201 0.056428 0.078141 0.052378 0.029861 0.076838 0.025989 -0.038159 0.009887
Mexico -0.070305 -0.018587 -0.033566 -0.101569 -0.002337 -0.079437 -0.152133 -0.043589 -0.064499 -0.043529 0.109723 -0.060109 0.005648 -0.026671 -0.020877 0.048766 0.090899 0.053820 -0.060886 -0.060160 -0.025641 -0.027401 0.004648 0.082090 0.026550 -0.060907 0.036072 -0.080031 0.076695 0.044415 -0.036264 0.105244 0.066912 0.181233 0.020017 -0.014044 -0.070312 0.131221 -0.207044 -0.020673 -0.092743 0.046338 0.059758 -0.139391 -0.002920 -0.004874 0.070822 0.014633 -0.059646 -0.131284 -0.051279 -0.047909 0.038149 -0.013480 0.044339 -0.024003 0.024944 -0.002733 0.095411 -0.010904 0.045906 -0.103118 0.010043 -0.038886 0.040888 0.012849 0.020495 -0.015441 0.042285 0.092610 -0.009779 -0.064584 0.165007 0.020772 -0.000199 0.118900 -0.014937 0.004435 0.060031 0.076390 0.060332 0.110249 -0.020555 -0.016782 0.026224 -0.064765 0.086451 -0.009465 0.030999 0.029826 -0.018212 -0.030398 -0.001279 -0.048854 0.055580 -0.101914 -0.004990 0.192032 0.119906 -0.106111 0.035229 -0.122615 0.100777 0.019577 0.039909 0.026219 -0.081160 0.074299 -0.066702 -0.045150 0.009784 0.060723 -0.111796 0.060586 -0.028693 0.110125 -0.013888 -0.048750 -0.102018 0.077009 0.005617 0.050571 0.006449 0.034454 -0.008312 -0.074117 0.080074 0.045271 -0.184409 -0.016465 0.007320 0.089620 0.011749 -0.004425 0.086367 -0.053223 -0.040249 -0.034866 -0.025011 0.013102 -0.081367 -0.073962 -0.040079 0.049199 -0.140458 0.027006 0.051322 -0.010712 -0.042250 -0.037073 0.006019 -0.014295 0.029403 0.120106 0.081500 0.161160 0.003470 0.033184 -0.010371 -0.018204 -0.086275 0.007722 0.064628 -0.089838 -0.078703 -0.007916 -0.022856 0.061864 -0.117437 -0.072091 -0.090858 0.099022 -0.050646 0.037034 0.087796 -0.049594 0.117710 -0.139626 0.100822 0.099740 -0.049130 0.079953 0.000230 -0.057984 -0.011440 -0.013335 -0.087783 -0.016640 -0.063344 0.075027 0.178248 -0.068625 -0.134327 0.044373 0.005250 0.036509 -0.037022 -0.032004 -0.006969 -0.027034
OPEC -0.039874 -0.080963 -0.040708 -0.053777 -0.062250 -0.041732 0.138273 0.053310 0.051070 0.105250 0.091417 -0.095669 -0.105455 -0.001966 0.037239 0.071718 -0.039809 -0.121155 -0.069272 -0.008589 -0.077841 0.165179 0.032200 -0.069791 0.046077 -0.027821 -0.009715 -0.014433 -0.030960 -0.032082 0.073850 0.004973 -0.002687 0.171458 -0.012279 0.011444 -0.057142 -0.044738 0.011854 0.078779 -0.073563 -0.009811 0.109950 -0.012811 -0.100281 0.091923 0.021556 -0.060468 -0.005763 0.068794 0.036835 0.080048 0.094782 0.090005 0.049587 0.008354 0.128210 0.002900 0.078689 -0.124135 0.016781 -0.081353 0.074258 -0.082605 0.019630 0.006726 0.002578 -0.143615 -0.034462 -0.087928 0.000243 -0.066545 -0.057694 0.038313 0.041028 -0.012693 0.109776 0.035362 -0.065664 -0.020084 -0.127371 0.013636 0.045506 -0.022578 0.101350 -0.079840 0.010657 -0.003667 0.054873 0.050547 0.049930 -0.122619 0.093643 -0.080332 0.000749 0.039494 0.130007 0.112800 0.056119 -0.055050 0.015697 0.095167 -0.103701 -0.027362 -0.068955 -0.039950 -0.047017 -0.051043 -0.133872 0.133210 0.052327 -0.076755 0.012829 0.105835 0.074026 0.059926 -0.047370 -0.078024 0.048570 -0.111952 -0.033284 0.000797 0.041977 0.028786 0.039440 -0.015257 -0.027523 -0.048420 -0.012962 -0.000515 0.065550 -0.009777 -0.007687 0.004334 0.106612 0.042771 -0.123818 -0.120820 -0.004430 0.011355 0.058767 -0.016732 -0.048902 0.063524 -0.005845 0.046164 -0.005207 0.007712 -0.012006 -0.066880 -0.037145 -0.056960 0.162043 -0.034447 -0.025965 -0.070124 0.012758 0.071604 -0.025438 -0.012058 0.108044 -0.081582 -0.138057 0.021454 -0.110616 -0.030060 0.098667 0.058112 0.051751 0.091450 -0.138271 0.184330 0.083124 0.003345 0.133345 0.032933 0.102348 -0.080350 0.025785 0.067370 0.096808 0.139338 -0.026435 -0.065126 0.009259 0.017388 0.024243 0.123305 0.030952 -0.044188 -0.107277 0.051304 -0.019153 -0.032910 0.045102 0.026754 -0.025490 -0.093214 0.011845 0.064782
Palestinian -0.147567 -0.041462 -0.170742 0.013455 0.031773 0.054871 0.022773 0.041772 -0.022042 -0.005849 -0.019501 0.040858 -0.015495 0.018376 0.029270 -0.088650 -0.067227 0.078288 -0.057899 0.077203 0.097396 -0.056279 0.025357 -0.015750 0.071447 -0.051846 0.048299 -0.068663 -0.016133 0.028228 0.063765 -0.005029 -0.051733 0.068783 0.091918 0.033598 0.081541 0.020901 -0.029191 0.062727 0.006404 -0.007388 0.044542 -0.023374 0.025502 -0.094774 0.086744 -0.087380 0.049483 0.157336 0.101199 -0.019417 -0.150098 -0.034152 -0.147650 -0.070605 -0.082094 -0.160559 0.009385 0.009242 -0.052145 0.043707 -0.015045 0.050304 0.094078 0.002432 -0.017855 0.021573 0.159511 0.016980 -0.018549 -0.098353 -0.108601 -0.064928 0.098213 -0.112924 0.069245 0.058072 -0.070877 0.087954 -0.056091 -0.153525 0.053467 0.022115 0.271463 -0.155919 0.046949 -0.053669 -0.078304 0.004429 0.046958 -0.014750 0.034082 0.059200 -0.023431 -0.054355 0.124265 0.062397 0.015998 0.033568 0.023961 0.022263 -0.006646 0.031916 -0.116258 -0.014892 0.033501 -0.033113 0.015009 -0.074027 0.103937 0.111696 0.054098 0.008265 -0.009989 -0.017233 0.074175 0.025462 0.039133 -0.095047 -0.000285 -0.001132 -0.052737 -0.131868 0.016776 0.037869 -0.050924 0.003992 -0.135448 0.081120 0.093349 -0.021358 -0.105909 0.074603 0.045389 0.009315 0.049340 0.181810 -0.002231 0.056084 0.067723 -0.023939 0.044976 0.046714 -0.086235 0.047497 -0.097155 0.036106 0.036608 -0.106563 0.044086 -0.008759 0.041701 0.005869 -0.003075 0.070033 0.104808 -0.081666 0.036735 -0.096299 0.061474 0.041016 -0.083743 -0.149353 -0.095826 -0.080756 0.043281 -0.027994 0.049989 0.041756 -0.013646 0.045221 -0.049150 -0.048846 0.014839 0.042395 0.020055 -0.029009 -0.048878 0.068467 0.020054 0.020948 0.106370 0.033376 0.012420 0.050204 0.023964 -0.023192 -0.101642 0.029166 -0.049876 0.104603 -0.129526 0.062293 0.010059 0.033195 0.033948 0.096330 -0.046996 0.042299
Wednesday -0.067174 -0.176594 -0.049450 -0.155024 0.015272 -0.040002 -0.018514 0.004979 0.064013 0.102814 0.092296 -0.009028 -0.032893 -0.013255 -0.066347 0.057211 0.082756 0.013909 0.047590 0.044293 0.073214 0.041210 0.047225 -0.043046 -0.040594 -0.017064 0.049590 -0.113844 0.076135 0.068526 -0.002265 0.107869 -0.067345 -0.047953 -0.022036 0.037827 -0.050695 -0.035505 -0.027451 0.114539 -0.070309 0.069563 0.038432 -0.010888 -0.009951 0.149049 0.091377 -0.057353 -0.043633 0.099912 0.070786 0.017139 -0.090673 -0.048343 0.006428 0.066996 -0.046591 -0.030691 0.023078 0.074527 0.010934 0.015152 0.107767 0.101618 -0.083065 0.024565 0.036603 0.103045 -0.086459 -0.107291 0.095590 -0.055474 -0.066407 -0.067364 0.061948 -0.062619 -0.002728 -0.065315 -0.063257 -0.111867 -0.071947 -0.111390 -0.057772 -0.039627 0.128241 0.038898 0.119077 -0.083343 -0.012002 0.023361 0.044723 -0.147567 0.082509 0.117271 0.106654 0.017606 0.022949 -0.059369 0.047790 -0.083417 -0.013249 -0.027388 0.019116 -0.028435 0.034262 0.023376 -0.022830 0.026324 0.043693 -0.056753 0.040153 -0.008373 0.072707 0.056687 -0.110659 0.010753 -0.085626 -0.029682 -0.062546 0.074188 -0.042339 0.062556 0.055460 0.080455 -0.079392 -0.047274 -0.088962 -0.078890 0.113778 0.062798 -0.044582 -0.037339 0.004379 -0.079431 0.084384 -0.097588 0.104581 -0.067075 0.058640 0.040064 0.096939 0.117914 -0.124129 -0.064432 0.020281 0.170378 -0.044223 0.106485 -0.120223 0.043122 0.048606 0.021437 -0.078787 0.070413 0.058008 0.044811 -0.108975 -0.084214 0.060599 -0.023130 0.019089 -0.050596 0.015303 -0.019991 0.056274 0.145741 0.031888 0.047481 0.029600 -0.005289 0.043989 0.007919 -0.045186 0.130618 0.026648 0.014631 -0.067826 0.085409 -0.080787 -0.141413 -0.054419 0.033226 -0.067096 -0.100121 -0.109270 -0.024325 0.036709 -0.007695 0.070445 0.016312 0.011071 -0.087448 -0.074865 0.064713 0.034490 -0.014893 -0.115961 0.144130 0.022118 -0.075938
Yale -0.016668 0.064556 0.127953 0.021557 0.023097 -0.013248 -0.051792 -0.018126 0.054632 -0.016007 -0.099551 0.040147 -0.102716 0.075420 -0.067270 0.004107 0.011587 -0.123860 -0.103331 0.072480 -0.064535 0.058082 0.102532 -0.016458 0.000576 0.133097 0.005799 -0.006643 0.151327 -0.020247 -0.002241 -0.047088 -0.046841 0.067974 -0.094294 0.089711 0.089341 -0.007341 0.059711 -0.029709 0.064837 0.047308 0.134174 -0.072020 0.193721 -0.032323 0.000285 -0.008473 0.012408 0.018474 -0.001199 -0.042316 0.063816 -0.021507 0.038081 -0.009418 0.086669 0.009635 0.034376 0.058151 -0.013570 0.023766 -0.083871 -0.067534 0.116483 -0.059199 0.065682 -0.005137 0.060348 -0.095692 0.094905 -0.112003 -0.092627 -0.081873 0.123602 0.033821 -0.125274 -0.044664 -0.014144 -0.002094 0.038285 -0.089152 -0.140887 0.040580 -0.041462 0.074240 0.037584 -0.020131 0.071059 0.130800 -0.081041 0.036223 0.036789 -0.045531 -0.054305 -0.034073 0.055484 0.002660 0.112502 0.080889 -0.068378 0.001223 0.037422 0.023305 0.048697 0.069172 -0.092797 -0.053349 0.133251 -0.108317 0.085379 0.035586 0.031394 0.036853 0.014608 0.092469 0.224093 -0.122537 -0.038443 0.039923 0.023253 0.025944 0.005240 -0.112744 -0.122636 0.024630 0.026740 0.029458 0.008886 0.065642 -0.052769 0.136069 -0.066733 0.125461 -0.096625 0.060001 -0.070099 0.053350 -0.048363 -0.085482 -0.062639 -0.017318 0.094367 -0.007723 -0.123608 -0.106444 0.112681 -0.178240 0.087044 -0.021952 -0.061750 -0.025392 -0.029912 0.049256 0.025767 -0.129242 -0.024347 0.031131 -0.055385 -0.037370 -0.002718 0.057112 -0.008998 0.034999 0.011359 0.126802 0.016378 0.061549 0.019170 -0.093451 -0.041309 -0.004490 0.050950 0.000048 -0.008138 -0.056234 0.035246 0.018553 -0.029827 0.037229 -0.005435 0.047289 0.118079 -0.067643 -0.057697 -0.049096 0.021059 0.097112 -0.055783 -0.075009 0.122982 0.008520 -0.068636 0.102593 0.080309 -0.022319 -0.013384 -0.017546 -0.009150 -0.042474
abuse -0.008852 0.078464 -0.082059 0.061672 0.022398 -0.062094 0.009392 0.051369 -0.140605 -0.046599 -0.069223 -0.046530 0.047291 0.022886 -0.088975 -0.064376 0.056322 -0.068073 -0.010401 0.026176 0.184909 0.022164 0.036773 0.155917 -0.053027 -0.100910 -0.067930 0.109735 -0.032071 -0.002031 -0.042962 -0.131073 -0.040654 -0.085158 0.034299 -0.152775 0.084328 -0.114267 -0.017912 -0.011229 0.031426 -0.052390 -0.024739 -0.028049 -0.057862 0.191331 -0.089185 0.056049 -0.023625 -0.046823 0.053437 -0.066838 -0.047141 0.052986 0.008352 -0.054578 0.129482 0.077281 -0.062191 0.038738 0.055318 0.098698 -0.010339 -0.041139 -0.039164 0.033578 -0.105040 -0.011437 -0.022648 -0.037871 -0.002593 0.023916 -0.009629 0.002923 0.079761 0.163698 -0.035383 0.017415 0.028727 -0.041101 0.080188 -0.009975 -0.018185 -0.028699 0.123561 0.011893 0.016194 -0.065570 0.122086 0.020994 0.005957 0.061474 -0.164699 0.078262 -0.067171 0.034015 0.107903 -0.001073 0.043733 -0.040185 -0.000939 -0.059164 0.048836 0.084258 -0.027524 -0.027190 -0.070098 -0.018089 -0.015710 0.109910 0.001272 0.079021 0.058426 0.063953 0.003271 -0.020060 -0.067365 -0.018153 0.073679 -0.154535 0.037358 -0.084150 0.057950 -0.133855 -0.001018 -0.083395 -0.023265 0.017942 -0.037268 0.069740 0.018544 -0.028916 -0.094191 0.039834 -0.039376 0.050650 -0.142572 0.018689 -0.034729 0.136790 0.030333 0.064284 0.073009 0.015781 -0.052082 -0.023062 -0.010735 -0.098784 -0.011306 -0.069055 -0.051853 -0.035194 -0.040512 0.000350 0.027480 -0.015095 0.012381 -0.085828 0.066889 -0.022807 0.058994 -0.032509 -0.083121 0.170250 0.010012 0.068513 -0.151219 0.027640 0.091597 -0.068943 -0.082697 -0.010833 -0.110710 -0.021298 0.075794 -0.028302 -0.042968 0.055508 0.019609 -0.057093 0.103646 -0.011162 -0.015709 0.010315 -0.128507 0.109698 0.028434 0.134504 -0.096941 0.027056 -0.135006 0.083144 0.008699 -0.137514 0.110404 0.041406 0.111262 0.061167 0.009976 0.001475
accommodation -0.052148 0.104262 -0.060571 0.054002 0.016038 -0.004470 -0.006063 -0.087451 -0.032050 0.023657 0.096409 -0.020784 0.015965 -0.045783 -0.018796 -0.005251 0.195288 -0.082944 -0.017227 -0.150674 0.103677 0.048243 -0.152495 -0.023800 -0.101521 -0.094721 -0.106012 0.022504 -0.101454 0.048566 -0.029502 0.062743 0.109738 0.045348 0.041060 -0.050958 0.081415 0.063333 -0.059413 -0.136862 -0.067285 -0.040176 0.041550 0.019300 -0.138328 0.035069 -0.067632 -0.007656 -0.073951 0.054131 -0.040167 0.009462 -0.030958 -0.077300 -0.012945 0.046994 -0.112325 -0.010095 -0.120936 0.008679 0.011659 0.005410 0.009187 -0.045652 0.126068 -0.065987 0.138564 0.077622 0.044485 0.005048 -0.150275 -0.078264 0.005159 -0.044383 -0.087901 0.001012 -0.048068 -0.022876 0.111944 0.028121 -0.012448 -0.002847 0.072291 0.007912 -0.013244 0.036097 -0.118334 0.061699 0.093108 0.063485 -0.018629 0.019109 0.047235 -0.027506 0.031040 -0.043742 -0.010888 -0.013628 0.052935 0.060349 -0.026931 -0.142453 -0.018117 0.188392 0.076871 -0.072376 -0.040541 -0.057106 0.031442 -0.021483 -0.149992 -0.016625 -0.026453 0.008540 0.028593 -0.017725 0.087990 0.025129 -0.061616 -0.056465 0.010180 0.156955 0.045977 0.074315 -0.019869 0.012476 -0.048615 -0.085176 0.098789 0.018392 0.152773 -0.130365 -0.002225 -0.065412 -0.045047 0.009010 0.162495 0.075109 -0.005873 0.057518 -0.046710 0.113734 0.092053 0.058189 0.003907 0.105829 -0.064726 -0.046743 -0.017403 -0.056442 -0.015012 0.012476 0.071741 0.131351 0.021037 0.038763 0.055380 0.033692 -0.100872 -0.018931 0.082413 0.010521 -0.099119 0.007160 -0.004672 0.040048 -0.018591 -0.092717 0.052941 0.078647 0.062333 -0.053052 0.051663 -0.196092 0.062099 0.010245 -0.084841 -0.055515 -0.125352 -0.001125 -0.063385 0.071204 -0.007816 0.072694 0.007682 -0.110393 0.084083 0.052291 -0.045368 -0.094353 0.048993 -0.074604 -0.063548 -0.007512 0.018586 0.006628 0.022975 -0.078997 0.018009 0.012565
activity -0.158258 -0.011183 -0.168311 -0.069329 0.079510 -0.035234 0.063746 -0.057184 -0.021194 -0.003400 0.033082 -0.007409 0.048919 0.020067 -0.038854 -0.013338 0.023469 -0.103962 -0.033110 0.017786 0.113893 -0.009417 0.048159 0.078891 0.089176 -0.059775 0.016092 0.034305 -0.167458 -0.011376 -0.023076 -0.049761 0.003668 -0.076471 0.007092 -0.081354 -0.035624 -0.075691 0.027607 -0.139778 -0.118915 -0.094000 0.057464 0.039884 -0.043999 0.068595 -0.120099 0.000235 -0.029109 -0.037317 -0.050352 0.046402 0.118824 -0.026128 0.046276 0.057654 0.011134 -0.013650 -0.091043 -0.065078 0.094916 -0.140433 0.069010 0.068728 -0.025853 0.044539 0.030901 -0.020735 -0.063501 0.022287 0.020157 0.026134 0.127897 0.022632 0.011952 0.169200 0.007873 0.003797 0.010908 -0.004505 -0.021690 0.107646 0.077863 0.013423 0.007221 0.060021 -0.091422 -0.096385 0.059840 0.015458 0.086200 -0.029359 -0.154262 -0.072542 -0.068984 -0.006878 -0.060825 0.014091 -0.006935 -0.062468 0.012947 -0.012675 0.079538 0.048348 -0.097732 0.012569 -0.068549 -0.082462 0.060396 0.051187 0.003572 0.009573 0.055685 0.040337 -0.066487 -0.143736 -0.055437 0.067894 -0.022909 -0.080763 -0.132951 0.024820 -0.012502 0.014448 0.034932 0.118292 -0.045508 -0.036381 -0.034867 0.038800 -0.017473 -0.051909 -0.031140 0.137030 0.126429 -0.054206 -0.011795 0.058499 -0.076901 0.102059 -0.022083 -0.049721 -0.013456 -0.089164 -0.121574 0.046893 -0.034055 -0.078702 0.055271 -0.079858 0.013449 0.050661 -0.058525 0.042902 -0.130366 0.147550 0.184845 -0.031430 0.004650 0.135309 -0.018347 -0.176253 0.024075 -0.003285 -0.092359 -0.039865 -0.084066 -0.077362 0.081617 0.063258 -0.016311 -0.056994 -0.103235 0.037912 0.001021 0.027627 -0.090301 -0.003295 -0.130140 0.141276 -0.024013 0.083854 -0.024037 -0.018445 -0.033895 -0.109634 0.001842 -0.044859 0.063479 -0.042038 -0.051165 -0.003300 0.021724 -0.121788 0.033511 -0.019053 0.070647 0.112332 0.041983 0.053836
admission -0.110713 -0.123739 -0.003756 0.016481 0.039656 0.013052 -0.005053 -0.107490 -0.001498 -0.052522 -0.084667 -0.017750 0.051574 -0.026357 -0.000333 -0.117410 -0.022652 -0.103292 -0.062220 -0.093094 -0.047810 -0.002752 0.028431 -0.020652 -0.118517 0.004613 -0.080850 -0.059507 0.126049 0.174348 0.028631 0.009735 -0.046490 0.162158 0.004774 -0.055554 -0.001805 -0.038620 -0.123476 0.033629 0.022748 -0.036432 -0.054994 -0.061402 -0.127086 0.151086 0.027777 -0.026827 -0.029691 -0.075317 -0.059559 0.020111 0.055240 -0.022563 0.008664 -0.056468 -0.037759 0.036793 -0.073548 0.065130 0.062524 -0.041074 -0.058895 0.060377 0.049561 -0.048627 0.005086 0.053906 -0.125094 -0.049716 -0.024120 -0.020025 -0.066653 0.157664 -0.016984 0.036382 -0.119454 -0.081572 0.071545 0.055461 -0.047931 0.041579 -0.029925 0.020099 0.172200 0.155348 -0.150258 0.090604 0.019325 0.126724 -0.087099 -0.125359 0.075803 0.131406 0.117862 -0.052918 0.071171 -0.027654 0.165471 0.106737 -0.048420 -0.025342 0.075441 -0.013941 -0.014020 0.005485 0.074638 0.097191 0.018938 0.000051 0.015081 0.076923 0.030721 0.020935 0.147883 -0.019291 -0.007047 0.036345 0.042502 0.087690 -0.156209 -0.029907 0.020130 -0.020347 -0.081038 0.056618 -0.136187 -0.015775 -0.034155 0.080058 0.104015 0.000512 -0.077091 -0.093524 -0.019135 -0.059594 0.019261 0.021059 -0.024602 0.017320 0.006095 -0.064189 -0.045486 0.006941 -0.046259 0.010839 0.066154 -0.074978 -0.025805 -0.112656 0.059772 0.033808 0.023825 -0.088865 0.028801 0.021642 -0.034707 0.032719 0.015709 0.090623 -0.046835 -0.064049 -0.019462 0.022194 -0.045633 -0.070641 0.038232 -0.030427 -0.012892 -0.101513 0.011113 -0.017278 -0.002951 -0.123888 -0.022006 -0.069543 0.045892 -0.081771 0.082499 -0.039024 0.016656 -0.068953 0.080292 -0.019277 -0.076137 0.008895 -0.049297 0.050710 0.118645 -0.154121 -0.022392 -0.079315 -0.120633 -0.005151 0.109114 -0.030969 0.091513 0.021815 0.037302 -0.070935
airport -0.051519 0.020179 0.012261 0.012121 -0.102831 -0.027637 -0.072217 -0.003378 0.044813 -0.020476 0.192287 -0.016682 0.017625 -0.031868 0.013592 0.180635 0.047502 -0.048278 0.007600 -0.091999 0.026459 -0.039532 0.005599 -0.034046 0.031767 -0.170183 -0.006947 0.052335 -0.051628 0.025560 0.007181 0.029155 0.136788 0.039450 -0.008595 0.007566 0.027299 0.130870 -0.086924 0.019885 -0.150931 0.030201 0.112754 -0.026359 -0.027809 0.029473 0.100462 -0.070083 -0.039440 -0.071489 -0.048664 -0.086862 0.080877 0.022540 0.015502 -0.034227 0.013743 -0.138710 -0.026236 -0.023122 -0.084641 0.026083 0.203245 0.020338 0.035352 0.027795 0.009745 -0.032009 0.031856 0.079408 0.019247 0.049752 -0.108849 -0.000998 -0.126718 -0.108578 -0.008939 -0.027229 0.092385 -0.028109 -0.106767 0.080948 0.001355 -0.061145 -0.020331 -0.018267 0.048044 -0.053522 0.080380 0.072779 0.050357 0.059720 -0.012032 0.101344 -0.055441 -0.109425 0.211329 -0.063055 -0.098666 -0.053487 0.049381 -0.054937 -0.021586 0.120954 -0.074902 -0.062553 -0.119438 0.081715 0.043188 -0.009162 -0.017509 -0.173095 0.027933 -0.043226 0.059557 0.045356 0.009168 0.098057 -0.073804 0.025058 0.072984 0.093687 -0.072008 0.055434 -0.000114 -0.099802 -0.142713 0.027968 -0.046135 -0.082936 0.018097 -0.077328 -0.052929 -0.033102 0.055845 0.076614 0.020668 0.086951 -0.101310 -0.017775 -0.069978 -0.012573 0.049443 0.109640 -0.043290 0.013616 0.025288 -0.097636 -0.078072 0.027897 0.206977 -0.030891 0.030989 0.063974 -0.056950 0.030265 0.067089 0.065395 0.079512 -0.110992 0.042813 0.065417 0.081078 -0.061840 -0.028005 0.096033 -0.156399 -0.098704 0.015991 -0.085168 0.019567 -0.029784 0.016065 -0.060370 -0.061121 -0.024843 0.038898 -0.005389 0.058145 0.069345 -0.095858 0.024138 -0.006574 0.046636 -0.029387 0.002026 -0.055688 -0.000778 -0.077798 -0.021174 0.022006 0.014115 -0.031450 0.040767 -0.050708 -0.025385 0.009644 -0.030899 -0.123047 0.054167
alcohol 0.083539 -0.080021 0.056912 -0.093534 0.042973 -0.078964 -0.013425 -0.078542 -0.116173 -0.014890 -0.147385 -0.105739 0.100870 0.054604 0.035927 -0.058430 0.114453 0.052361 -0.061359 -0.077113 0.077534 -0.016046 0.090793 0.107478 -0.075844 0.033196 0.005882 0.064399 -0.090397 0.084274 -0.036296 -0.007009 0.022653 -0.054215 0.023485 -0.023491 0.000792 -0.029379 0.080960 0.021623 -0.087822 -0.069910 -0.030696 -0.111107 -0.163766 0.016232 0.020157 -0.051023 0.105177 -0.100939 0.113221 0.048256 -0.048509 0.133890 -0.071877 -0.043976 0.151381 0.088188 -0.121875 0.022610 -0.047833 -0.047428 0.030651 0.035929 0.030764 0.058146 -0.001417 -0.026380 -0.104775 -0.097749 -0.077724 0.066412 0.044763 -0.054996 -0.008448 -0.017773 0.010129 -0.166776 0.018203 0.028222 0.038236 0.125441 -0.066708 -0.043466 0.016494 0.079799 0.072785 -0.126176 0.063955 0.044624 0.047749 0.116996 0.006746 0.091257 -0.083319 0.055578 0.060887 -0.046075 0.084396 -0.083081 -0.032858 -0.058854 0.045689 0.007654 -0.123931 -0.033547 -0.085151 0.074545 -0.000549 0.060488 0.091338 0.018585 0.015359 0.047320 -0.025478 -0.016332 0.033583 0.012885 0.036474 -0.033434 -0.116135 0.002838 0.077969 0.050937 0.023281 -0.017330 0.062152 -0.097499 -0.025309 0.055037 0.053942 -0.069917 0.084997 -0.063016 0.004645 0.017458 -0.067642 -0.050441 0.015211 0.119541 -0.064137 0.016652 0.046721 0.003934 -0.021250 -0.045018 -0.066704 0.014157 -0.050377 -0.045217 0.039684 -0.054824 -0.021823 -0.081056 -0.111355 0.047953 0.073577 -0.073481 0.037978 0.012071 -0.034080 -0.099304 -0.084344 0.046244 0.053770 0.091215 0.019000 -0.058518 0.130203 -0.036312 0.079205 0.014214 0.028726 -0.108857 0.034292 0.023291 -0.005359 -0.092652 0.042753 0.068777 0.085789 -0.010546 -0.025864 -0.158951 -0.124383 -0.020697 0.031280 0.027299 0.050232 -0.110197 -0.172079 -0.005287 0.091253 -0.136234 -0.059781 0.129045 0.034174 0.130687 0.057183 -0.046671
aluminum 0.032632 0.079087 0.087591 -0.009083 0.028175 0.141769 -0.007669 0.104902 -0.048546 -0.122318 0.057531 -0.054038 0.110125 -0.064224 0.005873 0.038346 -0.037775 -0.034006 -0.078784 -0.053807 -0.086577 -0.030809 0.003977 -0.034779 -0.027310 0.041601 0.083362 0.037543 -0.048095 -0.050658 0.035282 0.060971 0.038455 -0.032330 -0.109993 0.166970 -0.060750 0.109999 -0.152384 -0.010078 0.041682 0.138575 -0.047670 0.028020 0.047452 0.090262 -0.048442 -0.088298 -0.079007 -0.007940 0.130336 0.080360 -0.062225 -0.036205 -0.028298 -0.041798 0.035083 0.076579 -0.004580 -0.058605 0.095524 0.022254 0.116184 -0.037170 0.029342 0.149885 -0.056394 -0.026977 0.054336 0.064935 0.064067 0.079518 -0.197445 0.020896 -0.107289 -0.114897 0.056537 -0.009881 -0.000245 0.059265 0.101499 0.051311 -0.002929 0.021039 -0.060721 -0.065613 -0.068643 -0.009165 0.006880 0.018412 0.015233 0.074793 -0.044126 -0.051055 0.037944 -0.061929 -0.022553 0.078903 0.032241 -0.079577 -0.031773 0.053684 -0.001978 -0.012308 0.025730 0.014181 0.116510 0.043217 -0.020437 -0.066395 0.031571 0.033147 -0.098519 0.098711 -0.001883 0.064548 -0.140178 -0.165615 0.039681 0.148601 -0.055218 0.106752 0.050832 0.106254 -0.022925 0.133575 -0.013187 -0.036174 0.117592 -0.008024 0.020774 -0.103392 -0.084892 -0.034413 0.010738 0.065359 -0.152818 0.014919 0.004425 0.028935 0.002490 0.028689 -0.029062 0.086726 -0.085087 -0.058626 -0.026270 0.105032 -0.004917 -0.052579 0.066602 -0.020549 0.020184 -0.056747 -0.068386 -0.099298 -0.052186 -0.036591 0.033820 -0.078909 -0.036453 -0.083460 -0.112988 -0.090589 -0.040930 0.040693 0.073390 -0.061385 0.028393 0.017340 -0.049178 -0.011906 0.018558 -0.095323 0.032094 -0.068725 -0.121743 -0.140746 -0.028883 0.067544 -0.016456 -0.010376 -0.055805 -0.039931 0.075702 0.117716 -0.021610 0.042998 -0.071521 -0.032034 -0.007850 0.126007 0.016998 -0.187944 0.035881 0.063250 0.051915 0.019122 0.023473 0.061473
animal 0.055332 -0.057288 -0.126058 0.013546 0.037336 0.114292 0.021864 -0.032899 0.031531 -0.070457 -0.108310 0.070869 -0.047811 0.120380 -0.084625 -0.001606 -0.026352 -0.027083 -0.040763 -0.062211 0.187379 0.063780 -0.074419 0.044671 -0.007632 0.031607 -0.026664 0.056585 -0.084537 -0.059197 0.032990 0.056146 -0.085229 -0.038735 -0.016014 -0.011537 0.055554 -0.098051 0.201678 0.121482 -0.002188 -0.098635 -0.019869 0.012511 -0.123215 -0.041483 0.055939 -0.031884 -0.031457 0.044238 0.093672 -0.028348 0.057928 0.198362 0.027978 -0.037797 -0.010160 0.024108 0.015027 -0.017747 0.126197 -0.002681 0.023346 -0.073495 -0.044868 0.141370 0.073727 -0.050700 0.045965 -0.053704 -0.038102 0.039631 -0.043914 -0.087828 0.121439 0.060922 0.054834 0.030379 0.010202 -0.075028 -0.035166 0.056386 0.072224 -0.014190 -0.175459 0.098793 -0.090839 -0.038984 -0.041606 0.124226 0.074173 0.095585 0.018956 0.117982 -0.073437 0.158480 -0.124854 0.039096 0.013487 0.026615 0.023659 -0.025580 -0.012709 0.020171 0.115191 0.083194 -0.046483 -0.019883 0.013148 -0.025350 -0.120508 0.075249 0.009540 0.012093 0.016048 -0.092372 -0.106403 0.103091 0.075206 -0.032409 -0.021781 -0.058655 0.032467 -0.040430 0.083538 -0.022837 0.071102 0.026761 0.082598 0.068010 0.010660 -0.073984 0.042241 0.005205 0.055584 -0.072470 0.021789 -0.060774 0.015781 0.085250 -0.071124 0.037040 -0.024053 0.026243 -0.036888 -0.097087 -0.045819 -0.059051 -0.045264 0.013596 0.078817 0.149100 -0.046911 0.102069 -0.026080 -0.167157 -0.080498 -0.072451 -0.099821 0.049822 -0.019665 0.062604 -0.163978 -0.020747 0.011631 -0.005182 -0.049035 0.022895 0.141476 -0.108132 0.057458 0.025515 0.024749 0.000817 -0.022942 -0.012316 -0.012341 -0.060802 -0.049900 -0.040795 -0.030092 0.086514 -0.013997 -0.044172 -0.063443 0.024558 -0.037153 -0.085437 -0.096099 -0.044123 0.042303 0.119142 -0.080019 0.077751 -0.023951 0.064866 0.018098 0.081233 -0.023262 -0.064634
announcement -0.114831 -0.086970 0.009460 -0.070613 0.085261 0.041637 0.093010 -0.047083 0.036469 0.095300 -0.037742 0.030652 0.034077 0.092468 -0.038666 -0.071022 0.098299 0.091316 0.024428 -0.080222 0.066413 0.006159 0.126459 0.022098 0.044467 -0.033036 0.025979 -0.081665 0.058583 -0.088543 -0.076871 -0.061694 0.006082 -0.068093 -0.116586 0.015156 -0.022133 -0.061905 -0.123798 -0.015659 0.164665 0.182050 -0.012752 -0.036004 0.056362 0.086865 -0.061980 0.015901 0.092517 0.061143 0.011026 0.012857 -0.061739 -0.093546 0.108861 -0.070313 0.058319 -0.019357 0.038659 0.018724 -0.023805 0.032237 0.098155 0.083901 -0.041467 -0.033033 -0.013815 0.039603 -0.075498 0.022506 -0.000654 -0.105478 -0.152898 0.051043 -0.038811 0.011813 -0.032772 -0.022321 0.020773 -0.083745 -0.026516 -0.027876 0.059520 0.073032 0.197518 -0.039771 0.072380 0.076651 -0.006718 0.068744 0.039697 -0.098320 0.027878 0.059577 -0.041146 -0.027533 0.229948 -0.087400 -0.091311 -0.064714 0.079574 -0.129404 0.015249 -0.053717 0.003554 0.103747 -0.108041 -0.135067 -0.000209 0.030731 -0.003520 0.097514 0.022460 -0.033835 -0.050407 0.054564 0.044068 -0.077950 0.009388 -0.013990 0.040557 0.097295 0.035798 -0.027032 0.025910 -0.020052 -0.023788 -0.118911 0.160695 0.097651 -0.030669 -0.069953 0.004463 0.024478 0.005072 -0.068391 -0.085411 -0.052388 -0.123292 -0.080315 0.017830 -0.017920 0.017948 -0.026292 0.128001 0.007299 0.025598 0.075755 0.019719 0.025217 0.005583 0.001047 0.015967 0.049234 0.043044 -0.032679 0.041840 0.025007 0.036353 0.011386 0.053286 -0.066633 0.038318 0.032050 -0.141795 0.042158 -0.071219 -0.028918 -0.117177 0.056756 0.051796 -0.067713 0.036696 0.183981 0.060597 -0.013519 -0.023344 -0.062398 -0.027042 -0.024505 -0.009365 -0.032549 0.178856 -0.031713 0.025489 -0.108971 -0.039062 0.078821 -0.142783 -0.037091 0.065478 -0.082112 -0.038613 0.082165 0.075981 -0.022031 0.057894 0.036048 -0.032925 -0.042026
antecedent -0.057584 -0.146690 -0.022058 -0.060743 -0.032580 -0.058003 -0.057932 -0.124543 -0.052620 -0.111206 0.031691 0.026458 0.012798 -0.081001 -0.010555 -0.090360 0.077539 0.025983 -0.052005 0.082557 0.016800 0.052914 -0.066930 -0.005475 -0.093583 -0.026212 0.074359 -0.085236 0.042163 0.026846 -0.025665 0.057488 -0.097065 0.016362 0.060556 -0.047559 0.039400 -0.102672 -0.036172 -0.100000 0.085823 0.018672 -0.021612 -0.094767 0.074456 0.014563 -0.091069 -0.023079 -0.056692 0.045729 -0.011408 -0.005509 0.054465 0.109456 0.016019 -0.036133 -0.105350 -0.077492 0.032703 0.087783 -0.065238 0.007882 -0.027596 0.017262 -0.076463 -0.006432 -0.021074 -0.031222 0.026627 -0.051342 -0.031124 0.010011 0.026317 0.078005 -0.006485 -0.058828 -0.017756 -0.042522 -0.081834 -0.077043 0.060551 0.076319 -0.000598 0.085769 0.020766 0.153583 -0.009025 0.002266 -0.002525 0.050410 0.157538 0.069787 -0.077330 -0.096915 -0.053899 -0.099268 0.056310 -0.091420 -0.122201 -0.191109 -0.027936 -0.046901 0.009005 0.106014 -0.027557 -0.045820 -0.115988 0.080816 -0.020268 -0.031241 0.112664 -0.026687 -0.026629 -0.056938 -0.174739 0.018158 -0.072218 0.013956 0.098274 0.042714 0.048868 -0.019071 -0.102096 -0.142999 0.066390 0.106022 0.056794 -0.022996 -0.042820 -0.058791 0.108914 0.052583 0.048629 -0.089377 0.016461 0.117293 -0.037238 -0.018412 0.031490 0.097856 0.033463 -0.033301 0.001913 -0.125838 -0.077638 0.067448 -0.074289 -0.068057 0.015573 0.003514 0.012972 0.156614 -0.038742 0.055571 -0.128335 -0.055959 0.032641 0.018141 0.136265 -0.077817 0.054501 -0.117149 -0.020689 -0.083759 -0.026487 -0.064590 -0.089496 0.037281 0.009366 -0.081475 0.084386 0.089332 0.113607 -0.074724 -0.022291 0.083511 0.036252 -0.003502 -0.112814 0.032395 -0.054716 -0.102117 0.009853 -0.076994 -0.132494 0.117395 -0.111526 0.027592 0.044651 -0.080786 0.024946 0.102351 -0.047538 -0.052603 -0.041448 0.009941 -0.078106 -0.051420 -0.008641 0.102553
anxiety -0.007660 0.066321 0.073645 -0.023140 0.011062 -0.025913 -0.019957 -0.009830 -0.055773 -0.065810 -0.047705 -0.017720 0.053089 0.133799 0.003601 -0.090455 0.017744 -0.010016 0.048837 -0.041841 0.156779 0.036758 -0.043063 0.062065 -0.124767 0.129933 0.007923 -0.000998 0.012880 0.093253 -0.029416 -0.012771 0.099626 -0.029915 -0.011830 -0.134516 0.056746 -0.007896 -0.017339 0.053362 -0.145827 -0.143196 0.033191 -0.054757 0.000532 -0.010306 0.108808 -0.052734 0.055562 -0.003279 0.022405 -0.002051 -0.083381 0.045863 0.011852 -0.000161 0.016521 0.010160 -0.042023 0.000946 0.000450 0.003222 -0.006704 0.133595 -0.039569 -0.078073 0.041011 0.077745 0.019151 0.097793 -0.028273 0.000935 -0.050424 0.032541 0.124598 -0.005292 0.013132 -0.107977 0.059821 -0.037683 0.038841 0.094422 -0.043875 0.066012 -0.075125 0.023732 -0.005359 0.098658 0.113138 0.027378 0.123847 0.031530 -0.077420 0.053259 -0.091461 -0.013610 0.080587 0.009625 0.011832 -0.113741 -0.185767 -0.058549 -0.019333 -0.070455 0.007293 0.070272 -0.043924 0.010382 0.190259 -0.056214 -0.048157 -0.016057 0.050141 0.059996 -0.111204 0.020449 -0.058240 -0.048173 0.112798 -0.081056 0.005658 -0.068465 0.068928 -0.032590 0.030439 0.056434 -0.061075 -0.035840 -0.017515 -0.026582 -0.028902 0.047775 -0.010049 -0.001752 -0.037839 0.047772 -0.000257 -0.099493 0.037221 0.055580 0.014564 0.014211 0.172069 0.045151 -0.138246 -0.108162 -0.008173 -0.009856 0.109283 -0.068968 -0.014196 0.018491 -0.089582 0.027716 -0.076667 0.026106 -0.026861 -0.010088 -0.013110 0.068823 0.112063 -0.049391 -0.125960 0.133277 -0.016375 0.129372 -0.044149 0.014112 0.071868 0.039519 0.173629 -0.025450 -0.099207 -0.127864 0.054528 -0.021446 0.071470 0.106408 0.002262 -0.008227 0.090440 -0.035361 -0.142817 -0.143768 0.104988 -0.061894 0.001120 0.072795 -0.019205 -0.094119 -0.050575 -0.000619 -0.011094 -0.169094 0.093662 0.032753 0.012847 0.109760 0.078812 -0.098929
approach -0.018165 0.089780 -0.087618 0.031718 0.013578 0.115125 0.011365 0.070013 -0.083488 -0.103173 -0.156712 -0.081235 0.015667 0.035925 0.076913 0.032414 -0.137638 -0.169334 -0.102855 0.096186 0.045414 0.020544 0.045054 -0.101598 -0.100496 -0.002578 -0.084210 -0.042865 -0.006632 0.097762 -0.017090 0.010015 0.083341 -0.025711 -0.069240 -0.034900 0.137050 -0.076267 0.011078 -0.039594 0.103893 -0.088454 -0.023514 0.153815 -0.096096 0.051962 -0.065273 0.070901 -0.023986 -0.016324 -0.023388 -0.075899 -0.067259 -0.027148 0.045862 -0.017936 0.064297 -0.167072 0.011612 0.032494 0.080391 0.050061 0.008486 0.003044 0.059770 -0.007244 0.019577 0.014722 -0.007881 0.129896 -0.103537 -0.012664 0.023689 -0.041894 -0.016275 -0.046271 0.015246 -0.027853 -0.042177 0.039040 0.107780 0.064056 -0.071155 0.169132 -0.113028 -0.020975 -0.014586 0.049584 -0.053732 0.053190 -0.025353 0.070746 0.023515 -0.026597 0.012895 -0.064636 0.055022 0.026963 -0.072282 -0.070246 -0.043356 0.059289 0.046069 -0.019519 -0.001833 0.005724 0.057527 -0.043420 -0.001110 -0.061339 -0.029698 -0.126678 0.002908 0.017414 0.018257 -0.053382 -0.021368 0.089647 -0.020002 -0.088975 -0.057761 0.057326 0.033118 0.027979 0.077466 0.111911 0.036723 0.132496 -0.061783 0.010777 -0.057169 -0.039300 -0.059971 -0.084312 0.109703 0.013775 -0.029192 -0.059664 -0.033197 0.016332 -0.107119 0.006960 0.093267 0.067750 -0.047592 -0.005516 0.008560 0.054799 0.049935 0.044704 0.023472 0.226982 -0.095975 -0.008590 -0.145758 0.036893 0.005561 -0.044626 0.022008 0.003675 0.023909 -0.023185 0.059501 0.161240 -0.025394 -0.065850 0.085345 -0.147986 -0.150527 -0.100209 -0.007522 -0.091383 0.007171 0.022936 0.028793 -0.036586 -0.044057 0.133123 -0.022514 -0.091184 0.072621 0.125876 -0.035799 -0.084996 -0.027322 -0.012829 -0.002751 -0.170819 0.136322 -0.038900 0.020391 -0.028797 -0.013489 -0.097235 -0.023329 -0.064419 -0.008437 -0.040825 -0.053233 -0.042021
architecture -0.042377 0.113543 0.023338 0.124858 -0.072738 0.116421 0.034168 -0.017569 0.037973 -0.006243 -0.019725 0.027339 0.021379 0.023069 -0.087061 0.139358 -0.015781 0.020759 0.000711 0.003855 0.021233 0.096493 0.035223 0.047665 0.015685 0.007404 -0.025550 0.011612 0.027093 0.017647 0.139174 -0.057603 -0.032105 -0.002331 -0.085572 0.086266 -0.097205 -0.031555 -0.139177 -0.049560 -0.046820 -0.178301 0.058895 0.033135 0.049480 0.035680 -0.004683 0.087671 0.006887 -0.053686 -0.093388 -0.000233 -0.037183 0.009056 -0.050468 0.089861 -0.008321 -0.054732 -0.014947 -0.011174 -0.167720 -0.005243 -0.047614 -0.116684 0.141610 -0.111980 0.137419 -0.046178 0.098720 0.084977 -0.150874 0.015988 -0.110554 -0.102911 0.006375 -0.122197 0.073188 -0.097849 -0.037626 0.057427 0.049388 0.017029 -0.062491 0.050648 -0.023806 0.032308 0.028491 -0.051724 -0.033590 -0.032929 -0.161890 0.048964 -0.078610 0.006472 0.025567 0.011331 -0.118909 -0.043550 -0.025036 0.055449 -0.035624 -0.031126 -0.064067 -0.034350 0.069826 -0.000252 -0.083806 -0.005873 0.038057 0.051812 0.059436 -0.090979 -0.010035 0.043543 0.004762 0.063957 0.077921 -0.029162 -0.069395 0.125160 -0.115145 0.065848 0.071513 0.112214 0.118920 0.148748 0.090748 -0.040803 0.022396 -0.052884 -0.046957 -0.051691 -0.029420 -0.109246 -0.011908 -0.087859 0.107330 0.014862 -0.031013 0.003991 0.044645 -0.057555 0.116542 0.037282 -0.043282 -0.034445 0.050700 0.129895 0.029778 -0.037511 0.086356 0.023193 0.029196 0.119926 0.035297 0.019103 0.036660 0.003507 0.080278 -0.044851 -0.101129 -0.074171 0.119391 0.028674 -0.080691 -0.057837 0.093583 0.005076 0.008516 -0.061233 0.077517 -0.011162 0.068471 -0.004554 -0.067840 -0.025912 0.014532 0.165985 -0.057547 -0.051527 -0.019791 -0.078520 0.039262 -0.009802 -0.015772 -0.075097 -0.032969 -0.015397 0.010458 0.016894 0.204464 -0.139290 -0.047654 -0.090173 -0.074409 -0.022762 -0.042259 -0.105899 0.048571 0.061134
archive -0.003635 -0.081982 0.070236 0.064713 0.051366 -0.022124 0.053109 0.096145 -0.063228 0.059210 -0.054371 -0.035958 0.039829 0.023508 -0.109755 0.065391 0.122060 -0.045043 0.055838 -0.001510 0.023138 0.098595 0.021454 0.018520 0.092831 0.027759 0.010527 -0.067183 0.002951 -0.111546 -0.063849 -0.113613 0.062349 0.055376 -0.084683 0.055560 -0.000123 0.048236 0.092917 -0.001256 -0.068048 0.115370 -0.121788 -0.111240 0.068493 0.007273 0.047707 -0.060041 -0.049375 0.070798 -0.056333 0.013404 -0.027505 0.125399 -0.014901 0.090101 -0.012257 -0.143766 0.009223 0.074933 -0.040121 0.206336 0.007718 -0.053645 -0.059960 -0.068484 -0.032952 0.022593 -0.138230 0.061772 -0.047772 -0.024249 -0.100726 0.007545 0.031574 -0.050538 0.028236 -0.024110 0.049882 -0.046748 0.063760 0.011790 0.001102 -0.034921 -0.032931 -0.079820 -0.080372 -0.158467 0.080989 0.043153 0.125110 -0.052936 0.044155 -0.012613 -0.016934 -0.043160 0.103837 -0.131157 0.052510 0.063342 0.022633 0.112009 0.061682 0.045607 0.074666 0.014506 -0.125479 0.100346 0.007887 -0.012663 0.048009 0.135278 -0.049168 -0.061582 -0.017240 -0.004673 0.052103 -0.043372 0.102159 0.064709 -0.030532 0.033442 -0.051337 0.033867 -0.049325 0.103094 0.016982 0.028347 0.058215 -0.052768 0.025751 -0.041824 -0.026893 0.077698 -0.036163 0.040542 0.023454 -0.105607 -0.022443 -0.083098 0.017706 0.039501 0.060574 0.143068 0.106453 -0.095258 0.071021 0.027568 0.011221 -0.017526 0.024167 -0.118521 -0.105884 0.051763 0.152870 -0.065018 -0.006117 -0.100860 0.036911 -0.080846 -0.116168 0.006980 -0.004759 -0.075191 -0.128862 -0.016312 0.011519 -0.143488 -0.003123 0.104795 -0.071442 -0.072408 0.169317 0.105793 -0.038528 -0.007639 -0.086537 0.032320 -0.116924 -0.072573 -0.094851 -0.022480 -0.003716 0.136985 0.000892 0.032232 -0.018627 -0.064936 -0.064560 -0.001960 0.109402 0.000623 0.010569 0.012115 0.011036 -0.062202 0.056190 0.080224 0.019946 0.111632
area -0.014565 0.030907 -0.069523 0.008835 -0.075063 -0.144710 -0.092467 -0.098008 -0.022903 0.011576 0.176895 0.049475 -0.077579 -0.101702 -0.040266 0.036034 0.014007 -0.020972 0.064152 -0.068662 0.195162 -0.131837 0.021200 -0.031479 0.069048 -0.130608 0.011364 -0.026238 -0.081568 0.045280 0.126486 -0.071665 0.068271 -0.006086 0.023693 0.080707 -0.118412 0.125159 -0.167026 -0.153324 -0.125742 0.011131 0.041122 -0.040006 -0.097893 0.010570 -0.040595 -0.062462 0.006071 -0.055978 0.009906 0.053736 0.010604 0.047726 0.002692 -0.021787 0.033168 -0.014325 -0.065235 -0.117933 0.078322 -0.028933 0.001844 0.068194 -0.035791 0.058398 0.079460 0.086607 0.148424 0.090857 -0.034211 0.055482 -0.099388 0.024274 -0.130943 0.040995 0.041653 -0.031478 -0.021342 0.096206 0.075666 -0.053826 -0.019023 0.016645 -0.038353 -0.037560 -0.015387 -0.077967 0.013983 -0.033384 0.004489 -0.054224 -0.025819 0.040355 0.021069 -0.025741 -0.128731 0.056260 -0.000891 0.049810 0.017315 -0.054073 0.157549 0.057154 -0.114284 0.031378 -0.114264 0.044057 -0.142506 -0.067280 0.077084 -0.020510 0.039854 -0.082843 -0.069513 -0.047863 -0.114599 0.026829 -0.082183 0.067079 -0.011884 0.083474 -0.080890 0.013852 0.076805 0.091655 -0.021392 0.055225 -0.086741 0.050122 -0.025645 -0.061184 -0.012720 0.015411 0.146954 -0.016680 0.135899 0.066906 -0.094348 -0.041414 -0.056762 -0.042408 -0.002929 0.092643 -0.118779 -0.011438 0.073277 -0.082247 -0.063572 -0.000456 -0.068933 -0.017454 0.093037 0.036276 -0.083063 0.040657 0.023095 0.042525 -0.047501 -0.003913 -0.104080 0.113482 -0.028044 -0.104741 -0.056348 0.082468 0.021591 -0.024776 -0.022421 0.013335 0.040951 0.087001 0.007039 0.026687 0.032434 0.016598 -0.071499 -0.083349 0.017439 0.021010 0.031123 0.055056 0.076646 0.053155 0.015039 -0.145486 0.042105 -0.039406 -0.050486 -0.072031 -0.054408 0.004478 -0.023034 -0.002164 -0.074814 -0.025107 0.098631 0.007325 -0.046516 0.146663
arrangement -0.084350 -0.009621 0.004783 0.132469 0.037759 -0.068483 0.017611 0.039835 0.142859 -0.032120 0.009104 -0.021425 0.100523 0.140457 -0.176492 0.088629 -0.072475 -0.051609 0.029921 -0.015730 0.030113 0.091738 -0.035802 0.015085 -0.042303 -0.036222 -0.077379 0.020309 -0.050080 -0.034942 0.043250 0.038621 0.028658 -0.088518 -0.074693 0.131683 0.013324 -0.031532 -0.150404 -0.103746 -0.005067 0.044067 -0.054417 0.105842 -0.024230 -0.005861 -0.164633 0.135020 0.060588 -0.040028 -0.072000 -0.070216 -0.001994 -0.018819 -0.022456 -0.003238 -0.095519 -0.156442 0.042670 -0.011998 0.035501 -0.006990 0.016695 0.113206 -0.001540 -0.046390 -0.023437 0.058002 -0.033970 0.059698 0.049143 -0.046735 0.000439 -0.041071 -0.022811 -0.172858 0.079496 0.041583 0.026445 -0.005815 0.011749 0.002323 -0.016313 0.056833 0.052128 -0.066585 -0.078138 0.102414 0.017237 0.037455 -0.003883 0.029440 0.136096 -0.101184 -0.002113 -0.102678 -0.048677 -0.003397 -0.063349 -0.073870 0.010904 -0.094742 -0.110789 0.085983 0.007752 0.036986 0.067653 -0.113209 -0.104511 0.015839 -0.133419 -0.119602 -0.132339 -0.026110 0.009734 -0.114278 0.029501 -0.077483 -0.084026 0.023285 0.022554 0.000522 -0.051021 0.002417 -0.009551 0.162754 -0.173526 0.005284 0.072445 -0.109382 0.008313 -0.077606 0.016344 0.044114 0.013448 0.011908 -0.076206 0.127632 -0.056322 -0.044729 -0.038488 0.036834 -0.050108 0.081464 -0.122688 0.117385 -0.051749 0.161841 -0.087995 -0.080588 -0.035470 -0.045311 0.031714 -0.087871 0.004379 -0.036966 -0.026465 -0.107228 -0.022924 0.062520 0.031819 -0.104970 0.052828 0.075707 -0.017394 -0.004406 0.116065 -0.016577 -0.035076 0.007524 0.100687 0.046019 0.023529 0.029393 -0.060564 -0.046465 0.084074 0.026071 -0.056565 0.015714 -0.003527 0.053226 0.025942 0.045741 -0.165834 0.032431 0.028882 0.013850 0.029397 -0.084931 -0.038700 0.066709 0.049234 -0.102806 -0.059668 -0.073801 -0.018680 -0.012144 0.072954 0.028741
arrival -0.100897 -0.042424 -0.024318 -0.045885 0.023126 -0.090706 0.042213 -0.042947 0.032625 -0.007400 0.090071 0.003827 -0.106648 -0.070794 -0.058734 0.009960 -0.025142 0.021341 0.002841 -0.106442 0.024446 0.003668 0.043689 0.027896 0.024560 -0.148538 0.018799 0.029483 0.077002 0.004280 -0.058502 -0.008966 -0.128312 -0.134021 -0.072172 0.061346 -0.065495 -0.036874 -0.079221 -0.034841 0.072923 0.020607 0.039706 -0.019058 0.058074 -0.036160 -0.081753 0.010455 -0.069543 -0.152647 -0.059870 -0.049282 -0.013625 -0.162270 0.000548 0.020446 0.051859 0.036167 -0.097376 0.019358 0.072403 0.016139 0.029238 0.196704 -0.095401 0.047263 0.013364 0.134462 -0.055387 0.013054 -0.124818 0.062514 0.013116 -0.052789 -0.025219 0.088941 -0.035151 -0.157793 0.038186 0.015307 -0.044018 0.043020 0.047369 -0.115242 0.008925 0.084372 -0.031830 0.025923 -0.061942 0.022245 -0.077431 -0.226519 -0.067648 0.077146 0.151413 0.051682 0.098902 0.042687 0.007783 0.013609 0.057925 0.000795 0.178594 -0.017885 0.016450 -0.024625 -0.016956 0.003931 0.005553 0.161701 -0.004827 0.014660 0.057790 0.064136 -0.094317 0.003858 -0.117211 -0.092319 -0.018136 -0.097202 -0.066574 0.027604 -0.016351 0.009792 0.020892 -0.166263 0.024322 -0.085194 -0.047385 0.028056 -0.094375 0.029757 0.046160 -0.053299 -0.000445 -0.042292 -0.008673 -0.054855 -0.033954 -0.065919 0.011814 0.069597 -0.062951 -0.071726 0.000367 0.115067 -0.024192 -0.020203 0.029176 0.104308 -0.034619 0.060368 0.079742 0.107685 0.017370 -0.104128 0.008173 0.000306 -0.044931 0.123320 0.070945 0.146449 0.058895 -0.074772 0.016179 0.056436 -0.047608 -0.020455 -0.072763 0.078772 0.017755 -0.050431 0.058271 -0.176820 0.006575 0.009236 0.159051 -0.064367 -0.018620 0.030300 -0.057750 0.041923 0.090705 0.091443 0.005184 -0.041579 0.031092 -0.046513 -0.053636 0.039232 0.116300 -0.064628 -0.075771 -0.021065 -0.063634 -0.069666 0.035091 -0.022142 0.074411 -0.066901
article 0.092233 0.008085 0.049038 -0.013866 -0.039588 -0.006710 0.057290 0.054926 -0.067778 0.020214 -0.057269 -0.000381 -0.078847 0.131663 -0.030930 0.057102 -0.005868 0.042243 -0.104030 -0.070469 -0.001744 0.167535 -0.058498 -0.001658 -0.063246 -0.000834 0.073105 -0.080372 0.007368 -0.138457 -0.095610 -0.072558 -0.048720 -0.007001 -0.088570 -0.047540 -0.035963 -0.036847 -0.121873 0.113187 -0.008101 -0.069348 0.003503 -0.036427 -0.056323 0.149171 -0.007822 0.036261 -0.067436 0.118988 -0.035922 -0.012589 0.005733 0.119940 0.026511 0.060308 -0.039486 -0.008268 0.090689 0.021558 -0.118277 -0.081779 0.014692 0.068896 0.013578 0.084996 -0.066711 0.001379 -0.084773 0.041058 -0.103583 -0.026184 -0.163853 -0.049505 -0.025897 0.114632 -0.045891 -0.014143 0.185879 -0.087005 0.001157 -0.084999 -0.057973 -0.006126 0.029498 -0.124387 -0.105168 -0.053764 -0.065753 0.078669 0.056393 0.120075 0.052056 -0.053256 -0.005042 0.014288 -0.063673 -0.064518 0.015557 -0.002647 0.051348 0.009573 0.012130 0.041781 -0.024962 -0.044684 -0.096477 0.084144 0.004092 -0.062241 0.107062 0.052229 0.044504 -0.065595 -0.011647 -0.028497 -0.061544 -0.039179 -0.101505 -0.002270 -0.074784 0.029039 0.087883 -0.067215 0.113421 0.046597 0.052893 0.062708 0.037305 0.014324 -0.054343 0.069092 0.034351 -0.035393 0.049737 0.066116 -0.041094 -0.014608 0.023055 -0.126542 -0.030842 0.036226 0.106346 0.035915 0.073356 -0.112695 -0.033540 0.001207 -0.063403 -0.086787 0.018299 0.166407 0.021937 -0.048704 0.045570 -0.003252 0.067884 -0.137642 -0.174820 -0.106097 -0.091420 0.021871 -0.119859 -0.054623 -0.126328 0.047056 -0.100333 -0.166450 -0.073644 0.004076 0.039589 0.105960 0.076745 -0.022339 -0.038075 0.051542 0.068622 0.014384 -0.120804 -0.108320 -0.081296 0.037095 0.136452 0.005044 -0.039305 0.036472 -0.086650 0.043284 0.117990 0.025019 0.005422 0.051453 0.025833 0.030433 0.049111 0.007536 0.056979 0.021679 -0.024711 -0.004531
artifact -0.090184 -0.052656 -0.154958 0.032191 -0.027279 -0.066902 0.064862 -0.076287 0.058368 0.133040 0.115984 -0.000342 0.018193 0.053361 -0.038031 -0.009126 -0.051317 -0.006478 0.131272 -0.094395 0.100397 -0.046672 -0.022072 0.216545 -0.143688 -0.040331 -0.085783 -0.005741 -0.094939 -0.015442 -0.031984 -0.037794 0.011394 -0.038943 -0.070894 0.019168 0.012554 -0.098050 -0.020396 -0.011507 0.028191 -0.016420 0.016759 -0.009984 0.069676 -0.033003 -0.047574 -0.007095 -0.111245 -0.020408 0.049101 -0.119448 0.110578 0.091766 0.103352 -0.018146 -0.083451 0.077618 0.065008 0.134398 0.122812 0.089819 -0.118471 0.016610 -0.005523 0.047038 0.042384 -0.076971 -0.008743 0.022768 -0.105112 0.009543 0.012116 -0.035115 0.140053 -0.018608 -0.095600 -0.110954 -0.114075 -0.088812 0.183457 0.103809 0.039940 -0.072024 -0.110155 0.020547 -0.074797 -0.075175 0.076522 0.055427 -0.127654 0.123075 -0.065323 -0.024124 -0.044469 -0.012252 -0.037995 0.045011 -0.007489 0.080020 -0.030840 0.009923 0.048667 0.011245 -0.012198 0.033090 0.082607 0.124920 -0.062468 0.025947 0.014999 -0.029592 0.019791 -0.026940 -0.139909 -0.088144 -0.027325 -0.001594 -0.028625 0.027646 -0.093567 -0.048591 0.003127 0.019151 0.039437 0.023482 -0.040141 -0.010860 0.007535 0.050737 -0.123170 0.076467 0.001296 0.026377 -0.031516 -0.021212 0.027841 0.031379 0.071950 0.035488 0.059607 -0.027956 0.113274 0.031718 0.058879 -0.044509 0.035243 -0.040346 0.028800 0.015254 0.031276 0.073900 -0.048247 -0.082039 -0.064840 -0.031702 -0.009623 -0.036622 0.104726 -0.058240 -0.061956 -0.068691 0.017286 -0.071970 -0.078992 -0.101221 -0.074071 0.031929 -0.029014 0.052425 0.086078 -0.033061 0.217777 0.054444 0.045474 0.160596 -0.091148 -0.106547 -0.000843 0.001934 -0.027907 -0.104669 -0.123101 0.043557 0.028967 -0.045775 -0.116507 -0.012032 -0.004064 0.049125 -0.018377 0.051094 0.056125 -0.033507 -0.022589 0.028615 0.003449 0.065842 0.028990 0.124098
association -0.093132 -0.087783 -0.081401 0.146765 0.184424 -0.043187 -0.070473 0.045820 -0.081062 0.081528 0.051077 -0.077475 -0.032709 0.056528 0.021391 -0.075174 0.212274 -0.229056 -0.101715 -0.080044 -0.073372 0.024061 0.018802 0.047758 -0.069620 -0.051254 0.167425 -0.034759 -0.014715 -0.077007 -0.026656 0.006099 -0.048355 0.126466 -0.071757 0.098098 -0.054528 0.011954 0.008391 0.010230 0.000178 -0.041962 0.100337 -0.003248 0.000195 0.116249 0.010205 -0.046386 -0.071474 0.008667 0.041743 0.006008 0.098056 -0.027190 -0.041710 -0.035969 -0.122548 -0.096787 0.007263 0.023586 -0.075311 -0.074287 0.078550 -0.020722 -0.010853 -0.002485 -0.059387 0.001233 -0.033466 0.045490 0.009604 -0.036576 0.072331 -0.005325 0.010330 -0.023060 -0.038373 -0.130342 0.111156 0.068153 -0.087927 -0.027489 0.025316 -0.118266 0.014259 0.025106 0.062780 0.002329 -0.004824 0.133958 -0.043743 0.123637 -0.054714 0.158164 -0.013594 0.017622 0.052476 -0.108664 0.075370 0.128160 -0.049310 0.087220 -0.052001 0.000356 0.064051 -0.025493 -0.019036 0.023018 0.006997 -0.033732 0.041366 0.056454 0.032449 -0.046169 0.002696 -0.010148 -0.013466 0.030661 0.154319 0.007007 -0.019885 0.015982 -0.039669 0.031980 -0.037376 0.154620 -0.102664 -0.010397 -0.007341 -0.012431 -0.008737 -0.121234 -0.020477 0.083730 -0.021317 0.116903 0.045557 -0.038652 -0.149656 -0.051632 -0.035606 -0.053526 0.050970 -0.027354 -0.058713 -0.139111 0.025330 0.106816 0.067973 -0.097012 0.034318 -0.018508 0.033826 0.023775 0.090279 -0.038686 -0.128984 -0.143485 -0.093686 -0.040170 -0.078181 0.013175 -0.046725 0.078005 0.006120 0.020763 -0.009200 -0.003543 -0.025029 -0.021915 -0.069213 0.032190 -0.037103 0.040386 0.012366 -0.010298 -0.009828 -0.020560 -0.000541 0.103725 0.154976 0.018199 0.067728 -0.096743 -0.051181 -0.066296 -0.123127 -0.002569 0.007845 -0.090016 0.088384 -0.010436 -0.056329 -0.047230 0.102055 -0.019231 0.034444 -0.029366 0.045542 0.037115
astronomer -0.125805 0.036578 0.077227 -0.003825 -0.034154 -0.139978 -0.025828 -0.015179 -0.091894 -0.040476 -0.048641 0.009431 -0.134024 -0.011410 0.185633 0.027646 0.040156 0.079574 0.037322 -0.013798 -0.093556 0.023313 0.056134 -0.091494 0.119586 -0.044516 -0.064215 0.005958 -0.162797 -0.001343 0.022377 -0.030568 -0.004650 -0.091751 -0.020282 0.099425 -0.075627 0.056604 -0.045621 0.014837 0.067344 0.000039 0.018587 -0.098463 0.074364 0.057252 0.129915 -0.102343 -0.041112 -0.011072 0.084908 0.040369 0.190613 -0.202363 0.052846 0.031341 0.025269 -0.018473 0.046623 -0.057031 0.018491 0.036576 -0.023487 -0.002498 0.022509 0.038811 0.021655 0.094635 0.001037 0.000858 -0.004058 -0.050191 0.032940 -0.022081 -0.015090 0.066007 -0.054816 -0.010001 -0.097490 0.001178 -0.074330 -0.087032 0.046298 0.102521 -0.138592 0.000973 -0.156403 0.024496 -0.061685 -0.091934 0.044022 -0.016770 -0.037103 0.035376 -0.175881 -0.072244 0.082577 -0.138081 -0.029575 -0.096717 0.029668 0.085572 0.045077 -0.054833 -0.053255 0.005278 0.087668 0.036426 0.009323 -0.058379 -0.103678 -0.059170 0.014084 -0.016608 -0.096722 -0.006005 0.099986 0.065825 -0.128653 0.050253 0.053003 -0.076449 -0.006739 -0.014817 0.042846 -0.030821 -0.023004 0.002213 0.036162 -0.063664 -0.004870 0.064497 -0.145592 -0.006234 -0.115408 0.041127 0.042957 0.067300 -0.014084 -0.045429 -0.008750 0.002349 0.054918 -0.109932 -0.062658 -0.028007 0.062760 0.002425 -0.111252 0.160804 -0.034867 -0.009013 -0.059181 0.010240 -0.025237 0.056568 0.008359 -0.046170 -0.095266 -0.106247 -0.032795 -0.017525 0.041282 -0.023490 0.038562 -0.014157 -0.049399 0.050606 0.016376 -0.007299 -0.041854 0.000640 0.090812 -0.012276 -0.041699 -0.064001 0.080477 0.142205 -0.034966 0.143122 0.054198 -0.023670 -0.014238 -0.026478 -0.029974 -0.006445 0.008849 -0.072455 0.143437 0.095153 0.204789 0.024563 0.052014 0.002457 0.078680 0.005849 0.032054 -0.150221 -0.018048 -0.022607
asylum -0.042126 -0.003316 -0.099507 0.030074 -0.025578 0.025712 0.069609 -0.121559 0.101114 -0.047416 -0.055759 0.013528 -0.060918 -0.131983 0.049760 -0.039948 -0.046740 0.061904 -0.135954 -0.089018 -0.002886 0.021542 0.027094 -0.043920 -0.091265 -0.000261 -0.041940 0.093781 0.160519 -0.007706 -0.027535 -0.013565 0.000194 0.177465 0.060072 -0.072855 0.068568 0.027570 0.083791 0.047013 -0.038167 -0.014853 -0.052618 -0.049230 -0.066993 -0.073426 -0.002870 -0.023356 -0.025183 -0.067500 -0.011229 0.062770 0.037777 -0.161363 -0.063366 -0.153766 0.033392 -0.021119 0.061739 0.005827 0.090206 0.074296 -0.023575 -0.002017 -0.041124 -0.002692 -0.035491 0.065308 -0.020139 0.143772 0.033356 -0.036855 0.071738 0.055627 0.042488 0.064846 -0.125710 -0.021156 0.052131 -0.034655 0.009995 -0.051525 0.040449 0.017072 0.168480 0.000310 -0.176008 -0.096062 0.039432 0.054207 0.019623 0.031784 -0.049308 0.109021 -0.014779 0.028322 0.085473 0.059675 0.030942 0.048338 -0.004941 -0.068031 0.076991 0.040084 0.076278 -0.074045 0.035496 0.025049 0.001954 -0.086499 -0.033570 0.023925 0.090677 -0.071630 -0.043731 0.041385 0.045537 -0.103065 0.065890 0.022853 0.107631 0.016173 -0.013577 -0.046673 0.009200 0.034004 -0.099924 -0.022887 -0.042940 -0.174361 0.197366 0.062991 -0.062589 -0.052858 0.140186 -0.021646 0.076013 0.086203 -0.128836 0.017409 -0.032276 0.052593 -0.031859 0.105727 0.001807 0.052005 -0.008332 -0.112347 0.008114 -0.018829 0.108459 -0.008098 0.087114 -0.006549 0.064666 0.042387 0.121865 -0.012396 -0.077159 0.005608 0.027391 0.062198 -0.019792 -0.065432 -0.047856 0.079528 -0.098786 0.038906 -0.044840 0.084849 0.074032 -0.100534 -0.114687 -0.053512 -0.076310 -0.018332 0.057466 -0.072809 0.073032 -0.031315 0.091210 -0.104230 0.001810 0.141501 -0.002943 -0.130317 -0.005971 0.081339 -0.034837 -0.074889 -0.023523 0.046735 -0.051370 0.069537 0.144720 0.003054 0.108157 0.034254 0.046625 -0.040763
atmosphere -0.065518 0.121357 -0.002384 0.065488 -0.046582 -0.009321 0.019781 -0.047126 0.015585 -0.038824 -0.024702 -0.154950 -0.030424 -0.049144 -0.041165 0.057338 0.029242 -0.060530 -0.009725 0.052560 0.068473 -0.064404 0.044640 0.088447 -0.035138 -0.010358 -0.122956 0.049126 -0.096140 0.020935 -0.002292 0.016936 0.041643 0.032392 -0.091091 0.007850 -0.080616 0.025462 0.070101 -0.084868 -0.120313 0.021455 -0.016337 -0.078676 -0.080037 0.042271 0.064273 -0.087018 0.029637 -0.109013 0.016620 0.080768 0.072718 -0.106651 -0.021290 0.139002 0.090534 0.007336 0.045662 -0.005745 -0.021959 -0.042090 0.134930 -0.047834 0.020233 -0.084627 0.070003 -0.069324 0.013966 0.060172 0.038192 -0.014002 -0.046792 0.026475 -0.028552 0.013990 -0.127824 -0.003553 0.037134 -0.020390 0.066950 0.011194 -0.021030 0.056818 -0.069060 0.120787 -0.120869 -0.035488 -0.005893 -0.032389 -0.044550 -0.026447 0.033455 0.035813 0.063250 -0.009376 0.028898 -0.000412 -0.128578 -0.151055 -0.100838 0.018455 0.048088 -0.065507 0.008354 0.021759 0.115641 -0.049896 0.083332 -0.046796 -0.145438 -0.001535 0.068301 -0.032975 -0.061070 -0.049228 -0.002412 0.089504 -0.046899 0.002267 -0.075689 -0.045841 -0.149225 0.043830 -0.013726 0.052221 0.109882 0.118218 0.109585 0.064854 -0.119450 0.020116 -0.026353 0.232826 0.120034 -0.097731 -0.082751 -0.087874 -0.080955 0.002007 0.026417 -0.017089 -0.088637 0.146226 -0.050157 0.062711 -0.025545 0.009382 -0.105959 0.080970 0.072220 -0.007893 0.020741 -0.161190 -0.087044 -0.027725 0.113557 0.050693 -0.085035 0.013844 -0.099998 -0.070472 -0.035118 -0.001019 -0.051483 0.036265 -0.036831 -0.017289 0.065847 0.136931 0.046945 -0.000386 -0.003777 0.052921 0.007296 0.038458 0.004815 -0.017575 -0.143346 0.034251 -0.003673 0.070145 0.044368 -0.043440 0.077444 -0.043214 0.103813 0.042062 -0.031702 -0.050905 0.026239 -0.103490 0.082365 -0.018842 -0.137447 0.052374 -0.119455 0.078284 0.131299 -0.051549
attempt 0.031296 -0.046740 -0.110434 0.079486 0.129662 0.085826 0.105103 -0.013815 -0.124478 -0.047440 -0.093175 -0.099011 -0.048353 -0.075752 -0.051247 -0.026689 -0.126250 0.006227 -0.046198 -0.103544 0.074532 -0.112619 0.025993 0.105978 -0.104438 0.082635 -0.029518 0.000233 -0.013855 0.081643 -0.063642 -0.006094 0.076263 -0.021034 -0.086904 -0.073628 0.100240 0.058595 -0.049984 0.043777 0.160632 -0.019317 0.009578 0.023547 -0.099803 0.056322 -0.042891 0.057144 -0.078462 -0.161565 0.067669 -0.030272 -0.032660 -0.009400 0.063445 0.019737 0.057681 -0.079154 0.094541 0.153262 0.017329 -0.023559 0.114615 0.057924 0.001480 0.032820 -0.068425 0.020225 -0.005061 0.008118 -0.018419 0.125371 -0.071841 0.112273 0.125963 -0.002678 -0.101143 -0.039585 0.004400 -0.041970 0.098623 -0.078239 0.098631 0.076520 0.140463 -0.029239 0.093160 0.078875 -0.006480 0.092703 0.064732 -0.113214 -0.063384 -0.043044 0.018162 -0.006297 0.038008 0.037381 0.079535 0.069157 0.097218 0.035735 0.002152 -0.033312 -0.027429 0.004486 -0.049832 0.012097 0.014138 0.100409 -0.097939 0.065228 -0.007360 0.074789 -0.089130 0.001957 -0.087640 0.116836 -0.003322 -0.015411 0.002150 0.036990 -0.066297 -0.072429 -0.002145 -0.042738 0.013278 0.007948 0.058724 0.091946 0.194242 0.068137 -0.045362 0.098527 0.088762 -0.006964 -0.026598 0.124689 0.080250 0.014806 0.096385 0.035207 0.001509 -0.062665 -0.077267 -0.016683 -0.033708 -0.002957 0.105676 -0.046649 -0.017505 -0.009534 -0.071798 -0.054502 -0.031913 0.009288 0.059049 0.088330 0.025330 0.053814 0.019732 -0.054259 0.094937 -0.056896 0.025342 -0.031087 0.033103 -0.063573 -0.071131 -0.096580 -0.026270 -0.113361 0.022492 0.101671 0.114620 -0.015182 0.031771 0.131464 -0.022920 0.087128 -0.009342 0.051104 0.156609 0.013575 0.079492 0.044671 0.160160 0.062607 0.052179 0.023302 0.035465 -0.012631 0.064613 0.046602 -0.005429 -0.019606 -0.102213 -0.082678 -0.019109 0.011600
attitude 0.017365 0.064401 -0.009951 0.011464 -0.054030 0.054254 -0.065263 -0.034991 0.022393 -0.086370 -0.061382 0.050334 -0.050993 0.050025 -0.056363 0.009270 0.049102 0.001074 -0.118040 -0.030618 -0.055262 -0.100849 -0.122651 0.009097 0.004892 0.106152 -0.099494 -0.093931 -0.070525 0.021764 0.006724 -0.090421 0.057388 -0.008854 -0.029002 -0.077063 0.202949 -0.110359 -0.071654 0.023132 0.077320 -0.031460 -0.084480 0.026990 -0.069451 -0.004389 -0.024175 0.036850 0.037677 0.013256 0.027979 -0.104986 -0.029760 0.044218 -0.032316 -0.060555 -0.013558 -0.053518 -0.003266 0.093152 0.076402 0.086100 0.077030 0.067424 -0.031387 -0.112688 0.030549 -0.089913 -0.082183 0.105249 -0.003560 0.054822 -0.033152 -0.132667 0.139645 0.008018 0.030425 0.009269 -0.032559 -0.034458 -0.023484 0.029812 0.097761 0.064536 0.012834 0.057990 -0.041348 0.073526 -0.028953 -0.022942 -0.047429 -0.052228 -0.064552 0.063074 0.148441 -0.050417 -0.043450 -0.058713 -0.020600 -0.079200 -0.064700 0.058396 -0.050532 -0.113544 0.035139 -0.104450 -0.061584 -0.104425 -0.002477 -0.042562 -0.064135 -0.029662 0.132912 0.022106 -0.043999 -0.157588 0.009993 0.039624 0.101165 -0.111277 -0.015368 -0.101455 -0.085486 0.038265 0.039373 -0.041720 -0.037683 0.086556 -0.009069 0.173414 -0.036218 0.032728 -0.103629 -0.080072 0.009179 -0.014576 -0.119129 -0.069820 0.068519 -0.000317 0.007594 0.095505 0.037316 0.058158 -0.043378 0.038863 0.074230 -0.042037 0.034161 -0.038634 -0.040513 0.083518 -0.072863 0.063812 -0.005181 -0.001684 0.223161 -0.032264 0.023961 0.067032 0.001292 -0.043331 -0.038005 0.016738 0.040985 -0.086777 -0.036539 -0.001595 -0.117620 0.014350 -0.044445 -0.120007 -0.061276 0.070989 0.054206 0.057240 0.177603 0.064500 0.004385 0.017809 0.029525 0.019329 0.057055 0.057464 -0.011368 -0.160815 0.034852 -0.059170 0.128532 -0.062103 -0.076254 -0.011894 0.009457 -0.100668 0.004813 0.018547 -0.124667 -0.130706 0.009840 -0.163342
automobile 0.027565 -0.031472 -0.028016 0.001991 -0.037211 0.038600 0.126255 -0.034085 0.035395 0.042707 0.087612 -0.054805 -0.005499 -0.041124 -0.009552 0.003594 0.117801 0.134802 0.007023 -0.134107 -0.132072 -0.042814 -0.068080 -0.002030 0.059439 0.013669 0.012541 -0.030558 -0.057256 -0.107988 -0.098431 0.037722 -0.018656 0.120868 0.064847 0.133947 -0.097314 0.040554 -0.172554 -0.006750 -0.009130 -0.055360 0.026422 0.133898 0.038120 0.047800 -0.103156 -0.042154 -0.143694 -0.060236 -0.105494 0.026586 0.051756 -0.013499 -0.055001 0.036568 -0.010490 -0.091398 -0.000395 0.027133 0.026300 -0.024472 0.021852 0.022301 -0.025637 0.065114 0.077706 -0.087835 -0.044839 0.050379 0.045236 -0.017683 -0.015357 -0.001697 0.083459 -0.161846 0.110763 -0.120004 0.017172 0.056479 -0.136696 0.012329 0.075028 0.005557 0.024213 -0.021407 -0.050992 0.017209 -0.085860 0.002249 -0.094463 0.170106 -0.035157 0.011980 -0.130098 0.197559 0.046147 -0.045329 0.048424 -0.017415 0.003823 -0.010660 -0.039114 -0.023634 -0.096268 0.110980 -0.012019 -0.004532 0.055817 -0.066704 0.068142 -0.011576 -0.020770 0.032707 -0.018646 0.079112 0.004342 -0.020432 -0.023966 -0.020756 0.062217 0.064129 0.107664 -0.001283 0.043635 0.040715 0.082565 -0.061644 0.106436 0.081896 0.089533 -0.037199 -0.114305 -0.126290 -0.028795 0.071838 0.021673 -0.012048 -0.019015 0.033762 0.021121 -0.094871 -0.001323 -0.035373 -0.035918 -0.100752 -0.021132 -0.017274 0.002763 0.056821 0.167806 -0.110388 0.007933 0.096842 0.015500 -0.047666 0.080455 0.051095 -0.164208 -0.000826 0.025001 0.062196 -0.103620 -0.087447 0.024680 0.016963 -0.062685 0.029428 -0.010639 -0.128617 0.024338 0.122261 0.032325 0.023075 0.074538 -0.164896 0.067832 -0.014606 0.117635 0.072849 0.090653 0.048853 -0.071074 -0.107125 -0.045849 -0.040068 0.068228 -0.062864 -0.034123 0.070369 -0.043277 -0.074706 0.129831 -0.036886 -0.057662 0.070149 0.033963 0.007135 0.027928 0.013054
avenue 0.178740 -0.022662 -0.059871 0.027335 0.135822 -0.117047 -0.090675 -0.043080 0.037324 -0.171394 0.075215 -0.018625 -0.100211 -0.022627 0.036022 -0.036598 0.098278 0.052964 -0.024981 -0.037732 0.044941 -0.020389 0.091201 0.019336 0.055099 -0.025650 0.048441 0.031603 -0.125707 0.075391 0.041491 0.039108 0.084152 0.014907 0.016486 0.117653 -0.091306 0.015269 -0.156426 0.018707 -0.244917 0.001733 0.027359 0.044148 0.012314 0.049735 -0.018307 -0.042062 -0.037041 0.015153 -0.056610 -0.102431 0.102595 0.005980 -0.002869 -0.052013 0.032459 -0.125858 0.039798 0.022044 -0.002867 -0.047801 -0.014128 -0.007436 -0.014809 -0.046305 0.097057 -0.003529 0.115267 -0.008031 0.063656 -0.009149 0.097635 0.033297 -0.079688 -0.141984 -0.082367 -0.046044 -0.014112 -0.053037 0.076137 -0.074408 0.002026 0.135443 -0.014679 -0.010882 -0.021169 0.011559 -0.021368 0.046804 -0.083555 0.045065 -0.015004 -0.003909 -0.017087 -0.038967 0.004168 -0.051082 -0.123860 0.108816 -0.049761 -0.032192 -0.062674 -0.011523 0.029914 0.000445 -0.043550 0.014308 0.016592 -0.032870 0.060595 -0.070864 0.016290 -0.021362 -0.006695 -0.022870 0.090712 -0.024012 -0.191491 0.101870 0.061067 0.096037 0.058037 -0.067692 -0.086301 0.013889 -0.151256 -0.061343 -0.025768 0.015153 -0.093959 -0.019971 -0.059928 -0.039161 0.003578 0.041968 0.112490 0.073987 -0.130263 -0.028198 -0.052754 -0.054371 -0.064194 0.052650 0.025737 0.002286 0.112855 -0.119939 -0.039756 -0.032963 0.091692 -0.027557 -0.022533 0.001099 -0.107047 -0.013519 -0.128887 0.025991 0.081730 -0.179725 -0.002713 -0.012735 0.081960 -0.066217 0.040576 0.122327 -0.095196 -0.006976 0.000936 -0.102237 -0.018058 -0.106922 0.028345 -0.027440 0.027929 0.004433 0.094166 0.013716 0.003630 0.067688 0.054876 0.041138 0.009202 -0.016789 -0.132161 0.079070 -0.020764 -0.014363 0.061354 -0.058621 0.005127 -0.046249 -0.149259 0.124266 -0.137827 -0.004086 0.046428 0.044160 -0.023117 -0.083192
baby 0.106316 0.001045 0.094756 -0.103247 -0.022155 -0.005201 0.044127 -0.007338 0.034586 0.030396 0.004456 0.004566 -0.019165 -0.014415 0.054378 -0.067203 -0.026994 0.078269 0.012056 -0.007564 0.077067 0.026848 -0.120361 -0.103073 -0.014149 0.019168 -0.080459 -0.053517 0.049935 0.028193 -0.010979 0.055799 -0.065976 0.043478 0.067517 -0.058269 0.144251 -0.159688 0.022586 0.003557 -0.149438 0.021850 -0.101668 -0.072862 0.054507 -0.043872 -0.033614 0.081981 0.042443 -0.028721 0.059218 -0.070391 -0.099422 0.008479 0.167900 -0.034839 0.071832 0.015141 0.058144 0.069122 0.037059 -0.065301 -0.073833 0.140293 0.031420 0.120169 0.056618 0.022737 0.012240 -0.041583 -0.012268 0.076148 0.078753 0.000868 0.009129 -0.037214 -0.105670 0.072351 -0.041766 -0.033848 0.040319 0.048393 -0.116127 0.015245 -0.007208 0.069969 -0.014122 0.084264 0.048930 -0.050954 0.073015 0.227023 -0.008702 0.181257 -0.027721 0.202988 0.042587 0.023424 0.034075 0.003096 -0.048579 -0.068335 -0.008661 -0.175447 -0.004175 0.007444 -0.045675 -0.003261 0.050255 0.005203 -0.061933 0.078747 -0.028189 -0.065653 0.052786 0.050440 0.078932 -0.039671 0.026658 0.090221 0.042873 -0.150794 -0.131594 0.128123 -0.104335 -0.167021 -0.036466 0.045332 0.086054 0.032024 -0.087456 0.094726 0.091406 -0.027654 -0.037864 -0.014356 0.002331 -0.074288 -0.036303 -0.000563 0.021573 -0.005081 -0.038147 0.064015 0.023548 0.096908 -0.008456 -0.046550 0.016045 -0.001471 -0.014394 -0.016983 -0.031365 -0.009548 0.155364 -0.114463 0.011621 -0.008547 -0.086324 0.070124 0.053872 0.020631 0.007695 -0.065910 0.085966 0.135760 -0.057418 0.078441 0.046902 -0.009090 0.025164 -0.049735 0.088662 0.035740 0.113786 -0.024137 -0.044055 -0.056469 0.091106 0.094310 0.083109 -0.059624 0.057871 -0.083733 -0.009368 -0.000054 -0.031026 -0.038403 0.010915 -0.047883 0.037643 0.010244 -0.039325 0.058031 0.056609 0.184872 -0.014494 0.082171 -0.018044 -0.083168
bank 0.030895 -0.001556 -0.217102 -0.115132 0.034029 -0.037028 -0.054677 -0.011697 -0.043763 0.047040 0.026318 -0.008842 0.073671 -0.102069 -0.071274 -0.103647 0.062760 0.011843 -0.117016 -0.069159 -0.081345 0.068161 0.125012 -0.169822 0.155648 -0.191594 0.060509 -0.032867 -0.023582 0.032092 0.102011 -0.004370 -0.004650 0.010631 0.064526 0.005669 0.044371 0.098956 -0.060525 0.065113 -0.105951 0.075550 0.053280 0.018363 0.084800 0.047185 0.145162 -0.003024 0.017887 0.065632 0.016564 0.006976 0.080792 -0.101666 0.008656 0.009971 -0.000906 -0.062534 0.074390 0.072805 -0.127729 -0.115310 0.022435 0.056150 0.127360 -0.017710 0.097905 -0.030962 0.057366 0.040700 -0.073111 0.020814 -0.023583 0.066761 0.030195 -0.130140 0.084714 -0.120166 0.054055 0.090653 -0.108306 -0.065519 0.039423 0.006583 0.134856 -0.024299 0.049098 0.126795 0.121166 -0.038334 0.020593 -0.062880 -0.052419 0.014245 0.057027 -0.049835 -0.023294 0.018351 0.040848 -0.016070 -0.004364 0.009415 -0.092044 0.011214 -0.020105 -0.002658 -0.161723 -0.022816 -0.022173 -0.018712 -0.038725 0.054139 0.000571 0.070796 0.068155 -0.102459 0.019145 -0.002574 0.086532 0.001671 0.194128 0.050592 -0.091976 -0.091910 0.015685 -0.035616 -0.107985 -0.010210 -0.020825 -0.035793 0.069332 0.009146 -0.063290 -0.083371 -0.009314 0.022022 0.031628 0.039174 0.017697 -0.078795 0.105326 -0.013954 -0.025623 0.129637 0.004207 0.029773 0.086482 -0.060190 -0.041770 -0.127968 0.113273 -0.036406 -0.009912 -0.062831 0.038250 0.004510 -0.030190 -0.006429 -0.049635 0.041933 -0.073855 0.118963 0.019992 -0.074208 -0.052044 -0.015070 0.034173 0.111480 -0.050602 -0.013861 -0.026498 0.073721 -0.013895 0.048065 -0.015535 0.120106 -0.015562 0.004633 0.085005 0.048738 0.089498 0.002545 -0.032331 0.028346 -0.017358 0.025102 -0.008510 -0.107669 -0.037645 -0.126027 -0.047684 -0.023802 -0.127086 -0.014672 -0.033646 -0.027260 0.036037 0.073545 -0.059730 0.126485
baseball -0.032227 -0.030251 -0.048063 -0.036372 0.092749 -0.020670 0.019607 -0.073462 0.110319 0.055569 0.079370 0.016613 -0.120117 -0.021585 -0.006423 -0.050507 0.048228 0.012236 0.051354 0.019027 0.019846 -0.016711 -0.037225 -0.066809 0.036513 0.037650 0.052894 0.105763 0.022198 0.017083 -0.167710 0.040993 0.019153 0.005109 0.025991 -0.107301 0.013402 -0.080891 -0.073646 0.057501 0.117347 0.081522 -0.042751 0.037440 0.196025 -0.041437 0.078919 -0.054738 -0.135571 -0.047722 -0.136308 0.066849 0.080591 0.035093 0.055593 0.030617 -0.086528 0.062306 0.011725 0.042155 -0.052004 0.063320 0.143037 0.059353 0.052527 0.008693 -0.077158 -0.003488 -0.046557 0.017147 -0.021330 -0.051659 0.016699 0.112153 0.056999 0.048141 -0.062341 -0.065405 -0.090573 0.024942 -0.052725 -0.027293 -0.076159 0.031797 0.029200 0.027958 0.003685 0.047661 0.001666 -0.021443 -0.119678 -0.051986 0.122036 -0.030092 -0.133873 0.048938 -0.028104 -0.138946 0.025218 -0.015331 -0.066931 0.023976 -0.000459 -0.019056 0.024412 -0.096781 -0.017179 0.173800 -0.127934 -0.051450 0.164209 -0.005524 -0.053583 -0.067673 0.094139 0.011435 0.117488 -0.025727 0.001945 0.021696 0.062013 -0.088542 -0.133761 0.079310 0.087013 0.004264 -0.009640 -0.042177 -0.061751 0.041330 -0.086282 -0.005459 -0.135306 -0.096666 -0.008894 0.046322 0.083033 -0.075318 0.074060 -0.140301 -0.061626 -0.135775 0.080866 -0.055852 -0.105291 -0.085863 -0.060526 0.035757 0.037224 -0.071617 -0.082894 -0.039883 -0.099394 0.148572 0.069155 -0.116854 0.021248 -0.063829 -0.049402 -0.105147 -0.059546 0.077112 -0.057584 0.001162 0.068652 0.096208 0.002069 0.116935 0.100371 -0.056759 -0.128904 0.071942 -0.004454 0.001684 -0.071217 -0.009711 0.039703 -0.021735 -0.014418 -0.002799 -0.072223 0.089747 0.080745 -0.051992 0.085185 -0.093451 -0.008492 0.031068 0.026450 0.047494 -0.066399 -0.039901 0.041469 -0.091158 -0.045373 0.047279 -0.038852 0.053368 0.001244 0.061624
basketball -0.059942 0.027424 -0.011948 0.113669 0.095243 -0.019809 -0.066145 -0.063117 0.039450 0.073489 0.051127 -0.043559 -0.063464 -0.011681 -0.032463 0.014914 -0.009653 -0.071427 -0.042148 0.059520 -0.048493 0.009969 -0.044990 0.134818 0.028006 0.024353 0.080671 0.095125 0.089927 0.056415 -0.054509 0.051064 -0.013935 0.082037 0.080824 0.018563 -0.055035 -0.117053 0.128824 0.018767 -0.038875 0.051353 0.100509 0.044564 0.088574 0.116582 0.047437 -0.069020 -0.035166 -0.023219 -0.012583 0.127573 0.152508 0.042924 0.030773 0.044157 0.060407 0.018455 -0.057721 -0.164252 -0.024324 0.045692 0.210921 0.001872 0.004621 0.029105 -0.006618 0.013342 -0.058195 0.053559 -0.009940 -0.020339 -0.057368 0.087296 -0.042205 0.098547 -0.091656 -0.023559 -0.036485 -0.012428 -0.065472 -0.060721 -0.056545 0.023526 -0.003133 -0.066717 0.095525 0.079281 0.005816 -0.028742 -0.058387 -0.031713 0.051036 0.082108 -0.149550 -0.000788 0.006594 -0.031729 0.076528 0.079892 -0.096011 0.012102 0.062518 -0.066226 -0.005491 -0.095185 -0.028773 0.087907 -0.004446 -0.072988 0.144057 0.063759 -0.029834 -0.055004 -0.008228 -0.120553 0.109858 -0.077082 -0.048075 0.034324 0.090460 -0.131231 -0.013501 0.080652 0.081913 0.024282 -0.039313 -0.079086 -0.060312 0.015120 -0.005345 -0.092679 -0.068547 0.001621 -0.012169 0.022441 0.130211 -0.032639 -0.045380 -0.120285 0.026929 -0.165057 0.093180 -0.107892 0.033249 -0.029047 -0.022673 0.003533 0.017923 -0.045322 -0.006186 -0.102341 -0.104241 0.106874 0.141738 -0.099466 -0.007802 -0.054537 -0.113944 -0.136874 0.003150 -0.043778 -0.052925 -0.041461 0.080118 -0.046952 0.007268 0.087286 0.090214 -0.241784 -0.029821 0.036996 0.031638 -0.003927 -0.072745 -0.038268 0.106673 -0.098612 -0.022892 0.026697 -0.102627 0.113839 0.067141 -0.030201 0.084066 0.033736 0.028563 0.001218 -0.007529 -0.023436 0.088630 -0.002597 0.013739 -0.041073 -0.025707 0.074495 -0.068834 0.000586 0.036579 -0.021797
bed 0.034191 -0.049656 -0.037625 -0.058480 0.014821 0.017571 -0.115502 0.048970 -0.092763 0.064835 -0.072173 -0.074339 -0.013685 -0.018621 0.047714 -0.036364 0.052367 0.006710 -0.160749 -0.036132 0.111884 0.008057 0.085604 0.025126 -0.060552 -0.050764 -0.070096 0.008928 0.007462 -0.009923 -0.044329 0.037636 -0.017643 -0.072391 0.093494 0.055507 0.020361 0.074645 -0.008585 -0.006279 -0.118954 -0.036960 -0.094956 -0.093476 0.054653 0.011185 -0.145553 0.071946 0.042116 -0.016137 0.067386 0.090289 -0.030993 -0.046237 0.070376 -0.072412 0.096209 0.047189 -0.028698 -0.057219 0.037103 -0.086362 0.083766 -0.044115 0.042542 -0.035726 0.193875 0.045848 0.012337 -0.141984 0.086460 0.072023 0.008428 -0.008914 -0.093361 0.031529 -0.019501 0.032722 -0.037387 -0.055681 -0.029275 0.134574 -0.029283 -0.037268 -0.151189 0.018899 -0.053892 0.074512 0.062725 -0.109447 0.064497 -0.017168 0.015190 0.129139 0.068439 0.058583 -0.002106 -0.003053 0.138665 -0.113489 -0.054691 0.035122 -0.031071 -0.049695 0.065349 0.012541 -0.038251 -0.078605 0.074387 -0.050421 -0.158548 0.168212 -0.005791 -0.083762 -0.002602 -0.052756 0.077487 0.058192 0.043004 0.003898 0.086071 0.140512 -0.013631 -0.048506 -0.020068 -0.057411 -0.069268 -0.042620 0.109556 -0.021879 -0.027469 0.009879 0.114976 -0.032498 -0.029225 -0.086307 0.101541 -0.063732 -0.008748 0.098153 -0.043675 0.086856 -0.003237 0.122317 -0.040617 0.181081 -0.133875 -0.094049 -0.003200 -0.019924 0.085040 -0.018815 -0.057872 -0.004091 0.106523 -0.073068 -0.022423 0.034217 0.000173 0.057638 0.067944 0.054538 0.042757 -0.069078 -0.013769 0.078843 -0.091446 -0.067737 0.076190 -0.064291 0.094301 -0.054243 0.015388 0.032299 0.037363 -0.079198 -0.018878 0.057009 -0.045126 0.063893 -0.032581 -0.094701 -0.161121 0.053151 -0.065077 0.079006 0.068174 0.129701 0.016588 -0.024600 -0.075243 -0.036175 -0.055080 0.017195 -0.142711 0.097405 -0.044856 -0.025652 0.050801 0.026797
benchmark -0.058499 0.149300 -0.083887 0.069569 -0.051643 0.020669 0.209480 -0.014157 0.028417 -0.064823 -0.014780 0.033075 0.039300 0.078217 -0.003982 0.063051 -0.084991 -0.026727 -0.040799 -0.095385 0.003197 0.054254 0.008521 -0.010908 0.048190 -0.040779 0.014202 -0.008869 -0.005806 0.033984 0.160254 -0.035644 0.068868 0.047073 -0.139983 0.065669 -0.036806 0.054186 0.062081 -0.095077 -0.035393 -0.130898 0.107669 -0.030666 -0.048916 0.015994 0.025609 0.011426 0.168644 -0.006267 -0.104256 0.031016 0.034559 -0.022157 -0.079699 0.074412 -0.037001 0.098523 -0.032165 0.103872 0.010292 -0.101643 -0.001889 -0.044787 0.163773 -0.085447 -0.085765 -0.102883 0.036055 -0.005172 -0.034893 -0.040028 -0.075916 0.076138 -0.045772 -0.109923 0.064868 -0.105519 0.081589 -0.007883 0.031045 0.021027 -0.102370 -0.008277 -0.127348 0.015698 0.055636 0.024803 0.021164 -0.021820 -0.070768 0.013408 0.019869 -0.040342 -0.039130 -0.046071 0.080677 0.080199 -0.014199 -0.043327 -0.058766 -0.035920 0.005321 -0.060959 -0.030698 0.041494 -0.030513 0.050579 -0.067996 0.015265 0.019728 0.101832 -0.052362 0.130033 0.007809 0.061001 -0.009469 0.038867 0.017129 0.133036 0.044367 0.062127 0.111377 -0.021197 0.057078 0.066762 0.004080 -0.041903 0.025517 -0.058162 0.039008 -0.041719 -0.013269 -0.045727 0.013025 0.036125 -0.026637 -0.202972 0.024587 0.054457 -0.076445 -0.045423 0.208041 0.067872 -0.062451 -0.021918 0.002970 0.132378 0.089730 0.078943 -0.016815 0.030774 -0.033106 -0.011259 -0.025930 -0.096733 -0.045451 0.011410 0.056510 -0.090886 0.018408 -0.010063 0.119514 0.083128 0.005463 -0.058903 0.080461 0.043699 -0.097792 -0.092371 -0.075655 0.038635 0.186413 0.064801 -0.065380 0.076246 0.022740 0.041860 0.072648 -0.018578 0.057631 0.138479 0.007849 -0.057445 0.002561 0.139806 -0.039543 -0.097734 0.083379 0.007263 0.060673 -0.033112 -0.054106 -0.093887 0.122671 -0.028889 0.055315 0.051448 -0.033979 0.117388
bird 0.045246 -0.071811 -0.044441 -0.026143 0.088512 -0.082395 -0.135406 -0.070577 0.028538 0.057246 -0.064187 -0.018435 -0.029892 0.154935 -0.079113 -0.079323 0.079709 0.018940 0.115945 -0.089260 0.181596 0.025425 -0.032365 -0.056434 -0.051005 -0.038242 -0.022510 0.042024 0.017360 -0.003614 -0.055192 0.124614 -0.047500 0.070051 -0.039427 0.010073 -0.029459 0.042560 0.037224 -0.009866 -0.045284 -0.067949 0.113565 -0.004894 0.131564 -0.042429 0.126520 0.021059 0.022353 -0.066720 0.013789 -0.014569 -0.001743 -0.025754 -0.143297 -0.023639 -0.057538 0.058762 0.127729 -0.069298 0.109710 0.003207 0.024378 0.040476 0.010739 0.069404 0.084778 0.070183 -0.049222 -0.017222 -0.024021 -0.064686 -0.201687 -0.088691 -0.039257 0.046875 -0.048084 -0.020939 0.033698 -0.040478 0.042999 0.001841 0.038536 -0.045016 -0.035726 -0.007360 -0.010821 0.027344 0.054348 0.060055 0.108528 0.185579 0.049711 -0.019310 -0.079070 0.180459 -0.006533 0.126319 -0.107372 -0.075684 0.042539 -0.034197 0.043639 -0.136392 -0.039897 -0.024215 -0.083241 -0.060428 0.014229 0.051874 -0.079585 0.090862 -0.076636 -0.033733 0.059851 -0.170931 -0.066380 0.063276 0.005527 0.010729 -0.006498 -0.078580 -0.099265 0.079910 -0.078905 0.012811 -0.047306 0.143956 -0.025500 0.143480 -0.014024 -0.009759 0.005473 -0.035598 0.003307 -0.021897 0.057089 -0.063762 -0.123095 0.028686 -0.038522 0.058517 0.109845 0.133991 -0.024756 0.017081 -0.019823 -0.031584 -0.038356 -0.085786 -0.048566 0.086319 -0.013079 0.122904 0.087106 -0.044339 -0.044472 -0.020030 0.012546 0.059105 -0.013620 -0.013817 0.032029 -0.062462 0.110797 -0.038886 0.011727 0.073797 0.077940 -0.124247 0.068971 -0.052128 0.013380 0.095949 -0.073725 0.050412 -0.021859 -0.095162 -0.060974 -0.044973 0.041135 0.029073 -0.035350 -0.018572 -0.047528 0.073717 -0.063352 0.032844 -0.000440 -0.003903 0.180068 0.034358 0.044900 0.007514 -0.022307 0.091979 -0.076288 -0.128812 -0.025820 -0.042636
