436 128
American -0.120756 -0.054043 -0.065496 0.103490 -0.017752 0.040348 -0.011442 0.021186 0.020522 -0.033989 -0.079386 0.194837 -0.007186 0.012183 -0.213760 0.057495 0.039018 0.080865 0.022253 0.088227 -0.049727 -0.099946 -0.090996 -0.012578 -0.134159 0.044964 -0.148398 -0.036154 0.012972 0.056191 0.064234 0.087814 0.250345 -0.140222 -0.003798 -0.069544 0.067142 0.038505 0.252522 -0.005947 0.009342 0.082964 -0.088681 0.030807 0.017675 -0.036666 0.033327 -0.018866 0.073689 -0.084564 -0.154215 0.196019 0.095300 -0.105260 -0.081679 -0.013255 0.128185 0.107950 0.028562 0.074325 0.026156 -0.039988 0.030952 0.019122 0.000663 -0.116873 0.099107 -0.081525 -0.116279 -0.045239 -0.031589 0.023697 -0.037795 -0.063948 0.100380 0.130073 0.096013 0.009058 0.014558 -0.027266 0.085397 0.166562 0.143227 -0.002626 0.084181 -0.075804 0.032902 0.009347 0.008724 -0.059492 -0.085288 0.104281 0.098617 -0.020122 -0.109635 -0.157183 -0.060908 0.032677 -0.019809 -0.129265 0.030898 0.053905 0.034894 -0.042237 0.014204 0.047042 -0.099856 0.100401 -0.003210 -0.141481 -0.014477 -0.034415 -0.056895 0.056300 0.041352 0.085220 -0.077741 -0.136682 -0.178633 0.115005 0.116541 0.026850 0.037691 -0.224540 0.059968 -0.007870 0.046959 0.019775
Arafat 0.022106 -0.002387 0.175271 -0.017878 -0.210315 -0.002943 -0.241139 -0.058843 -0.106821 0.069217 0.000566 0.002415 0.195047 0.113674 0.040877 0.176334 -0.177336 -0.070453 0.102036 0.001279 -0.044584 -0.071481 0.091276 -0.018404 -0.036485 0.155461 -0.013936 0.051595 -0.001593 -0.111902 -0.003134 0.030973 0.061558 -0.005507 -0.033241 -0.119726 -0.029534 0.042826 0.044825 -0.179333 0.004538 -0.121147 0.013036 -0.005418 0.026168 0.090605 0.001556 -0.033232 0.044473 -0.074358 0.087246 -0.081027 -0.174651 0.010450 -0.083501 0.091756 0.028812 -0.102892 -0.066586 -0.155325 0.074041 0.047189 -0.036134 0.026073 0.221376 0.061049 0.023324 -0.003658 0.029404 0.016388 0.012809 -0.104159 0.029123 -0.078791 -0.137127 0.088015 0.023627 0.107642 -0.070280 -0.084190 0.029638 -0.056441 0.135654 -0.049451 -0.015744 0.037355 -0.015938 -0.001575 0.123769 0.007883 0.158076 0.014960 0.017424 0.047594 0.064418 0.088419 -0.182992 -0.136309 0.107671 -0.037669 -0.091519 -0.089774 0.026217 0.072099 -0.049371 -0.063858 0.132653 0.064902 -0.066589 0.067760 0.040320 -0.131196 -0.103817 0.013841 -0.152208 0.049125 -0.055308 0.115292 -0.113575 -0.091683 0.055917 0.012592 0.019299 -0.087757 0.019142 -0.136994 0.070239 0.038310
Brazil 0.148758 -0.016169 -0.051974 -0.001168 0.021512 -0.011585 0.003030 0.071152 0.016357 -0.072279 -0.008967 0.085318 -0.001790 0.172364 -0.028637 0.074184 0.033447 0.060418 0.006586 0.115369 -0.127304 -0.141033 -0.075653 -0.060074 -0.106514 -0.136770 0.047845 0.039812 -0.111083 0.073423 -0.046970 0.014568 0.250689 -0.066089 -0.001932 0.002401 0.012001 -0.077475 0.017493 -0.018992 0.088907 0.066365 0.053476 0.094173 -0.140541 -0.022806 -0.050838 0.059589 0.032907 0.025089 0.060161 0.058443 -0.111939 -0.126106 0.059787 0.060866 0.064707 0.152874 0.054538 0.192010 -0.127525 -0.143944 0.058040 -0.113385 0.023041 0.004596 -0.178424 0.094999 0.028199 0.067443 0.039935 -0.084799 0.055900 -0.047852 0.019549 0.045447 -0.051336 -0.097285 0.164428 -0.018672 0.026918 0.000576 -0.002661 -0.034785 -0.024730 0.113289 -0.064645 -0.016481 -0.108085 -0.022260 0.185398 -0.011821 0.074717 -0.076803 0.007648 0.122894 0.026178 -0.021890 -0.017798 0.079247 -0.028837 0.202740 -0.179081 -0.004254 -0.034813 0.089471 0.036602 -0.056744 -0.017483 0.040069 0.003390 0.158148 -0.061536 -0.006028 -0.016821 -0.108365 -0.183686 -0.013167 0.040664 0.309523 0.013245 -0.099086 0.058785 -0.088579 0.016720 -0.083951 -0.098055 -0.095744
CD -0.033570 0.054897 0.057716 -0.003418 -0.036788 -0.235327 -0.054455 -0.026540 0.127848 -0.026474 0.004333 -0.007375 -0.023597 -0.002123 -0.088964 -0.127351 0.032752 0.041376 0.020501 0.121567 0.057580 -0.059305 0.001373 0.108463 -0.043961 0.055271 -0.037124 -0.045833 0.077093 0.019723 0.007883 -0.020464 -0.041145 0.094045 0.026528 0.196075 -0.028600 0.083341 0.109384 -0.022151 -0.063883 0.052538 0.118019 0.007015 0.016718 -0.072799 -0.082921 0.262759 0.107579 -0.104558 0.028130 -0.033299 0.127441 0.071781 -0.092586 0.095842 0.009387 0.167840 0.057140 -0.002625 0.180336 -0.011931 -0.078068 -0.102334 0.014859 -0.033622 0.080989 0.109400 -0.011277 -0.019818 0.138132 0.095018 -0.043490 -0.072956 0.023329 0.112910 0.038466 0.111352 0.054211 -0.158523 -0.014220 -0.075471 -0.051421 -0.194887 -0.158695 0.002602 -0.080425 -0.091760 0.029007 0.162150 -0.094313 -0.020601 -0.121571 -0.035883 0.114963 -0.025954 0.205919 0.030151 -0.077588 -0.009402 -0.070098 -0.041199 -0.064526 -0.064732 -0.030652 0.127682 0.078618 0.010735 0.095853 0.040614 0.011870 -0.106844 0.069276 -0.053934 0.000864 0.092741 0.005616 0.020026 -0.019862 0.013943 -0.171021 0.092868 0.104065 0.138935 -0.075301 -0.142484 0.189903 -0.015381
FBI -0.108666 -0.069071 0.095408 0.081502 0.200493 0.119184 -0.031214 -0.053059 -0.018196 0.081395 -0.122982 0.024313 0.045214 0.033614 0.233528 -0.005991 -0.039525 0.099502 -0.023808 -0.120751 -0.043326 0.190907 0.056700 0.027382 0.083818 0.012291 -0.075968 -0.119743 0.019877 0.107596 -0.082548 -0.003433 -0.122756 0.038435 -0.116401 -0.086715 -0.017870 -0.062522 0.110290 0.002476 -0.185306 0.015276 -0.069284 0.051212 -0.010426 -0.014012 0.025560 0.081550 -0.024420 0.012106 0.042595 0.037639 0.016257 -0.109499 -0.125049 -0.114618 -0.029238 -0.010077 0.061764 -0.000812 0.102800 0.034624 0.023016 0.059156 0.063908 -0.188379 -0.057490 -0.158135 -0.020579 -0.049685 0.125169 -0.134625 0.006501 -0.110339 -0.064611 0.156616 0.074569 0.095948 0.124485 0.021515 0.042180 0.027871 0.036214 0.090629 0.270136 0.070843 -0.058126 0.024866 0.028905 0.073210 0.058288 0.136050 -0.016449 0.004940 -0.068737 0.064996 -0.061971 -0.041183 -0.018115 0.048559 0.088404 -0.098107 0.020921 0.119193 0.185886 0.059174 0.054656 0.074620 0.170148 0.072391 -0.088709 0.002084 -0.009730 0.010581 -0.065375 0.105159 -0.090486 0.128049 -0.157092 -0.031647 -0.128948 0.085200 0.053107 0.008454 -0.035256 0.113449 0.039726 0.003543
Freud 0.038156 -0.007126 0.048515 -0.070408 -0.131846 -0.000428 0.046081 -0.042112 -0.011364 -0.168922 -0.000641 -0.036328 0.126810 0.066536 0.049714 0.063576 0.116792 -0.030437 -0.119389 -0.004124 0.035742 0.050945 0.090364 0.061930 0.026422 -0.154442 -0.161672 0.020406 0.199232 0.020496 0.040238 0.028868 0.100025 0.182316 0.029054 0.073701 0.114410 -0.085603 0.068835 0.010833 0.116572 0.021842 0.100215 0.068278 0.010766 -0.019996 -0.077217 -0.177594 0.025495 0.010479 -0.041614 -0.035427 0.114578 0.001510 -0.036234 -0.177114 -0.109224 -0.048543 0.043612 -0.105079 -0.061446 -0.033143 0.068811 -0.049278 0.036650 0.102924 0.091924 -0.295588 -0.039209 -0.032542 0.033037 0.061333 -0.053418 -0.051837 0.069270 -0.038915 -0.151231 0.048556 -0.024983 -0.182607 -0.017298 0.002135 -0.012148 -0.035986 0.092290 0.147142 0.131694 -0.139814 0.138764 -0.148149 -0.029027 -0.100684 -0.112929 0.059453 0.054034 -0.156739 -0.104020 -0.067188 -0.003685 0.045235 0.074573 -0.124612 -0.024175 -0.055992 -0.042350 -0.015915 0.127633 -0.015591 0.023124 0.077385 0.197720 -0.095098 0.002099 0.063860 0.019660 -0.038865 0.066253 -0.000904 -0.000915 0.132371 0.067998 -0.006667 -0.163545 -0.062273 0.086327 0.072990 -0.000494 0.040915
Harvard 0.102500 0.025336 0.006380 0.082148 0.035494 0.076270 0.162258 -0.123958 -0.056791 0.120804 0.100084 0.025115 -0.007243 -0.055128 -0.139639 -0.028984 0.028771 -0.070035 0.009693 -0.162396 0.000827 0.143713 -0.133281 -0.023281 0.105451 -0.056932 -0.004924 -0.061610 0.014061 -0.092361 0.104429 0.033709 0.114139 -0.131369 -0.055239 -0.052207 0.092625 0.157429 0.198591 -0.027073 -0.013037 -0.096181 -0.008256 0.196267 -0.077178 -0.016586 -0.020060 -0.072922 -0.004188 0.029307 0.042309 -0.075910 -0.077796 -0.123478 0.053332 -0.016858 0.054603 0.146043 -0.045972 -0.031907 0.015030 -0.077831 0.029980 0.098877 0.081385 -0.065995 0.106590 -0.129333 -0.188073 -0.131521 -0.073678 -0.012447 0.068051 -0.013624 -0.020700 -0.020672 0.088552 0.042504 0.002318 -0.018640 0.104329 0.165636 0.086891 -0.090908 0.053628 0.038365 0.137116 -0.009060 0.086984 -0.095403 -0.090366 0.019112 -0.027734 0.143166 -0.033181 0.050857 -0.025103 0.152431 -0.092605 0.084060 0.021350 -0.008639 0.083466 -0.119822 0.080101 -0.033028 0.094653 0.064955 0.016366 0.064329 0.119110 -0.040718 -0.026556 0.167858 -0.007243 -0.063023 0.006172 -0.066465 -0.138811 0.059059 0.037840 0.113927 -0.193537 -0.126630 0.183303 0.064217 0.078647 0.098646
Israel 0.042795 -0.051281 0.112301 -0.135938 -0.105519 -0.022961 -0.130743 -0.066457 -0.120824 0.070714 -0.043887 0.106181 0.127171 0.118105 0.051026 0.241047 0.001774 0.029394 -0.160358 -0.043695 0.027047 -0.007644 0.058280 -0.081805 -0.132935 0.008820 -0.139320 0.190523 -0.004888 -0.030402 0.026833 0.122703 0.024603 -0.090409 -0.182044 -0.050057 -0.126132 -0.066181 0.010714 -0.049542 -0.023196 -0.160781 -0.079259 -0.038786 -0.036992 0.049695 0.059793 0.006576 0.165268 -0.067642 -0.093019 0.086393 -0.058301 -0.091407 0.064787 0.028522 0.026913 0.032360 -0.026563 -0.118706 0.057501 0.005447 -0.039923 0.083361 -0.034257 -0.136780 0.080533 0.233221 -0.044241 0.027802 0.041618 -0.164180 0.075247 -0.108417 -0.009608 0.105560 0.009512 -0.013442 0.015921 0.041347 0.010966 0.026799 0.140328 0.049882 -0.026283 0.144822 0.022921 -0.008399 -0.001112 0.001175 0.195618 0.036021 0.095738 -0.099231 0.046670 0.125705 -0.083563 -0.050630 0.110297 -0.011448 -0.058880 -0.103415 -0.132411 0.040888 0.052089 -0.049070 0.101108 0.148684 -0.151570 0.015982 0.099538 0.065329 -0.091857 0.072276 -0.025081 0.002385 -0.047442 0.081135 0.035394 -0.066627 0.062643 -0.033629 0.176159 0.059430 -0.000977 -0.108168 0.028595 0.006329
Jackson -0.145757 0.049745 -0.080533 -0.029315 0.089326 -0.073261 0.034595 -0.046407 -0.043975 0.130898 -0.013359 0.001002 0.102986 -0.066345 -0.030664 -0.043164 -0.010805 -0.030026 -0.060700 -0.021240 0.026924 0.243976 -0.085968 0.109754 0.000563 0.089720 -0.077078 -0.160579 0.049373 0.019683 0.033092 -0.124181 -0.076459 -0.101821 0.040909 -0.011170 0.066492 -0.038376 -0.036453 -0.000712 0.030107 0.095010 0.133519 -0.191520 -0.064960 -0.033578 0.000986 0.014981 -0.033824 -0.029292 0.081878 -0.048304 0.175594 -0.041526 -0.140901 -0.078544 0.035029 0.028119 0.024150 -0.066359 0.052862 0.012920 0.032622 0.118882 0.171507 0.101098 -0.060670 -0.003992 0.013092 -0.113396 0.012007 0.085882 -0.006784 -0.040013 -0.015839 -0.018874 0.135077 0.032876 0.056606 -0.131819 -0.018695 0.063084 -0.020610 -0.023658 0.027134 0.068463 -0.082838 -0.114198 0.078417 -0.023811 0.054998 0.202387 -0.145084 0.024850 0.091692 -0.013197 -0.078439 0.044262 0.029527 -0.130395 0.102283 -0.099116 -0.114734 -0.011472 -0.075937 0.025405 -0.027877 -0.148347 -0.072769 0.202010 -0.072565 -0.042816 0.020686 -0.089407 -0.062105 -0.080596 -0.058213 -0.078701 -0.272854 0.092537 -0.054965 0.166044 0.114074 -0.179379 0.006898 -0.093357 0.084584 -0.136105
Japanese -0.062258 -0.010403 0.096304 0.121742 -0.092155 0.054200 -0.045690 -0.021106 0.084887 -0.012439 0.067446 0.164368 0.082618 0.165608 -0.182912 -0.074718 -0.075771 0.010835 0.074511 0.029707 -0.002399 -0.204190 -0.057047 0.004397 0.061980 -0.028043 -0.063690 -0.050293 -0.021371 0.065677 -0.013871 -0.047031 0.156378 0.046989 -0.042958 0.127399 -0.000223 -0.102152 0.123271 0.021430 0.060459 0.141728 -0.004745 -0.041112 -0.026794 -0.039088 0.041499 -0.075926 0.096249 -0.074504 -0.072379 0.132903 0.010966 -0.203136 0.025764 -0.126823 0.085111 -0.006711 -0.025856 0.062855 0.004514 -0.143113 -0.043259 -0.086936 -0.163982 -0.088369 0.231329 -0.066363 -0.012810 0.097063 0.030155 0.019079 0.149879 -0.146600 0.039400 -0.002942 -0.016782 -0.201923 0.001093 0.078996 -0.064837 0.039340 -0.089347 -0.052704 -0.013232 0.046234 0.146540 -0.056045 -0.142728 0.027830 -0.074716 0.100121 -0.064838 -0.053075 -0.034513 0.046377 -0.022613 -0.051249 -0.032868 -0.041589 -0.115913 0.094297 -0.142501 -0.016998 0.050102 0.020146 -0.081206 -0.016109 -0.120917 -0.057760 -0.125151 -0.183986 -0.021005 0.092800 0.164370 0.066020 0.011799 -0.017741 0.008252 0.044687 0.161735 -0.077182 0.023388 -0.142661 0.028809 0.064972 0.108585 0.024954
Jerusalem 0.026907 -0.003952 0.117976 -0.133241 -0.105828 -0.069791 -0.035643 -0.097105 -0.117924 0.185791 0.000636 0.104408 0.036429 0.093851 0.111947 0.146350 0.002185 0.046614 -0.095725 -0.081783 0.079634 -0.010117 0.036720 0.006625 -0.013164 0.036520 -0.057058 0.103709 -0.008809 -0.113635 0.094456 -0.019299 -0.030312 -0.146639 -0.014583 0.002881 -0.038296 -0.078220 -0.007341 -0.206730 0.071891 -0.190849 0.139952 -0.046585 -0.090043 0.136506 0.000636 -0.056369 0.067589 -0.034111 -0.031227 0.036433 0.031105 -0.038749 -0.050711 -0.069730 0.008350 0.101313 -0.042038 -0.135635 0.092249 0.019038 -0.038579 0.103979 -0.086430 -0.010698 0.022031 0.172243 -0.089168 0.014806 -0.042101 -0.044609 0.079531 -0.114198 0.007676 -0.022486 0.003944 -0.128317 0.064343 0.047958 0.110219 -0.005648 0.203955 -0.016837 0.006308 0.199267 0.053522 -0.104548 0.137333 0.027348 0.116442 0.078085 0.020482 -0.211129 0.080359 0.099013 -0.169795 -0.042151 0.085131 0.056793 -0.113851 -0.154623 -0.076552 0.004460 0.055264 -0.105443 0.016284 0.148618 -0.157639 0.059878 0.028982 -0.047918 -0.093414 -0.031802 -0.008517 0.097490 0.111707 0.010296 -0.041011 0.114899 0.002813 -0.045734 0.042673 0.045637 0.078847 -0.148560 -0.051690 0.039082
Maradona 0.116047 0.038480 0.042726 -0.094384 0.044154 0.084074 -0.024531 0.068720 0.010317 -0.018565 -0.068512 0.056461 0.147687 0.035758 -0.021657 0.067340 -0.106602 -0.059255 -0.156103 -0.045928 -0.245992 -0.035418 -0.037492 -0.028254 0.023858 -0.127619 -0.027958 0.017418 0.172976 -0.071377 -0.059331 -0.095192 -0.044780 -0.128118 -0.033521 0.070002 0.151456 -0.072432 0.138336 0.096321 -0.038063 0.076693 0.093528 -0.040927 0.016387 -0.063955 -0.112691 -0.045395 0.035400 0.073414 0.130459 -0.113639 -0.019317 0.090730 -0.044718 0.052075 -0.082814 0.075910 -0.021789 0.049406 -0.038861 -0.074586 0.015246 -0.076065 -0.016793 0.106493 -0.002565 0.037763 0.005755 0.035623 0.076118 -0.075649 0.039399 0.008898 -0.117482 0.131111 -0.152884 0.052408 0.143180 -0.071441 -0.053681 -0.067358 -0.108499 -0.115922 -0.006189 0.089161 -0.072087 0.114826 -0.044401 -0.114397 0.009523 -0.009120 0.072350 0.057233 -0.008781 0.137322 -0.054246 -0.095629 0.174564 -0.051591 0.095822 0.160490 -0.060334 -0.064537 -0.122706 -0.006120 -0.025494 0.053910 -0.134058 0.142042 0.050935 -0.078716 -0.141226 -0.016049 -0.043758 -0.101721 -0.189131 -0.075038 -0.120719 0.211875 0.121840 0.065959 0.153380 -0.105606 0.007849 -0.053642 0.000798 -0.025654
Mars 0.008087 0.183919 0.099352 0.031541 0.075461 0.103291 0.069442 -0.033124 0.067148 -0.126967 -0.132182 0.094452 0.024844 0.030239 -0.066290 0.027826 0.060610 0.045737 -0.155684 -0.052044 -0.003572 -0.033604 -0.115992 0.094674 0.169061 -0.083316 -0.013962 0.174808 -0.035727 -0.093699 0.071776 -0.096512 0.103773 0.265751 0.141941 -0.044179 -0.121314 0.067423 -0.007424 0.047424 0.074779 0.077704 -0.077851 -0.061323 -0.028874 -0.035254 -0.108325 0.168533 0.053998 0.034267 -0.009810 -0.016988 -0.035135 0.095058 0.069785 -0.046165 -0.067037 0.021370 0.058784 0.043988 -0.028813 0.068661 0.015911 -0.052666 -0.109006 -0.077185 0.093445 -0.086944 -0.004154 -0.014953 0.189957 0.009977 0.052078 0.087735 -0.037338 0.050259 0.088797 0.080065 0.034316 -0.154405 0.243442 -0.005722 0.026531 0.006452 0.058297 0.040642 0.232095 -0.128278 0.027887 0.075209 -0.072632 -0.013130 0.004947 0.004112 0.078648 0.030482 0.076128 -0.218259 -0.076401 -0.065034 -0.070458 -0.026445 -0.128390 0.074979 0.127431 -0.057223 -0.071008 0.164018 -0.172306 -0.054017 -0.035649 -0.034306 -0.038101 -0.000361 0.074210 -0.008345 0.071011 -0.098495 -0.045533 0.051391 -0.014146 0.013198 0.107435 0.000352 0.000987 -0.080784 0.013616 0.035163
Mexico 0.115042 -0.055982 0.090276 0.073696 0.157729 0.105914 -0.004135 -0.117800 0.097354 -0.050158 0.053282 0.039145 -0.129871 -0.000659 0.017411 0.088299 0.071696 0.114988 -0.138388 0.098183 0.031882 0.024408 -0.066957 -0.072294 -0.036655 -0.000179 0.113721 0.041440 -0.127464 0.111574 0.013273 0.116565 0.049750 -0.054351 -0.105224 0.030638 -0.156290 -0.002423 0.010002 0.141665 0.011060 0.010237 0.029665 0.080352 -0.166781 0.001792 0.062329 0.018266 0.097989 0.082569 -0.002453 0.019611 -0.014782 -0.190829 -0.087276 0.054691 0.043684 0.216373 0.033270 0.067537 -0.132024 -0.012627 0.136839 -0.023153 -0.056465 -0.065840 -0.137130 0.077460 -0.053773 0.009413 0.041783 -0.055398 0.032324 0.141756 -0.030083 -0.048075 0.118057 -0.197343 0.172569 0.009218 0.122132 0.011008 -0.015568 0.030052 0.004560 0.172509 -0.031674 0.033115 -0.054834 -0.022624 0.088556 0.115610 0.067563 -0.010720 -0.052536 0.079896 -0.040706 0.007143 0.053324 -0.109848 -0.057067 0.132883 -0.164470 -0.021263 -0.048047 -0.063891 0.110210 0.000653 0.061484 -0.054776 -0.045478 -0.003728 -0.121259 -0.059880 -0.000788 -0.062834 -0.230312 0.021006 -0.195059 0.219991 -0.024356 0.012000 0.021784 -0.003975 0.048493 -0.059588 -0.082545 -0.049774
OPEC 0.012074 -0.080444 0.007144 -0.048271 -0.300118 0.003716 -0.076964 -0.063803 0.084730 0.018475 0.076171 -0.162345 0.156882 -0.002876 0.095379 0.107388 -0.061726 0.107624 -0.144880 0.060669 0.017318 0.030232 -0.151836 -0.088226 -0.108205 -0.075974 0.014663 -0.024929 -0.089956 0.164141 0.083069 -0.029319 -0.053979 -0.111932 -0.151788 0.035287 -0.072558 -0.057687 -0.015637 -0.172381 0.060852 -0.047998 -0.165618 -0.006134 -0.071420 0.021247 0.095466 -0.002587 0.022745 -0.090221 0.103351 0.029987 -0.038358 -0.098604 0.120821 -0.101839 -0.041548 0.064997 0.015713 0.091608 -0.046481 -0.089364 0.073335 -0.014998 -0.051221 -0.030573 -0.026350 -0.055566 0.178211 0.121135 -0.121192 0.028876 -0.101992 0.037551 0.137389 -0.015321 -0.104517 -0.011372 -0.026873 0.046355 -0.098408 0.029179 -0.059072 -0.053729 -0.205282 0.071358 -0.026607 0.009989 0.022890 -0.057121 0.096821 -0.099946 -0.049661 -0.175263 0.000330 0.089191 0.105922 -0.042454 -0.039799 0.028031 0.013393 -0.059909 -0.123903 0.004440 -0.130728 -0.033435 0.112869 -0.080598 0.051339 -0.031055 -0.005697 0.106406 -0.003315 0.100403 -0.059009 0.095225 -0.054925 -0.036760 -0.116229 -0.006869 -0.018972 -0.054389 0.044493 0.011679 -0.076057 -0.197904 0.135182 -0.141651
Palestinian 0.078784 -0.051578 0.183321 -0.048865 -0.222305 -0.086748 -0.236645 0.003129 -0.053919 0.035963 0.015451 0.078536 0.060904 0.028056 0.065481 0.151889 0.087832 -0.000491 -0.072581 -0.066878 -0.019401 0.001460 0.149899 0.036309 -0.100568 0.089864 -0.137224 0.148968 -0.083422 -0.168405 -0.007503 0.016965 0.015459 -0.171062 -0.129614 -0.047679 -0.080441 0.006116 0.026531 -0.126095 0.063185 -0.249503 -0.078919 -0.119519 -0.040347 0.104284 -0.070419 -0.093783 0.150401 -0.045338 0.030740 -0.005000 -0.075947 -0.060455 -0.059978 0.015967 0.015825 0.004792 -0.089254 -0.111803 0.021707 0.021955 0.001297 0.088530 0.096244 -0.155728 -0.035010 0.223245 -0.039817 0.081449 0.103309 -0.094921 0.057090 -0.062181 0.052202 0.073466 -0.029968 0.003029 -0.034804 0.121254 0.049779 -0.026627 0.182702 -0.002281 -0.016662 0.111606 0.024732 0.005759 0.053270 0.005442 0.142712 0.096080 0.065131 -0.178618 0.000842 0.071251 -0.089195 -0.044079 0.066763 -0.087617 -0.024118 -0.123269 -0.090630 0.020588 -0.004878 -0.080085 0.033067 0.103165 -0.029661 0.005846 0.026818 -0.016348 -0.105493 0.053799 -0.088364 0.040297 -0.052833 0.119316 0.013683 -0.101803 -0.023538 -0.094204 0.056865 0.062163 0.058504 -0.031341 0.019464 0.054915
Wednesday 0.028104 0.012698 -0.088220 0.154446 -0.048023 0.050641 -0.155489 -0.009077 -0.100011 0.080630 0.079047 -0.070810 0.036587 -0.020718 -0.040994 0.016660 0.067434 0.047464 -0.097059 -0.117130 -0.108204 0.028525 0.009903 0.183678 -0.011105 -0.164671 0.002990 0.011565 -0.064039 0.167557 -0.096457 0.053102 0.054331 -0.159124 0.057851 -0.202845 -0.155664 -0.000463 -0.105784 0.196903 0.037773 -0.112988 0.027860 -0.086356 0.016362 0.082103 0.103256 0.075288 -0.065522 0.016534 0.169423 0.045900 -0.043202 -0.106192 -0.225235 0.140724 0.124223 0.013267 -0.024563 0.112312 0.013251 -0.065524 -0.009276 0.145070 -0.161612 -0.120180 -0.041197 -0.020337 0.095049 0.068935 -0.101868 -0.065832 0.056114 -0.023621 0.014550 -0.120410 -0.044026 0.012491 0.060495 0.026174 -0.007999 -0.153655 -0.037877 -0.034729 0.137645 -0.117988 -0.107550 0.010612 0.034533 0.073916 0.100459 0.222364 -0.079014 -0.029834 -0.016210 0.033863 -0.129922 0.005976 -0.019532 -0.024727 -0.132047 0.052500 -0.020102 -0.007362 -0.042247 -0.154233 -0.050542 -0.018640 0.071793 0.115381 -0.060584 -0.033762 -0.066970 -0.002861 -0.096665 0.113112 -0.042784 -0.047308 -0.011570 0.039955 0.035186 -0.101313 -0.029171 0.067521 -0.081445 -0.061286 -0.026933 -0.014717
Yale 0.054783 0.070221 0.089588 0.096094 0.030422 -0.008462 0.180203 -0.152128 -0.031464 0.107947 0.036565 -0.099589 0.000737 -0.112043 -0.086036 -0.043966 0.022859 -0.110252 0.056738 -0.124924 0.012516 0.117681 -0.134291 0.057300 0.040298 -0.050296 -0.084773 -0.020141 -0.038273 -0.026011 0.087058 0.013907 0.057564 -0.020014 -0.142837 -0.124925 0.109924 0.127257 0.206381 -0.116975 -0.036064 -0.126261 0.008895 0.215552 -0.074304 -0.068764 -0.062940 -0.062580 0.027795 0.048181 0.082385 -0.099114 -0.073195 -0.166720 -0.025181 -0.013859 0.038112 0.127180 -0.028667 -0.051953 0.104154 -0.031059 -0.054331 0.107040 -0.021544 -0.067562 0.086062 -0.067649 -0.092557 -0.039245 -0.095457 -0.016664 0.071870 -0.114729 0.058385 -0.014839 0.038510 0.099513 0.029353 -0.075193 0.187636 0.208378 0.078440 -0.126169 0.092941 0.036826 0.165683 0.038887 0.017489 -0.067626 -0.081774 -0.009959 -0.074075 0.151092 -0.054133 0.165887 -0.067104 0.091547 -0.114682 0.093333 -0.035453 -0.027223 0.008337 -0.055037 0.101659 0.020955 0.037436 -0.064626 0.006744 0.078359 0.097055 -0.098641 0.043078 0.087705 0.024007 -0.010391 -0.014790 -0.030551 -0.119865 0.058999 0.001966 0.108357 -0.083965 -0.132805 0.143793 0.087853 0.068950 0.099400
abuse -0.053907 -0.152787 -0.011417 -0.048774 0.117788 -0.030558 -0.069882 0.085839 -0.093480 0.059634 0.046851 0.000299 -0.050211 -0.065670 0.052651 0.098740 0.148295 -0.104032 -0.103832 -0.237111 -0.108236 -0.063127 0.004474 0.084648 0.044203 0.033952 -0.154030 -0.035246 0.109188 -0.000876 0.005468 -0.011013 -0.095917 0.025993 -0.042504 0.136232 -0.031605 -0.139134 -0.091305 0.090338 -0.160354 -0.043440 0.131720 0.057288 -0.085739 -0.022152 -0.071675 -0.216038 0.035876 0.081406 0.036497 -0.099062 0.093795 -0.025939 -0.048479 -0.050611 -0.064761 -0.041325 0.127541 0.120941 0.021762 -0.149573 -0.005148 -0.033049 -0.067352 -0.015555 0.044624 0.027796 -0.060545 -0.074257 0.157938 0.004117 0.083558 -0.117519 -0.045501 0.049435 0.057282 0.073789 0.070593 -0.043639 -0.011624 -0.068073 -0.029908 0.015432 0.048778 0.088124 -0.118413 0.029374 -0.059063 -0.123852 -0.076967 0.036545 0.184872 0.157267 0.049977 -0.058408 0.048257 0.108818 0.124500 0.106797 -0.045634 0.019492 0.047944 -0.084453 -0.050425 -0.032389 0.069356 -0.063828 0.177361 -0.108270 -0.084282 -0.037964 0.006321 -0.158778 -0.210612 -0.104796 -0.000405 0.056902 -0.073961 -0.054356 -0.032671 -0.079551 0.067007 0.138129 0.043485 0.147845 -0.012203 -0.097864
accommodation 0.027587 0.001770 0.024006 -0.014301 0.007077 0.028240 0.041179 0.086996 -0.086074 0.004537 0.047063 -0.092548 0.103986 0.072385 0.006475 -0.215540 0.237833 -0.082374 -0.044493 -0.030262 -0.088591 -0.008411 0.048911 0.069029 -0.037085 -0.020810 0.111908 -0.019991 -0.130048 0.103824 0.025667 0.067047 -0.042943 -0.043577 0.008227 0.066719 0.087017 -0.151946 -0.015044 -0.041412 0.004601 -0.065313 0.079780 -0.004554 -0.016636 0.120061 -0.122921 -0.085082 0.043336 -0.168617 -0.023974 0.023960 0.003482 -0.015136 0.079491 0.015573 0.066417 -0.004658 0.165427 -0.252505 0.057394 0.108680 0.024604 -0.101157 0.009191 0.037259 -0.180919 0.126170 -0.044094 -0.055080 0.022745 0.189094 0.160384 -0.017533 -0.023345 -0.003466 -0.104272 -0.176495 -0.019425 0.056086 -0.066227 -0.027701 0.034641 0.051181 -0.214126 -0.057573 0.126267 -0.000311 0.012304 0.008538 0.099399 -0.081380 0.066769 0.106219 -0.128042 -0.121464 0.078949 0.075719 -0.029686 -0.037701 -0.021459 -0.010122 -0.128373 0.032198 0.038730 -0.123860 -0.025148 0.107652 -0.050810 0.072513 0.140654 -0.084337 0.066858 -0.014801 -0.058502 0.073863 0.092200 0.115818 -0.012172 -0.069525 -0.111402 0.113110 0.163831 0.146259 0.087443 0.040160 0.036269 0.092288
activity 0.096491 -0.130846 0.063300 -0.125886 0.027207 0.001595 -0.030642 0.072467 -0.023678 0.125996 0.136267 0.049574 -0.147045 0.000673 0.098890 0.092234 0.139769 0.058085 -0.114380 -0.025722 -0.008360 -0.004486 -0.074531 -0.227829 -0.008277 -0.125288 -0.170148 0.086825 0.052869 -0.024672 0.005510 0.086765 0.051444 0.114539 -0.025179 0.016378 0.004372 -0.000270 -0.045760 0.190539 -0.095612 -0.028968 0.076940 0.135396 -0.013082 -0.041849 0.078115 -0.070375 0.014774 0.018807 0.216325 0.079116 0.061674 -0.158033 0.057516 0.007165 -0.066351 0.011478 0.202515 0.047353 -0.163878 0.092127 0.028595 -0.064827 0.045774 -0.096895 -0.053629 -0.042394 0.049187 -0.032644 0.075887 -0.061312 0.041539 -0.006839 -0.012050 -0.068325 -0.157067 -0.057901 -0.115723 0.168055 0.060583 -0.128590 0.043854 0.048640 -0.001134 0.079376 -0.071938 0.040654 0.091504 -0.081570 -0.163979 -0.038099 0.033674 -0.088086 -0.021970 0.087728 0.208186 0.057531 -0.016724 0.146384 -0.187405 0.030522 -0.087319 0.025545 -0.045296 0.039247 0.028406 0.053871 0.038924 0.034966 -0.032353 -0.101362 0.019337 -0.035342 -0.030003 0.035241 0.094465 0.096681 0.023612 -0.209334 -0.120399 0.010243 -0.011617 0.023113 -0.037968 0.043455 0.095373 -0.064426
admission -0.091186 -0.137644 -0.117720 -0.038141 0.015155 -0.049340 0.164088 0.053979 -0.011344 0.094194 0.017218 -0.097949 0.089519 -0.018005 -0.018879 -0.133781 0.032315 -0.143671 -0.184233 0.079735 0.036581 0.123719 0.100612 0.125192 -0.045760 -0.095697 -0.037028 0.052784 -0.084487 0.130421 -0.006087 0.108160 -0.131204 -0.037532 -0.028937 -0.167782 0.113695 -0.014544 0.014261 0.037874 -0.032967 -0.014585 0.029492 0.067634 0.086202 0.016147 -0.016072 -0.152658 0.061289 0.017886 0.007801 -0.245504 0.061386 0.000862 -0.109619 0.072828 0.082474 0.067004 0.050481 -0.102734 -0.019577 -0.019058 0.047516 0.087006 -0.029279 0.003300 -0.099051 0.027848 -0.022556 -0.058548 -0.003323 -0.001423 0.128955 -0.110097 -0.103385 -0.049772 -0.005486 -0.123375 -0.081090 0.022865 0.013230 0.046894 0.106530 -0.096140 -0.109136 -0.060798 0.084598 0.131655 0.020717 -0.039281 0.105839 0.056885 0.099064 0.325622 -0.005164 -0.094481 0.124771 0.037134 -0.067407 -0.085469 -0.015688 0.009214 -0.038494 -0.114060 0.018449 -0.003919 0.105098 0.071909 -0.012373 -0.016043 0.145505 0.076544 0.012711 -0.015105 -0.025734 0.104750 0.106126 -0.083428 -0.111715 -0.016307 -0.038767 0.007360 0.072169 -0.058211 -0.033576 0.222286 0.161273 0.040055
airport 0.037674 -0.044080 -0.000375 0.017076 0.177912 0.030368 0.008554 -0.014234 0.029267 0.043149 -0.017998 -0.041551 0.102987 0.088673 0.160807 -0.248907 0.053825 0.024104 0.075947 -0.043893 0.006948 0.008067 0.142895 -0.063165 -0.065796 0.051626 0.069409 -0.001513 -0.102291 0.062747 -0.041481 0.082011 -0.015295 -0.113211 0.090548 -0.168256 -0.048992 -0.153750 -0.139681 0.113984 -0.056195 -0.007922 0.031791 0.044968 -0.049115 0.042839 0.013758 -0.062535 -0.104047 0.032265 -0.052252 -0.005725 -0.211033 0.002514 -0.063674 0.075049 0.059386 0.137168 0.070359 0.011525 0.075804 0.034429 0.158534 0.007783 0.001272 0.030632 -0.160564 -0.090200 -0.107156 -0.096930 0.040564 0.047854 0.126025 0.004953 -0.184355 -0.077575 0.051214 -0.014788 -0.001134 -0.066435 -0.011837 0.195189 0.040094 0.063682 0.074824 0.067654 0.053711 0.102439 0.015343 0.103569 0.137074 -0.057746 0.036130 -0.148760 -0.161919 0.081608 -0.061791 0.058597 0.001069 -0.034262 -0.103425 0.094049 -0.041431 0.058409 -0.061799 -0.172734 0.008227 0.046405 0.006513 -0.100656 0.022846 -0.046696 -0.088466 0.156875 -0.028988 0.089597 -0.098481 -0.066003 0.002024 -0.166374 -0.029291 -0.009799 0.222903 0.037711 0.025983 -0.065222 -0.160298 0.060855
alcohol -0.066330 -0.161072 0.079732 -0.015713 0.019144 -0.128891 0.044318 0.133831 0.193232 0.065872 0.047957 -0.031173 -0.045092 -0.133487 0.065127 -0.034219 0.044636 0.028439 -0.064040 -0.014102 -0.084616 0.102435 -0.013583 0.143884 0.127706 0.100317 -0.089133 0.071314 -0.043493 0.154199 0.038902 -0.127666 -0.021315 -0.091945 -0.003149 0.080231 0.033580 0.043670 -0.010061 -0.045392 0.075909 -0.006268 0.024833 -0.007638 -0.056090 -0.122503 0.053404 -0.057372 0.074816 0.086038 -0.013020 0.025555 -0.027187 -0.036473 0.020531 -0.019489 0.059658 0.080546 0.183263 0.047329 0.057239 -0.070334 0.174099 -0.118717 -0.037648 0.258545 0.082488 0.042140 -0.046379 -0.086085 0.112156 -0.163369 0.145050 -0.082791 0.006127 -0.014282 -0.115501 -0.084255 -0.145814 -0.057780 -0.138960 -0.016580 -0.087971 0.021307 0.015528 -0.040960 -0.193345 0.114952 0.083491 -0.144556 -0.060416 -0.000084 0.070510 0.083994 -0.002350 0.068466 0.173428 -0.063271 0.098367 0.012566 0.010862 -0.056790 -0.114973 -0.070840 -0.057958 -0.092373 0.128761 0.043762 0.156532 -0.075313 0.062076 -0.036111 0.160159 0.005577 0.046490 -0.095979 0.057599 0.116375 -0.054904 -0.087991 -0.116969 -0.019933 -0.061220 0.001475 0.002096 0.071026 0.110246 -0.051435
aluminum -0.057097 0.044655 -0.029571 0.026711 0.057356 -0.091331 -0.061508 0.134315 0.177216 -0.093693 0.013009 0.042668 -0.034654 -0.038720 -0.156802 -0.006201 0.039563 0.008322 0.092589 0.128843 0.116308 -0.115069 -0.111647 0.062743 -0.078859 -0.000179 0.012773 -0.014310 -0.151897 -0.008886 0.011055 -0.093148 0.126613 -0.014757 0.031744 -0.039372 -0.021920 -0.146095 -0.027249 -0.039998 0.001989 -0.023921 0.122162 0.082070 0.051721 0.130415 0.011866 0.109053 0.094152 -0.045681 0.026222 -0.075991 -0.062684 -0.200019 0.131954 0.002564 0.005833 0.036004 -0.158208 0.002593 -0.043208 0.022808 0.085419 -0.003294 -0.044905 0.172969 0.112170 -0.085860 0.059852 0.054219 0.028712 -0.143681 0.031771 0.000098 -0.060266 0.009351 0.012831 0.186558 -0.043751 -0.100137 -0.202103 -0.193929 -0.119108 -0.078004 -0.012873 0.129545 0.042600 -0.030431 0.162918 0.244300 0.089625 0.013037 -0.002736 -0.078917 0.052290 0.097354 0.051268 0.102829 -0.150693 -0.044007 -0.023935 0.013780 0.013330 0.077315 -0.109822 0.044229 0.010350 0.061987 0.034563 0.013388 -0.052720 0.000034 0.053922 0.154213 0.042289 0.188447 0.053213 0.016431 0.029159 -0.029044 0.031404 -0.146039 0.019617 -0.010987 0.008637 -0.102478 -0.133757 -0.142022
animal 0.081060 -0.005183 0.198654 0.013600 0.173842 -0.081634 -0.022098 -0.057034 -0.035119 -0.124936 -0.125926 0.087875 -0.108751 -0.100659 0.036589 -0.022026 0.081815 0.037523 -0.101269 -0.088431 0.063973 -0.080593 -0.037033 -0.005825 -0.014784 -0.056654 -0.087308 -0.117478 0.087402 0.031371 -0.019746 -0.114541 0.067399 0.222344 -0.110022 -0.017040 0.000793 -0.063039 -0.069308 -0.080353 0.065881 -0.110346 0.001597 -0.058171 -0.095231 0.022822 -0.156949 -0.104030 0.075452 0.112546 0.032646 -0.014009 0.012765 -0.023032 0.092792 0.089919 -0.037123 0.133788 0.047203 0.101666 -0.034340 -0.039794 0.116042 0.119407 0.101787 0.105048 0.094060 -0.050587 0.133362 0.042006 0.112899 -0.024767 0.008936 -0.059754 -0.025912 0.069613 -0.054674 -0.058229 -0.072872 0.003528 -0.049507 0.102494 -0.147753 0.101457 0.176555 -0.061731 -0.045784 -0.150566 -0.115005 -0.049604 -0.029179 -0.085464 -0.131704 0.134995 -0.091344 -0.072493 0.160855 -0.030570 0.161768 -0.125861 0.035031 -0.073777 0.016548 -0.033098 -0.079347 0.035829 -0.079551 0.100361 -0.056674 -0.032680 0.033154 -0.146973 0.010583 0.088844 0.035379 -0.075212 0.046018 0.132637 -0.051465 -0.071458 0.005553 -0.044709 0.025385 -0.154581 -0.092829 0.108476 -0.172076 0.081784
announcement -0.064038 0.028663 -0.152261 0.028371 -0.111879 0.026011 0.126700 -0.072128 -0.084396 0.155165 0.188526 -0.113144 0.206130 -0.007999 -0.007880 0.140443 -0.126151 0.084691 -0.144384 0.073389 0.045581 -0.021812 0.144345 -0.028527 -0.141184 -0.052040 -0.071710 0.074289 -0.049966 -0.041748 -0.139371 0.002452 -0.025209 -0.070058 -0.081621 -0.138872 -0.110184 -0.088480 -0.116026 -0.025670 -0.072438 -0.019574 0.017740 -0.102431 0.065351 0.046001 -0.042185 0.115908 -0.062584 0.075165 0.142484 -0.113829 -0.026307 -0.032237 0.057901 0.107832 -0.160239 -0.036775 -0.084082 0.062610 0.040520 -0.043285 -0.008679 0.003730 -0.091450 -0.131043 -0.028386 -0.050079 0.071158 -0.054112 0.134633 0.121173 -0.074526 0.005936 -0.008395 -0.037510 0.017770 -0.146349 -0.028094 0.018790 -0.213775 -0.042063 0.126918 -0.139800 0.096596 -0.044708 -0.032030 0.024767 0.136094 0.065661 0.072494 0.125206 -0.070126 -0.028225 0.057716 0.062809 0.026454 0.011783 -0.190086 -0.020072 0.016373 0.222767 -0.038869 -0.016073 -0.052753 0.071339 0.027250 0.165260 -0.036571 -0.061840 -0.123715 -0.020547 -0.044399 0.032685 0.007011 0.042242 0.104159 -0.132817 0.021932 0.016516 0.029255 -0.059901 -0.001268 -0.076721 -0.048002 0.040333 0.066507 -0.091612
antecedent -0.029292 -0.161284 -0.044642 -0.057372 0.203292 -0.131102 0.003997 0.078779 0.072014 0.045018 -0.030181 -0.079032 -0.069273 0.216630 0.030416 0.126060 0.059159 0.118232 -0.162824 0.122732 0.043498 0.069401 -0.001286 -0.045435 0.003863 -0.140496 -0.119095 0.179098 0.040415 0.114461 0.043470 -0.085181 -0.070044 0.122070 0.069066 -0.150473 0.049491 -0.025910 0.136091 0.102393 -0.002564 0.092469 -0.026518 -0.012002 -0.081203 0.030666 0.012113 -0.070555 0.074433 0.026968 -0.145545 -0.055752 0.046962 0.110745 0.144053 -0.039502 -0.067348 0.002009 -0.019894 -0.051568 0.088594 -0.021112 -0.013587 0.048925 0.057328 0.126416 0.080584 0.044242 0.061769 -0.055725 0.150566 0.038852 0.019954 -0.109882 0.029090 0.009773 -0.184048 0.032744 -0.018927 -0.040949 0.016955 0.097760 0.163166 -0.108279 0.029638 0.030579 0.122043 0.121814 -0.001731 0.205836 -0.005815 -0.042404 -0.154944 0.030577 0.034972 -0.074102 0.049106 -0.042517 0.161684 0.040894 -0.097075 -0.059670 0.125401 -0.084265 -0.038673 0.185364 -0.041453 -0.024852 0.064699 -0.095943 0.119664 -0.121045 -0.061129 -0.056750 -0.048723 -0.012023 -0.014464 -0.092395 0.049461 -0.075390 -0.012732 0.015183 -0.025842 0.093335 0.034128 0.050271 0.116098 0.093549
anxiety -0.108736 -0.018240 0.112108 -0.189319 0.028502 0.043609 -0.037403 0.128051 -0.117140 0.129614 0.050409 -0.126011 -0.050444 -0.056750 0.044461 0.031719 0.178752 0.014721 -0.091888 0.090994 -0.111617 -0.058840 -0.000421 -0.111560 0.056243 0.036654 -0.127264 0.026852 0.041910 0.016492 0.092525 -0.024931 -0.084592 -0.042731 -0.116081 0.241708 0.126571 0.120421 -0.156953 0.201111 0.025032 -0.064103 -0.007163 0.068795 -0.002859 -0.127097 0.091793 -0.104262 -0.005534 -0.080271 0.114732 -0.015425 0.091480 -0.084688 0.075603 -0.042061 0.055920 -0.104768 0.100477 -0.082689 -0.016016 -0.051481 0.114730 -0.032733 -0.096643 0.012505 0.088365 -0.166010 -0.102875 0.073135 0.019677 0.075140 -0.005308 -0.054435 0.053271 -0.141926 -0.006374 -0.043149 -0.112801 -0.062517 -0.094723 -0.044976 0.023616 0.120072 -0.048575 0.066697 0.046214 0.081973 -0.061837 -0.110095 -0.092455 0.088428 -0.241960 0.009122 0.083586 -0.068646 -0.019392 0.001461 0.068338 -0.067296 -0.105559 0.074531 -0.099377 -0.101903 0.028090 -0.047922 0.141282 0.077108 0.099925 -0.100335 0.061485 0.017363 0.042479 0.110500 0.034522 -0.132338 -0.020937 0.035841 -0.074945 -0.098809 0.020566 -0.109442 -0.084360 -0.023124 0.004441 0.043311 0.090480 -0.059819
approach 0.083340 -0.071883 -0.012797 -0.112107 -0.037489 0.030196 0.132065 -0.034331 0.054566 0.021262 0.101389 0.168194 0.040607 -0.025041 -0.002835 0.100137 0.011105 0.136186 -0.057730 -0.003514 -0.002490 -0.003800 0.016853 -0.004430 -0.108915 -0.167136 0.031214 0.115137 0.179302 0.063716 0.011842 0.030525 0.042300 0.052456 -0.152429 -0.014384 -0.119729 0.047607 -0.041421 0.021425 -0.039512 -0.128012 0.063430 -0.045477 0.161869 0.043190 0.098240 0.063846 0.042538 0.095054 -0.188908 -0.087607 -0.200324 0.047273 0.128449 0.055514 0.050291 -0.121964 -0.044295 -0.039444 -0.013172 0.095656 0.038639 -0.031090 0.051381 -0.126059 -0.021179 -0.117499 0.042668 -0.101403 0.010874 0.110258 0.048798 0.091449 0.008968 0.008344 -0.146736 -0.033929 -0.282247 0.028323 -0.137774 0.045765 0.008357 0.066018 -0.160676 0.010826 0.228218 0.023681 -0.178358 0.065976 -0.008468 -0.058081 0.000830 0.006617 0.077336 0.022102 -0.029207 0.017138 -0.071710 0.044769 0.115269 -0.045414 -0.150429 -0.088722 -0.127397 0.043965 -0.112571 -0.029562 0.128414 -0.065970 -0.018206 0.066549 0.112490 0.092857 -0.095016 -0.029805 0.074054 0.079284 0.041757 -0.005899 -0.024137 0.083052 -0.055342 0.024070 0.080527 0.091443 0.098031 0.107822
architecture 0.106429 0.111588 0.049342 0.019099 0.105038 -0.002924 0.112639 -0.044426 -0.087245 -0.080995 0.067753 0.078411 -0.093391 0.084960 -0.148217 -0.041309 -0.025095 0.064366 0.140921 0.027190 0.070295 -0.130318 -0.130375 -0.118924 -0.062888 0.016458 0.060502 -0.134525 0.094668 -0.076678 -0.029461 0.126145 -0.024517 0.080178 0.030708 0.056919 0.041640 0.055393 0.148760 -0.043794 0.059515 -0.014202 0.152231 0.057330 0.052379 0.042476 0.048293 -0.058320 -0.027908 0.069358 -0.068370 -0.068089 -0.120137 -0.035852 0.163499 -0.059327 -0.023006 0.043422 0.021479 -0.175142 0.058155 0.024189 -0.094105 0.100364 0.019286 -0.137598 -0.074350 -0.044744 -0.010878 -0.018755 0.014293 0.154731 0.088517 -0.173519 -0.112419 0.015077 0.050789 0.145937 -0.084236 -0.018402 0.020699 0.139886 -0.080451 0.051205 -0.038862 0.166735 0.078327 0.106781 0.010035 0.161475 0.112442 -0.139753 0.075110 -0.130497 0.059417 -0.014831 0.097372 -0.010907 -0.183424 0.128927 0.043562 -0.035327 -0.089087 -0.159208 -0.120137 0.041616 -0.018413 0.014218 -0.039007 0.010828 0.098129 -0.070478 -0.049713 -0.112731 -0.042106 0.106359 0.190942 -0.087781 0.012153 -0.023310 0.058759 0.063428 -0.082057 0.056254 0.130973 0.061897 -0.038675 0.113114
archive -0.011227 0.129842 -0.003397 -0.039033 -0.048398 -0.063647 0.086454 -0.190174 -0.169146 0.000061 -0.106146 0.021867 -0.016805 -0.058480 0.110971 -0.012674 0.051788 -0.138971 0.108949 0.065101 0.013932 -0.036800 0.054743 -0.103013 0.011711 0.089585 -0.113632 -0.126998 -0.060808 -0.042652 -0.112622 -0.036309 -0.036896 0.164746 0.139126 -0.000816 0.018241 -0.092032 0.166376 -0.052379 -0.123175 0.087243 0.004378 0.022314 0.029064 0.010551 -0.065082 0.207889 -0.098204 -0.049705 -0.005113 0.071696 0.114293 -0.073804 0.031750 -0.065937 0.150135 0.170628 -0.063639 0.062270 0.117495 -0.106411 -0.132127 0.185052 -0.019624 -0.026296 -0.062913 0.018409 -0.048147 0.023287 0.021099 0.109688 -0.002404 -0.132656 -0.079246 0.072190 0.000188 0.142679 -0.019167 -0.060791 0.138782 0.057799 0.095046 -0.191744 0.003196 0.124118 -0.087653 -0.071133 0.084809 0.112182 -0.032154 -0.035074 -0.003994 0.052602 0.013751 -0.103331 0.125460 0.117324 -0.134912 -0.040909 -0.076081 -0.017389 -0.070731 -0.114399 0.018731 0.101024 -0.035700 0.078911 0.050862 0.128229 0.149742 0.039007 0.036009 0.026631 -0.014285 0.069203 0.067052 0.077238 -0.053264 0.009460 -0.029040 0.192751 0.092052 0.006907 -0.039476 0.044945 -0.009553 0.130128
area 0.058008 0.023736 0.027798 0.071989 0.210154 -0.006086 -0.030180 0.029149 0.005687 -0.148434 -0.062589 0.013374 -0.083893 0.048197 0.194239 -0.106727 0.116247 0.102602 0.146261 -0.097547 0.059615 0.052572 0.040246 -0.213035 -0.030213 0.090423 -0.045067 0.091741 -0.000388 -0.006283 -0.040117 -0.082377 0.109698 -0.048024 0.039111 0.115603 -0.135090 0.055179 -0.077075 -0.085842 -0.015928 -0.025332 0.108176 -0.015787 0.005317 0.107284 0.057735 0.082709 -0.033187 0.046762 -0.001954 0.093991 0.025570 -0.038531 0.060282 0.084652 0.027425 0.089834 0.213329 -0.107978 -0.073324 0.132367 -0.010764 -0.154056 -0.046294 0.087577 -0.237910 0.098789 0.035185 -0.081427 0.042107 -0.022681 0.096185 -0.024078 -0.104738 -0.152252 -0.063598 -0.181564 0.070065 0.051276 0.056136 -0.086240 0.035212 0.174710 0.017358 0.031777 0.057079 0.062225 -0.005755 0.092060 -0.012189 -0.040133 0.127662 -0.097421 -0.019826 0.083465 0.030998 -0.004789 -0.035382 -0.017564 -0.108566 -0.086832 -0.073131 -0.048908 0.077416 -0.037352 -0.148030 0.157805 0.022323 0.000761 -0.043549 -0.057385 -0.059377 -0.007912 0.027356 0.044313 -0.017534 -0.031878 -0.131192 -0.134952 -0.120895 0.028806 0.127799 -0.052191 0.041897 -0.076507 -0.171985 0.117329
arrangement 0.056483 0.030192 -0.089348 0.015359 0.009550 -0.253803 0.006569 -0.066933 0.036736 -0.090258 0.204705 0.040938 0.191182 0.155100 0.040217 -0.015630 0.051173 0.034375 -0.135646 0.116188 0.060599 -0.065456 -0.014622 0.019703 -0.202760 -0.090634 0.042971 0.085605 -0.064595 -0.037361 0.006604 -0.060963 -0.183946 0.047509 -0.003606 -0.010547 0.078259 -0.017132 -0.011216 0.036846 -0.137974 0.090645 0.049445 -0.008136 0.141935 0.124224 -0.002932 0.033680 -0.006707 -0.037874 -0.071767 -0.049534 0.139952 0.018939 0.122308 0.054241 -0.025643 -0.068093 -0.036458 -0.258503 0.006891 0.043023 -0.018413 -0.018900 0.091300 -0.165387 -0.007498 0.018687 0.021172 -0.189684 0.134561 0.024947 0.003683 0.020474 -0.060554 -0.106581 -0.176852 -0.020923 -0.148695 0.049663 -0.126587 0.031602 -0.034310 0.118575 -0.012217 0.063349 0.188765 0.001480 0.010871 0.046713 -0.009245 -0.149257 0.002312 -0.018366 0.032847 -0.030052 0.137945 0.038181 -0.100254 0.078696 0.098237 0.067269 0.141265 -0.044844 0.061207 0.055764 -0.000725 -0.019020 0.028078 0.058252 0.041973 -0.001085 -0.017621 -0.077633 0.013555 0.121326 0.164974 0.121271 -0.066320 0.023448 -0.033688 0.084203 0.077771 0.097659 -0.121170 -0.041105 0.027201 0.017982
arrival 0.010635 0.021934 0.040292 -0.022500 0.050933 0.159555 0.116870 -0.166092 -0.021580 -0.034359 0.110585 -0.128249 0.125059 0.142955 -0.078285 -0.023032 -0.126610 0.041122 -0.023724 0.050173 -0.131573 -0.003340 0.186315 -0.015912 -0.116699 0.083171 -0.030146 0.078968 0.012199 0.057239 -0.113904 -0.006285 -0.045719 -0.111950 0.081780 0.008186 0.081682 -0.119440 -0.194518 0.016395 -0.082270 0.112380 0.099818 0.018817 0.046339 0.209639 0.086083 -0.069364 0.142242 0.154015 0.087686 -0.029358 -0.043406 0.135969 -0.033435 0.078429 -0.116989 0.045112 0.060606 0.019047 -0.179173 0.002931 0.074279 0.073059 -0.081491 -0.138459 -0.060455 -0.038706 0.119373 -0.160246 0.067118 0.061239 -0.058945 -0.017929 -0.151613 -0.031766 0.054516 -0.069668 -0.003603 -0.045724 -0.008055 0.176527 0.160860 -0.115012 -0.053858 -0.051166 -0.063011 -0.029016 -0.002811 0.017714 0.032228 0.098708 -0.041489 -0.047808 -0.024553 0.051061 0.004162 -0.096824 -0.047037 -0.031038 -0.247757 0.191229 -0.110805 -0.017082 -0.086822 -0.044683 -0.070762 0.019740 -0.073315 0.009700 -0.008397 -0.043501 -0.030979 0.069097 -0.028105 -0.029876 0.003922 -0.108482 -0.131044 0.029714 0.049813 -0.099622 0.073881 0.019490 -0.005603 -0.076839 -0.059967 0.007252
article 0.158820 -0.057442 -0.086409 0.001660 -0.007938 -0.160130 0.077129 0.089667 -0.043776 -0.064891 -0.102393 -0.003611 0.105387 -0.064713 -0.009182 0.043149 0.051185 -0.066686 0.023926 -0.075031 0.104739 0.027585 -0.088719 -0.242713 0.040603 -0.098316 -0.069458 -0.039585 0.081539 0.119017 0.086140 0.011282 -0.095081 0.020461 0.112747 -0.094176 0.007230 0.090692 0.124273 -0.038163 0.075237 0.162106 0.135832 -0.052612 -0.026843 0.006295 0.078849 -0.051397 -0.071719 0.151323 -0.141081 -0.031016 0.042839 -0.125746 0.097724 0.046604 0.013766 0.147237 -0.032518 0.045929 0.168266 -0.069311 -0.033699 0.077151 -0.097636 -0.038484 0.080074 0.023311 0.013227 -0.147810 0.002773 0.111837 -0.007592 -0.102226 0.114026 -0.010557 -0.090587 0.057894 -0.026880 0.060068 0.042603 0.001136 0.083376 -0.065378 0.116449 0.058218 -0.043328 -0.021788 0.074690 0.061155 -0.025452 -0.057851 -0.082856 0.070665 0.165301 -0.018400 0.099139 -0.192836 -0.092086 -0.058588 0.007281 0.029583 -0.117899 -0.062118 0.101000 0.032040 -0.055683 0.057297 0.074721 -0.250459 0.135343 -0.077375 -0.105248 0.052845 -0.008134 -0.009395 -0.015001 0.129150 0.072607 -0.056397 0.137501 0.025418 0.154393 0.063502 0.082637 0.080498 -0.015768 0.157132
artifact 0.024590 0.101895 0.073979 0.012743 0.145721 -0.023483 0.059550 0.060254 -0.039299 0.016471 -0.002701 -0.013417 -0.116608 0.035566 -0.016926 0.103199 0.030837 -0.009141 0.107432 0.145698 0.089177 -0.014931 -0.001424 -0.106868 0.020809 0.000772 -0.094800 -0.072885 0.134636 -0.092469 0.026886 -0.014306 -0.083676 0.171280 0.228217 0.079129 -0.048873 -0.116286 0.090616 -0.032361 -0.045586 0.096661 0.037826 -0.071913 0.068049 0.076582 -0.008055 -0.037510 0.083819 0.114045 0.026952 -0.028852 0.141548 -0.068868 0.163583 -0.051657 0.080786 0.130467 -0.020703 0.037332 0.000168 -0.034290 0.012908 0.157157 0.022144 0.015917 0.013014 -0.091789 0.032989 0.054953 0.068706 -0.067221 -0.033581 -0.124403 0.088682 -0.009197 0.095208 0.039769 -0.064311 0.065685 0.165122 0.000046 0.109282 0.087782 0.249879 0.159654 0.233427 -0.026889 -0.030720 0.112446 0.017642 -0.084981 -0.046910 0.050618 -0.015490 -0.137701 0.033787 -0.176482 0.084400 0.066591 -0.092910 -0.148724 -0.068661 -0.015307 -0.074583 0.263656 0.003846 -0.029706 -0.107414 0.059737 0.176358 -0.038421 0.098965 -0.064293 0.027799 0.137921 0.007337 0.014467 -0.031013 0.013148 -0.059354 0.051667 -0.021682 0.043848 0.052718 -0.036690 0.033112 -0.014691
association -0.004291 -0.098215 -0.068789 0.085754 -0.092512 0.031691 0.032549 0.054381 -0.079210 -0.034021 0.080560 0.109866 -0.115379 -0.058885 -0.121992 -0.036226 0.139411 0.056253 -0.059249 -0.044184 -0.026925 0.085213 0.013553 -0.043740 -0.003650 -0.059805 -0.067031 -0.107765 -0.016149 -0.018652 0.019300 -0.140550 0.111912 -0.147785 -0.198332 -0.256930 0.088861 -0.103254 0.082261 0.015813 -0.087136 0.136145 -0.142374 0.084573 0.162930 0.034814 -0.007776 -0.021616 -0.018680 -0.084267 -0.042546 0.069561 -0.157106 -0.027915 0.021977 -0.061058 0.055815 0.106843 0.127651 0.070448 -0.013715 -0.116179 -0.030277 -0.006286 0.063307 0.012650 -0.067686 0.096370 0.057494 -0.092606 -0.068718 0.092397 0.055658 -0.034113 -0.032524 0.068857 0.011830 0.068156 -0.045999 0.148866 0.057751 -0.092576 0.010282 0.005595 0.167565 0.120775 -0.126895 0.046485 0.048491 0.041961 -0.137093 -0.030827 0.095781 0.025520 -0.094440 -0.161177 0.020033 0.060868 -0.134986 -0.097038 0.061641 0.053174 0.013916 -0.127307 -0.027030 0.022589 -0.060809 0.026582 0.217032 -0.057010 -0.020594 -0.056551 -0.136020 0.003423 0.011481 0.186210 -0.075665 0.072157 -0.161713 0.047263 0.067406 0.077046 -0.114688 -0.133433 -0.048059 -0.102862 0.024186 0.003033
astronomer 0.029803 0.121151 0.049013 -0.017249 0.045917 0.134290 0.118359 -0.219725 0.051835 -0.061181 -0.075813 0.038041 0.086650 -0.039520 -0.088820 -0.054795 0.012165 0.140983 0.001721 -0.144474 -0.052798 0.031028 -0.022445 -0.024185 0.056081 -0.053854 0.073051 -0.018614 0.041803 -0.013041 -0.019505 -0.076609 0.114793 0.042226 0.124407 -0.175769 0.080183 0.071909 0.093913 0.064849 -0.006128 0.196593 0.019877 0.127736 -0.119455 0.037426 -0.043981 0.011289 -0.020914 0.058698 0.019084 0.053100 0.087512 0.072202 0.165881 -0.100050 0.008423 -0.006159 -0.009536 -0.053186 0.014583 -0.062036 -0.034709 -0.009003 -0.090263 -0.003226 0.039788 -0.268525 -0.063466 -0.081471 0.023194 0.112883 0.071185 0.035055 -0.108904 0.047845 -0.164733 0.128804 -0.002959 -0.118548 0.188718 0.059625 0.057837 -0.078948 0.124086 0.155734 0.052956 0.030867 0.125841 -0.009936 -0.050564 -0.097919 0.151913 0.081494 0.004172 0.042303 -0.092981 -0.227697 0.019590 0.006671 0.011982 -0.015453 -0.009990 0.057113 0.129947 0.040323 0.022891 0.074641 0.014790 0.120577 -0.017937 0.101586 0.061407 0.012536 0.038976 0.047278 0.100721 -0.044140 0.009190 0.027372 0.118369 0.097576 -0.055311 -0.064489 0.045406 -0.191761 -0.036967 0.182037
asylum -0.109840 -0.072706 0.009260 0.087643 0.026728 0.033392 -0.027461 -0.089315 -0.190089 -0.012578 -0.028962 -0.020929 0.106786 -0.073886 0.026363 -0.017459 0.062564 -0.050412 -0.011485 0.017962 -0.082067 0.096268 0.133661 0.024278 -0.155350 -0.144099 0.112724 0.071403 0.047395 0.112255 -0.017387 -0.080306 -0.054822 0.052493 -0.015003 -0.024671 -0.001224 -0.069857 -0.184117 -0.034121 -0.019292 -0.015586 -0.010489 0.078487 -0.108229 0.044814 0.037976 -0.125202 0.040573 -0.016273 -0.003998 0.131832 0.033264 -0.135050 -0.060719 -0.009769 -0.128426 0.026746 0.017205 -0.127370 0.056140 0.078925 0.129957 -0.039566 0.003266 -0.136330 -0.051343 -0.004917 -0.041846 -0.126217 -0.072113 0.069607 0.165467 -0.045200 0.105739 0.047672 -0.079651 -0.036124 0.144425 -0.028797 0.133314 0.142538 0.016471 0.002543 -0.225682 0.046156 -0.069613 -0.107426 -0.140674 0.158580 0.211182 -0.067543 0.110671 0.054894 -0.066462 -0.044081 -0.009951 -0.059621 0.215164 -0.102491 -0.062316 -0.007136 -0.020787 -0.126149 0.160001 -0.008898 0.178022 -0.091746 0.018763 -0.004618 0.064649 -0.027659 0.085308 0.004113 -0.132529 -0.092612 -0.084458 0.052109 0.012469 -0.078031 0.041907 0.096235 0.088121 0.082025 -0.013537 0.115686 0.090760 0.039297
atmosphere -0.017802 0.036522 0.016669 -0.125485 0.027310 0.071525 -0.070281 0.026736 0.019405 -0.005962 0.153116 -0.027062 0.015084 -0.106715 0.033414 -0.106828 0.009154 0.023554 -0.021012 0.071348 -0.029919 -0.047986 -0.085539 -0.137871 0.048828 -0.145039 -0.133234 0.054346 -0.060406 0.026290 -0.043897 -0.151563 0.032139 0.174155 0.139617 0.058615 0.074759 0.010100 -0.040412 0.014147 -0.074194 -0.031410 0.013305 -0.026317 -0.034834 0.066249 0.040273 0.227596 0.103097 0.082049 0.061160 -0.106370 -0.113722 0.172050 0.107411 0.040956 0.000372 0.038975 -0.014818 -0.180710 -0.102245 -0.019766 0.068887 -0.033576 -0.065004 -0.079628 -0.038602 -0.153246 -0.044199 -0.038444 0.163519 -0.039462 0.024463 -0.009268 -0.062679 -0.057749 0.036278 0.077577 -0.079303 0.023416 0.026797 -0.000492 -0.121333 0.147241 -0.087528 0.055955 0.096121 0.033643 0.023493 -0.097146 0.065664 -0.085252 0.039565 0.079175 0.092967 0.090918 0.049265 -0.131661 0.030151 0.039028 -0.252961 0.062411 -0.097853 -0.113040 0.023390 0.033644 -0.071997 0.080654 0.093149 0.013096 0.014990 0.035888 0.044234 0.049647 0.104815 0.009854 0.195223 -0.074155 -0.036471 -0.112371 -0.235190 -0.013094 0.071182 0.062678 0.126765 -0.224015 -0.016109 -0.106453
attempt 0.102657 -0.104778 0.004743 -0.027900 -0.192519 0.155784 -0.170188 -0.054461 0.015166 -0.018597 0.054316 0.152079 0.178155 -0.108674 0.029697 -0.128086 -0.098721 -0.062356 -0.048984 0.006071 -0.006371 0.039315 -0.029991 0.145271 -0.009478 -0.040599 -0.006626 0.192529 0.090511 0.040704 -0.149268 0.097065 0.006545 0.057154 -0.098295 0.047086 -0.019243 -0.025156 0.044673 -0.065585 0.079402 -0.000308 0.055576 -0.045757 -0.074752 0.056127 0.068790 0.081149 0.019320 0.202332 -0.013230 0.006939 0.051292 -0.136923 -0.057635 0.071026 -0.017824 -0.047459 0.092601 -0.029111 0.049347 -0.070839 0.082610 0.029582 0.017381 -0.036323 -0.060867 0.009032 -0.105290 0.019493 0.097338 0.019009 -0.000623 0.108058 -0.007492 -0.081138 0.001318 0.032702 -0.153096 0.007096 -0.096433 -0.096661 0.164051 -0.099261 0.070714 0.074756 0.141301 0.064855 -0.139557 0.053860 0.045239 0.111283 0.101657 0.098024 0.059225 -0.062470 -0.002380 -0.176365 0.101571 0.002760 -0.004572 -0.070964 0.152578 -0.082670 -0.042433 0.227286 -0.130319 0.015741 -0.054848 -0.017562 0.020052 -0.088062 0.111865 0.103201 -0.032982 0.032480 0.053331 -0.124513 0.022077 -0.058333 -0.018147 0.084490 0.191493 -0.029661 -0.175679 -0.017090 -0.061991 -0.119018
attitude 0.052072 -0.095070 -0.001622 -0.124614 -0.057046 -0.005473 0.011704 -0.028553 -0.013112 -0.031597 0.011593 0.108972 -0.048841 0.078336 -0.027246 0.100425 -0.064353 0.100231 -0.092871 -0.045590 0.098537 -0.063129 0.000309 -0.070390 0.010951 -0.145803 -0.090434 0.075375 0.348355 0.081620 0.060779 -0.017431 0.057556 0.060916 -0.043959 0.105665 0.172730 -0.042445 -0.096938 -0.011715 -0.079438 -0.077549 0.090700 0.046448 0.157173 0.052491 0.076622 -0.092758 0.035889 0.119605 -0.150481 -0.072392 -0.116286 0.178566 0.041407 0.013490 0.072088 -0.136513 0.002478 -0.032510 0.024382 0.096865 0.046577 -0.113150 -0.050756 -0.132640 0.055031 -0.116339 -0.056627 -0.152993 0.102829 0.058209 -0.026145 -0.007661 0.053064 -0.056987 -0.011295 -0.043968 -0.143379 -0.008284 -0.145152 -0.005243 0.082467 0.010780 -0.244135 0.046823 0.007585 0.036515 -0.135017 -0.027790 -0.019974 -0.072755 -0.073809 0.187240 -0.036271 0.005424 -0.135295 -0.059435 0.098679 0.012234 -0.086595 0.150232 -0.187835 -0.075378 -0.082189 0.019828 -0.123901 -0.064565 0.059202 -0.033105 0.130748 0.111320 0.066007 0.015348 -0.012615 -0.012269 -0.032243 -0.076355 0.010250 -0.019003 -0.015557 -0.045971 0.006783 -0.036802 0.052826 0.016755 0.099966 -0.038524
automobile 0.012427 -0.180193 0.085813 0.015071 -0.066496 -0.135854 0.017136 0.086130 0.221453 -0.119677 0.043909 0.082221 -0.003334 0.020595 -0.183203 -0.111741 0.021444 0.027405 0.043725 0.048190 0.102645 -0.055462 0.087537 -0.075807 -0.029198 -0.013609 0.040866 -0.196662 0.010906 0.080232 -0.039588 -0.053080 0.191081 0.008947 -0.122592 -0.132845 0.016438 -0.088703 0.060880 0.168726 0.149239 0.112021 0.083858 0.038080 0.085973 0.009118 -0.047171 -0.026597 -0.193041 -0.070039 -0.062570 0.005230 -0.020812 -0.112753 0.128092 0.058766 0.058297 0.119792 0.149381 -0.047196 -0.023845 0.029065 0.047192 -0.087003 0.056961 0.101987 0.123840 -0.084286 -0.091376 0.036690 0.044742 -0.047388 -0.005180 -0.035306 0.079469 -0.046931 0.049337 0.058039 -0.065433 0.025764 -0.030407 0.050651 -0.017785 -0.128653 0.153999 0.045350 -0.196830 0.013800 -0.013993 0.127079 -0.006945 0.043058 0.070252 -0.053959 -0.096475 -0.058027 0.044709 0.040651 0.000989 0.008786 0.116878 0.067289 -0.068078 0.034030 0.006982 0.090659 0.052419 0.057254 0.027281 -0.129028 -0.051056 -0.016522 0.019180 -0.052792 0.217916 0.195562 0.038032 -0.016423 -0.097500 0.090631 0.065019 -0.172413 -0.076891 -0.000374 0.067944 -0.050242 0.046981 0.125458
avenue 0.069287 0.104380 -0.051010 0.051610 0.067433 0.002356 0.019484 0.022166 -0.014918 -0.072936 -0.007528 0.021320 -0.071672 0.062846 0.175838 -0.040577 -0.010591 0.117604 0.250189 -0.062593 0.112423 0.065829 -0.005147 -0.060136 0.013390 -0.005549 0.051975 -0.005881 -0.077379 0.101256 -0.075840 0.010361 0.062282 -0.001733 -0.081874 -0.106695 -0.064759 0.050191 0.157872 -0.087066 0.058704 0.011613 0.012416 0.051808 0.089948 0.133132 0.050475 0.002871 -0.043460 0.004224 -0.163770 0.024744 0.162419 0.062815 -0.099366 0.138991 0.033885 0.040796 0.224267 -0.140909 0.106944 0.015802 0.055185 0.086113 -0.063810 0.122944 -0.109788 0.048943 -0.090265 -0.101868 0.006477 -0.051046 -0.129090 0.001448 0.044630 -0.181761 0.113557 -0.106461 0.082793 -0.035046 0.134692 0.133335 -0.067123 0.120200 0.133920 -0.031121 0.160368 0.108264 0.075955 0.184144 0.021780 0.077118 -0.087021 0.007334 0.130171 -0.018809 -0.048667 0.110137 -0.063580 0.158198 -0.164615 0.001264 0.074720 -0.097399 0.016539 -0.133438 -0.022588 -0.028528 -0.012134 -0.015654 0.036748 0.032643 0.099575 0.002233 0.049724 0.015222 0.102905 -0.013346 -0.162799 0.086804 0.068966 -0.117337 -0.057605 0.010154 0.081965 -0.038033 -0.023260 0.052562
baby -0.141665 0.150629 0.006763 -0.112554 -0.032130 -0.093479 0.110681 -0.069855 -0.001040 -0.028028 -0.058695 -0.039477 0.039193 0.041814 -0.011426 0.017292 0.127510 -0.034127 -0.141251 0.011333 -0.032410 0.024968 0.026543 0.137661 -0.050699 0.106931 -0.019590 -0.053584 -0.026180 0.040785 0.060206 -0.068736 -0.053105 0.042905 -0.144433 -0.013285 -0.048740 0.032054 -0.221412 -0.127029 0.214896 -0.010577 0.174489 0.033777 -0.005489 0.033911 -0.089306 -0.130051 0.145821 -0.038201 0.128192 -0.029606 0.096547 0.112306 -0.069693 0.057905 -0.009128 0.134543 0.024755 0.008457 0.011878 -0.035489 0.019973 0.055628 0.092215 0.118162 0.070759 -0.111492 0.061783 -0.050046 0.118261 -0.015045 0.052788 -0.043704 -0.079666 0.046509 0.030831 0.041659 0.093450 -0.274400 -0.120652 -0.002250 -0.108316 -0.041600 -0.033745 -0.051800 -0.011827 0.041387 -0.006585 0.007327 -0.058308 0.016695 -0.219131 0.069012 -0.111348 -0.090240 -0.008385 -0.059895 0.144441 0.025105 -0.085101 0.067594 -0.056520 0.167050 -0.083829 -0.054014 -0.077815 -0.022271 -0.059668 -0.022932 0.013605 -0.159671 0.138004 0.010534 -0.129897 -0.051475 -0.163376 0.158999 0.070465 -0.070151 0.101181 -0.070623 0.060381 -0.084903 0.024198 -0.047822 0.016299 -0.118097
bank -0.000391 -0.098719 0.062570 0.077230 -0.174105 -0.062925 -0.019108 0.040803 -0.077449 0.092017 0.053503 0.011512 -0.127479 0.141037 0.215322 -0.038183 -0.133083 0.139558 0.023770 0.052191 -0.020126 0.003801 -0.054235 0.040630 -0.125922 -0.018780 0.128561 0.104073 -0.041197 -0.009182 -0.000125 0.094407 -0.093648 -0.098616 -0.259168 -0.107195 -0.175176 -0.218409 -0.151464 0.060852 -0.016986 -0.018321 -0.154767 0.113079 0.002215 0.013959 -0.141340 -0.021955 -0.176166 0.011706 0.075627 -0.081757 0.070897 -0.033394 0.132394 0.085009 0.109601 -0.041890 0.062706 0.066445 -0.015767 -0.131015 -0.094233 -0.005280 -0.083507 -0.101856 -0.088796 -0.013139 -0.048983 0.079900 -0.068997 -0.029983 0.051517 -0.005397 -0.039161 -0.047661 -0.077890 -0.049851 0.061914 -0.022018 0.041043 -0.129176 0.002930 0.099000 -0.006323 0.085081 -0.015345 -0.010742 0.212864 0.075540 0.082783 -0.092507 0.088761 -0.125433 0.011171 -0.015907 -0.134007 -0.001145 -0.002117 -0.020157 0.125620 -0.040778 -0.066503 -0.071146 0.097677 0.053844 0.005741 -0.074110 -0.004634 0.066733 -0.024768 0.018133 -0.045381 0.129768 -0.056946 0.146685 -0.111726 0.029679 0.163886 0.039006 -0.072991 0.041057 0.017160 -0.072003 -0.039008 -0.046829 0.015412 0.061806
baseball -0.019981 -0.064143 0.029936 0.137576 0.034591 0.077276 0.011612 0.018619 0.074971 -0.043903 -0.060798 0.014402 0.030439 0.109690 -0.115115 -0.103908 -0.016656 0.161818 -0.065174 -0.082825 0.069892 -0.014852 -0.135635 -0.052171 -0.016605 -0.024115 -0.048767 -0.021139 0.041590 -0.078687 0.083215 -0.129072 -0.129877 0.023654 0.202559 0.043427 0.183750 0.106068 0.216458 0.042745 -0.224611 0.107805 0.001030 -0.017205 0.171088 -0.085322 -0.180731 -0.102701 0.011210 -0.035825 -0.013851 -0.077330 -0.088933 -0.032718 -0.071965 0.209019 0.183384 0.137090 -0.055056 0.165946 -0.041375 -0.083734 -0.017274 0.059592 -0.030034 0.133005 0.104804 0.000315 -0.062801 0.050666 0.027010 -0.016672 0.032550 -0.017583 0.004015 0.037501 0.040621 0.090435 -0.009210 -0.039491 -0.011114 -0.050827 0.026309 0.101510 0.118769 -0.030663 -0.138457 0.015214 0.031654 0.009931 -0.056363 0.203560 -0.012701 -0.058121 0.110064 -0.024601 0.008499 0.050236 0.007219 -0.021451 0.034839 -0.010834 0.018483 0.047580 0.070481 -0.002389 -0.019729 -0.032145 0.005313 -0.021836 -0.166939 0.045204 0.004195 -0.024367 0.005385 0.093287 -0.131709 -0.132795 -0.233616 0.085474 0.143855 0.011187 0.077199 -0.068853 0.083358 -0.049674 0.104462 -0.003527
basketball -0.098037 0.000482 -0.002389 0.027635 0.067772 0.063655 0.089187 0.064970 0.076216 0.021196 0.000691 0.092837 -0.093134 0.147003 -0.236337 -0.066885 0.009354 -0.066017 -0.039504 -0.086791 0.110474 0.123889 -0.197240 0.013219 0.088579 0.114732 -0.225482 0.054253 -0.044281 -0.096528 -0.062525 -0.061051 -0.073195 -0.090795 0.037393 0.034818 0.126163 0.170724 0.145307 0.024104 -0.094677 0.081655 0.059378 0.122040 0.233372 0.022937 -0.134008 -0.135872 -0.067901 0.064433 0.097218 -0.036417 -0.117742 -0.148654 -0.089237 0.058916 0.177927 0.075749 -0.060997 0.056114 0.125503 -0.049522 0.008203 -0.022214 0.023757 0.040869 -0.057540 0.063429 0.023609 0.071847 -0.065106 -0.055027 0.037317 0.046438 0.031996 0.080267 0.098282 -0.007831 0.005940 0.047633 0.004011 0.002098 0.057872 -0.022799 0.084953 -0.005505 -0.063144 -0.031780 0.018629 -0.055466 -0.037666 0.082464 0.022049 -0.056418 0.020049 -0.007889 -0.151882 0.000832 0.012841 0.027394 0.044303 0.099878 0.006925 -0.017197 0.020318 -0.043749 -0.021820 -0.062962 -0.042847 0.079676 0.024859 0.096575 0.096159 -0.092102 0.082621 0.160536 -0.090985 -0.109694 -0.231449 0.069516 0.009524 -0.043437 -0.031075 -0.180482 0.166809 -0.118069 0.072108 -0.029078
bed 0.045793 0.113128 0.041396 -0.011871 0.011996 -0.033314 0.019444 -0.073300 0.050192 0.029618 -0.011427 -0.093659 0.109659 0.023795 0.005596 0.001999 0.163247 -0.167769 -0.028097 -0.027070 -0.045455 0.066543 -0.034644 0.080754 0.099512 0.089503 0.065332 -0.047169 0.073302 0.090033 0.083217 0.086445 -0.053922 0.046187 0.007686 0.016928 -0.041126 -0.108058 -0.131147 -0.074893 0.119476 -0.026935 0.203617 0.055312 -0.011401 0.030257 -0.141473 0.001562 0.094147 -0.082523 0.035189 -0.064487 0.059128 0.052045 -0.034917 0.067280 -0.113115 -0.045534 -0.039690 -0.116543 0.089662 0.060154 -0.008937 0.051048 0.006263 0.190666 -0.110073 -0.065404 -0.013884 0.102525 0.026425 -0.221150 -0.022061 0.069477 -0.168646 -0.110109 -0.051773 -0.071790 -0.031980 -0.049757 -0.049222 -0.057868 -0.175008 -0.002809 -0.023178 -0.083316 0.109675 -0.077218 0.132493 -0.039606 -0.106701 -0.065355 -0.218473 0.158525 -0.115321 -0.031883 0.002282 -0.055683 0.063125 -0.037061 -0.175078 0.119468 0.002934 -0.021086 0.116854 -0.180077 -0.065544 0.036102 0.134957 0.175186 -0.026942 -0.040913 0.139719 -0.025540 0.014228 0.017197 -0.125009 0.145751 0.011403 -0.155607 0.084465 -0.020156 0.028548 0.117527 0.097548 -0.052875 0.007761 -0.039665
benchmark -0.044491 -0.114003 -0.201132 0.127867 -0.153844 -0.118228 0.057327 0.048455 -0.034457 0.032686 -0.110763 0.073354 0.069722 0.123679 0.121752 0.016261 -0.014995 0.189428 0.143360 0.144647 0.000778 0.127606 -0.038448 -0.076580 -0.090834 -0.077678 -0.013918 -0.128372 -0.045303 0.186691 0.026488 0.173842 -0.014631 0.023187 -0.111317 -0.061335 -0.088063 -0.105820 -0.108415 0.218622 -0.015542 0.002410 -0.105381 0.077082 0.069855 0.054441 0.105904 0.000271 -0.018189 0.075934 0.082323 -0.000045 -0.121919 -0.034380 0.033495 -0.028394 0.060964 -0.124022 -0.005221 0.064199 0.031435 -0.001133 0.016677 -0.013077 -0.008965 -0.026012 0.005679 0.007262 0.108797 0.128603 -0.097706 0.064276 0.073062 -0.028265 -0.077225 -0.080895 -0.137143 -0.003223 -0.077276 -0.004179 0.075219 -0.190255 -0.015855 -0.021555 -0.063696 0.089338 0.086691 -0.045318 0.043279 0.024313 0.019250 -0.099039 -0.131574 -0.026027 0.139716 0.213140 0.150989 0.014356 -0.134532 -0.000965 -0.013039 0.070406 -0.035804 0.023263 -0.072989 0.134929 -0.009456 -0.078821 -0.127051 -0.013896 -0.083312 -0.113870 0.046864 0.101168 0.046242 0.049774 -0.059600 0.036980 0.088075 -0.064923 -0.017754 -0.027279 -0.069626 -0.055205 0.112430 -0.086545 0.130320 -0.047453
bird 0.066000 0.143753 0.159761 -0.076696 0.239989 0.082495 0.078628 -0.183767 -0.033295 -0.215022 -0.153915 -0.005430 -0.103744 0.002779 0.066430 0.014072 0.111949 0.086496 0.036058 0.072801 -0.039938 0.084302 -0.002429 -0.027685 -0.101924 -0.069324 0.013523 -0.021668 0.043915 0.058921 0.106707 -0.116315 0.050500 0.165185 -0.014519 -0.096901 -0.083077 -0.059488 -0.031310 -0.085647 -0.110723 -0.014620 0.029582 -0.050479 -0.034682 0.122591 -0.045298 0.020794 0.092163 0.116107 0.178840 0.056336 0.043615 -0.058641 0.030205 0.087862 0.084155 0.124812 -0.186345 0.003054 -0.069350 -0.093962 -0.010671 0.055643 0.069399 0.039271 -0.066711 -0.066649 0.117871 0.094222 0.014002 0.113910 0.095301 -0.040503 -0.132885 0.062526 0.136233 -0.120771 -0.058710 0.023053 0.047794 0.044942 -0.066759 0.087025 0.098136 -0.090656 0.087594 0.007491 -0.036481 -0.008701 0.008751 -0.031175 -0.084550 0.044361 -0.130978 0.049782 0.113570 0.100711 0.064737 -0.060744 -0.023417 0.048702 -0.011649 -0.012386 0.045301 0.090531 -0.074637 0.046381 -0.143242 0.008284 0.042248 -0.080958 -0.064782 0.009550 0.097679 -0.094229 -0.127821 0.071449 0.006899 -0.017127 0.101250 -0.112210 -0.017190 -0.234688 -0.028159 -0.063610 -0.166364 -0.048951
bishop -0.012059 -0.262973 0.050399 -0.021551 0.063315 -0.080757 0.067544 -0.176590 -0.063341 0.132293 0.137713 -0.032059 0.015446 0.024767 0.095498 -0.009602 -0.099836 -0.005847 -0.016112 -0.132438 0.071664 0.076049 0.006570 0.093450 0.033482 -0.070599 -0.077890 -0.111348 0.154434 0.036273 -0.059780 -0.119107 -0.017759 -0.166007 0.141654 0.016071 -0.003807 -0.039016 -0.110520 -0.111629 -0.025311 -0.020100 0.045992 0.109877 -0.094479 0.161356 0.002777 -0.076835 0.046167 0.034283 -0.026608 0.039615 0.136940 0.074906 0.023742 -0.053445 -0.031448 -0.140030 0.039017 -0.067177 0.167519 -0.034401 -0.021290 0.052271 -0.080471 0.170469 0.029092 -0.044418 0.091048 -0.173604 -0.036748 0.051345 0.012634 -0.016493 -0.076313 -0.031536 -0.076315 0.046461 0.094677 -0.033093 0.143215 -0.002125 -0.066380 -0.022284 0.084749 0.081077 -0.053560 0.082616 0.074962 0.098661 -0.019609 -0.071768 0.126378 0.013938 -0.006225 -0.102199 -0.059344 -0.148679 0.133007 0.161005 0.095384 0.038655 0.133691 -0.001771 0.048167 -0.139022 0.121003 0.062029 -0.092076 0.003587 0.041768 0.093676 -0.128552 -0.107895 -0.010009 -0.133713 0.058246 -0.072265 -0.051280 0.092042 0.130683 0.074686 0.100598 -0.013232 0.124654 -0.120652 -0.036377 0.048503
block 0.067880 0.130313 -0.043457 0.081657 0.067376 0.002055 -0.015389 -0.001211 0.052848 0.035376 0.039529 0.047128 0.046181 -0.110147 0.132558 -0.112713 0.197966 0.119482 0.102068 0.005658 0.122461 -0.006621 0.031694 0.009038 -0.190831 0.116991 -0.136754 0.119889 -0.103183 0.057274 -0.128671 -0.018387 -0.017514 0.086939 -0.097438 0.012276 -0.165213 0.069853 0.045382 -0.061068 0.152651 -0.042158 0.051724 0.052707 0.043393 -0.031450 0.044829 0.064720 -0.047349 -0.220944 -0.113531 0.135357 -0.022884 0.012062 -0.040073 0.011257 -0.049580 0.037883 -0.140957 -0.066587 0.081135 0.006632 0.025369 0.014696 -0.094272 0.133187 -0.038876 0.066624 0.004867 0.049650 -0.064552 -0.056616 0.179068 0.032911 -0.006831 -0.122111 0.004039 0.022778 0.032121 0.095157 0.044362 -0.041753 0.044192 0.024049 0.133134 0.014258 0.030881 -0.060184 0.005165 0.226770 -0.008564 -0.041490 -0.065619 -0.121932 0.146593 0.111951 -0.056468 0.113557 0.083917 0.104272 -0.044777 -0.085156 0.197731 -0.108564 0.050377 -0.218892 -0.079841 -0.051341 -0.007468 0.072408 -0.054108 -0.090642 0.091235 -0.080838 -0.171123 0.062043 0.122027 -0.025782 -0.034791 0.035125 -0.041492 0.011521 0.047392 -0.004206 -0.114296 0.102110 -0.024987 -0.051101
board 0.023149 0.059981 0.116239 0.161391 -0.131558 -0.148746 0.103826 0.020095 -0.009400 0.004028 0.161486 -0.005209 0.065193 -0.003562 0.056041 -0.119698 -0.102059 0.060354 -0.116012 -0.075698 0.040139 0.128375 -0.066512 0.087231 0.029973 -0.127120 -0.016735 -0.109408 -0.019185 0.049727 0.043492 -0.156849 0.021388 -0.101270 -0.100681 -0.164775 -0.107143 0.001821 -0.074643 0.076204 -0.067505 -0.113888 -0.055055 0.053489 0.079979 0.030879 -0.034806 0.045165 0.000335 -0.066466 0.037916 0.036420 -0.145420 0.052356 0.056750 -0.144643 0.098673 0.077238 -0.079066 0.036958 -0.090217 -0.070881 -0.002641 0.087926 0.091450 -0.040061 -0.130633 0.064484 0.026407 -0.016735 -0.093469 0.119365 -0.068288 -0.141346 -0.147919 -0.006725 -0.104880 0.050124 -0.048435 0.143433 0.133617 -0.147529 -0.042848 0.024244 0.040452 0.092092 0.076253 0.055384 0.134423 0.061788 -0.035247 -0.017474 0.134255 -0.048330 0.071541 0.007635 -0.052954 0.076144 -0.181332 -0.110075 0.153271 0.158872 0.106292 0.008664 -0.097366 -0.090422 -0.084818 0.036032 0.151248 -0.025465 0.015389 0.041590 -0.013985 0.110961 0.018364 0.048844 -0.071932 0.085869 -0.183415 -0.016391 0.093345 -0.046370 0.121872 -0.047508 -0.146927 0.027335 0.076558 -0.007341
book 0.071836 0.013217 0.015482 0.007790 -0.026607 -0.059449 0.029609 -0.029506 -0.016933 0.005322 -0.087497 -0.081631 -0.000840 -0.051711 0.020336 0.042518 -0.057923 -0.027871 -0.038834 0.140076 0.017136 0.086265 -0.025437 -0.004870 -0.001414 -0.030384 0.012485 0.031426 0.240077 0.019605 0.075751 0.004770 0.032591 0.158810 0.145170 -0.012311 0.054738 -0.073301 0.116274 -0.164157 0.020958 0.099571 0.055307 -0.059056 0.092385 0.040253 -0.035043 0.046543 0.023824 0.119424 0.062561 -0.036762 0.078543 -0.017796 0.030676 0.073042 0.016875 0.121831 -0.052928 -0.025545 0.163060 -0.220604 -0.079940 0.033307 -0.044313 -0.024833 0.139774 0.007685 -0.141176 -0.076002 0.014603 0.123010 -0.049184 -0.043171 0.063141 0.067734 0.051462 0.139465 0.028374 -0.074299 0.055105 0.001824 0.059664 -0.070506 0.083736 0.098739 0.146935 -0.200912 0.090276 0.052523 -0.161608 -0.118047 -0.229756 0.042775 -0.038506 -0.108492 0.094813 -0.152493 -0.090901 0.152945 0.087529 -0.123912 -0.046902 -0.004093 0.122264 -0.046026 0.119271 0.140800 -0.024900 -0.117850 0.134540 -0.076982 -0.039526 -0.012878 0.038521 -0.025294 -0.070687 0.109496 -0.062778 0.102716 0.054510 0.131701 0.048328 0.082712 0.088215 -0.019420 0.169845 0.118730
boxing -0.030129 -0.069491 0.027978 -0.052825 0.075205 0.027682 0.039124 0.007318 0.037931 -0.012755 -0.018479 0.000816 0.039162 0.044430 -0.209256 -0.065864 0.010198 -0.009681 -0.067346 -0.000465 -0.024357 0.095350 -0.074376 0.171333 0.168392 -0.062195 0.019289 -0.017398 0.014790 -0.087993 -0.056057 0.015023 -0.189528 0.030069 0.127252 0.075214 0.098724 -0.041243 0.127639 -0.039487 -0.073895 0.102150 -0.099297 -0.034787 0.092142 0.026793 -0.119195 -0.071392 -0.011819 0.002182 0.026541 0.073207 -0.117116 -0.128345 -0.088784 -0.019764 0.013238 0.154346 0.050571 0.160551 0.038312 0.000226 -0.043318 0.046366 0.047261 0.205934 -0.079966 -0.051845 0.093306 0.081479 -0.097836 -0.049083 0.035277 0.053155 0.129449 0.065751 0.056893 0.164258 -0.083604 -0.072216 -0.113656 0.019081 0.120421 0.037062 0.000718 -0.076519 -0.175474 -0.011896 -0.113807 0.027054 0.201357 -0.164764 -0.084877 0.045557 0.023573 -0.072144 0.041578 0.022145 -0.023068 0.106370 0.004097 -0.042697 -0.150873 -0.011547 -0.093300 -0.080543 0.007747 -0.013962 -0.063411 -0.050516 -0.108355 -0.088516 -0.143780 -0.021737 0.227070 -0.071442 -0.112690 -0.011096 -0.166089 -0.032772 0.151251 -0.067750 -0.038285 -0.064126 -0.082300 -0.187008 0.014879 -0.062782
boy -0.065745 0.025457 0.083888 -0.104496 -0.024458 0.023556 -0.016062 -0.202854 0.058072 -0.041018 0.083200 -0.029430 -0.007480 0.080010 0.064284 -0.076407 0.099135 -0.042872 -0.051787 -0.135882 -0.009337 0.133436 -0.071015 0.181632 0.130074 0.134708 0.022504 -0.130140 0.161287 0.141226 0.002905 -0.035522 -0.019628 0.031578 -0.011084 0.040700 -0.000634 0.097273 -0.119730 -0.152156 0.163083 0.054962 0.068120 0.034259 0.047937 0.006678 -0.136917 -0.092399 0.125746 0.059962 0.147718 0.068591 0.016225 0.066969 -0.173573 0.180225 0.046910 0.088838 -0.222051 0.090664 0.065738 -0.007761 -0.058521 0.021162 0.137429 0.107769 -0.081354 -0.008831 0.040463 -0.097838 0.141504 -0.159602 0.045164 -0.093827 -0.015337 0.059987 0.043607 0.063152 0.177600 -0.132962 -0.146289 -0.036558 -0.100672 -0.041910 0.128437 0.032893 0.084685 0.107832 -0.045816 0.064131 -0.016614 -0.044373 -0.093643 0.153904 -0.005980 0.006634 -0.074729 -0.101516 0.094762 0.026862 -0.066030 -0.002188 -0.153630 -0.003776 0.027409 0.011495 -0.094939 -0.027079 -0.114786 -0.029728 -0.035080 -0.067566 0.138938 -0.046717 0.000563 -0.042642 -0.103429 0.002552 -0.034557 -0.109686 0.042249 -0.044088 -0.021080 0.012196 -0.017431 -0.028672 -0.002134 0.002047
brandy -0.053233 0.012234 0.035280 0.041775 0.257057 0.114599 0.052024 -0.015975 0.020487 0.042960 0.009699 -0.141509 -0.024549 0.081824 -0.007710 0.106178 -0.000187 0.057006 0.029507 0.184428 -0.061878 0.081628 -0.019514 0.088808 0.087140 0.090430 -0.062867 -0.114937 -0.016849 0.015215 0.044077 -0.063988 0.120469 -0.081181 0.081207 0.076643 0.103491 0.025503 0.021350 -0.170730 0.139197 -0.063483 0.105434 0.011179 0.086756 0.047821 0.081285 -0.046052 0.152037 -0.006973 -0.006213 -0.022264 0.113215 0.093543 -0.073869 0.051445 0.038009 0.132307 0.065205 0.074138 0.088484 0.002327 0.068737 -0.094784 -0.071728 0.236587 0.166365 -0.022456 -0.045113 -0.012906 -0.035797 -0.056376 0.059624 0.073264 0.027848 -0.015823 0.042599 -0.072340 0.025445 -0.010760 0.026738 -0.037184 -0.262648 -0.049279 0.030936 -0.046914 -0.023507 -0.043664 0.285585 0.138680 0.013783 -0.072797 -0.133171 -0.009430 -0.055384 0.162537 0.074043 -0.045678 0.062723 0.086664 0.066324 0.086741 -0.063510 -0.157534 0.023859 -0.142401 -0.063562 0.079676 -0.029154 0.101904 0.023292 -0.047329 0.084323 -0.035406 0.064136 -0.007272 -0.126675 0.017212 -0.053458 0.049841 -0.004179 0.027175 0.014452 0.093792 -0.048035 0.000926 -0.150285 -0.150913
bread 0.070947 -0.134782 -0.046004 0.047274 0.071027 0.020853 0.101564 0.012209 0.030758 -0.024798 0.046995 -0.081391 -0.051421 0.081730 -0.045017 0.072801 -0.032154 -0.037872 -0.025491 0.135596 0.009385 -0.073820 -0.063195 0.112185 -0.077669 0.129074 -0.026284 0.053203 -0.110198 0.026116 0.106260 -0.019050 -0.015652 -0.039677 -0.014786 0.131017 0.147319 0.005740 -0.052144 -0.269298 0.170028 -0.104219 0.048166 0.007634 0.080441 0.249605 0.015916 -0.007773 0.184612 0.014866 -0.034092 -0.050034 -0.062686 0.067728 0.037258 0.178477 -0.093028 -0.011724 0.033023 0.012572 0.079219 0.021092 0.106042 -0.015494 -0.027730 0.182920 0.266936 0.013203 -0.082490 0.050432 0.028094 -0.095197 0.000327 0.055488 -0.122617 0.038034 -0.044831 -0.006922 0.047196 0.054410 0.067218 -0.037284 -0.180752 -0.088540 -0.139488 -0.052968 0.068188 -0.010368 0.193169 -0.007320 0.059476 -0.010744 -0.144377 0.025077 -0.017362 0.045695 0.108031 -0.076833 0.022954 0.009554 0.132505 -0.089831 -0.030588 0.021538 0.074976 -0.012658 -0.066844 0.231968 0.012579 0.056805 0.079693 -0.008213 -0.117287 0.085539 0.081236 -0.019773 -0.043348 -0.048377 0.053343 -0.069514 -0.002322 0.116235 -0.023920 0.160845 0.034307 -0.085571 -0.020466 -0.043037
brother -0.053234 0.039173 0.010285 -0.007248 -0.001521 0.079895 -0.042295 -0.146363 0.076091 0.058703 -0.006296 0.062926 0.121013 0.195669 0.056097 -0.019946 -0.142065 -0.030542 0.035019 -0.135248 -0.036281 0.069427 0.048227 0.141357 0.060375 0.102660 0.113857 -0.112787 0.146681 0.051771 -0.020820 0.007877 0.035549 -0.129885 -0.000098 0.016969 -0.006646 0.082530 -0.017963 -0.073690 0.214286 0.003828 0.091619 -0.019464 -0.012868 0.103387 -0.062961 -0.024652 -0.041455 -0.011490 0.027209 0.112447 0.119769 0.028238 -0.111929 -0.042319 0.037693 -0.027259 -0.167336 -0.060136 0.009568 0.073547 -0.000680 0.091015 0.140490 0.044819 -0.013058 -0.030510 -0.003067 -0.204081 -0.016269 -0.113907 0.001509 -0.128295 -0.037984 0.001111 0.027143 0.087420 0.064115 -0.144453 -0.127661 0.037729 -0.019817 0.027483 0.118329 -0.010432 -0.084201 0.007221 0.006347 -0.082766 -0.035201 -0.159693 -0.094921 0.237486 -0.002545 0.007733 0.012809 -0.156272 0.109221 0.139621 -0.036030 0.120297 -0.118752 0.146453 0.020252 -0.004277 0.033026 -0.062627 -0.064263 0.011779 0.026956 0.011414 0.126868 0.037386 -0.078386 -0.219416 -0.155497 0.019347 -0.134440 0.115533 0.120336 0.109098 -0.046929 0.047501 -0.030104 -0.147093 -0.039647 -0.016090
buck -0.116790 -0.009184 0.112668 0.027661 0.089840 0.058495 0.160856 -0.065606 0.109361 -0.035990 0.091493 0.004884 -0.014255 0.001944 0.088188 -0.164223 -0.165669 0.122055 -0.033069 0.102781 0.012281 0.092144 -0.066307 0.128406 0.114229 -0.015555 0.008093 0.028367 0.051558 -0.004495 0.064663 0.027840 0.021059 0.033088 -0.091301 -0.209865 -0.022032 0.100596 0.122070 -0.039290 0.139689 -0.057229 -0.067165 -0.064396 0.014565 0.019977 -0.092026 0.106983 -0.045186 -0.005988 -0.210652 0.034331 -0.036772 0.194757 0.003431 0.098364 0.066447 0.102242 -0.143289 0.061631 0.032985 0.062666 -0.090055 0.017891 0.050117 0.084647 0.026159 -0.231087 -0.015348 -0.036747 0.079795 0.136763 -0.049976 0.072485 0.139590 0.030017 0.129515 -0.012363 0.045420 0.074892 -0.014674 -0.050217 -0.073894 0.051300 -0.002524 -0.118243 -0.093872 -0.129300 0.171058 -0.019416 -0.060075 0.164860 -0.170425 0.021326 -0.012219 -0.013961 0.021692 0.132846 0.056586 0.025148 0.118887 -0.098190 0.053484 -0.008970 -0.121268 0.183946 -0.092724 -0.006955 -0.011076 0.056381 -0.023568 0.030366 0.072939 0.029121 -0.143675 -0.157064 -0.054239 -0.104395 -0.063527 -0.092617 0.018781 -0.044533 -0.053525 -0.024917 0.057799 -0.052051 0.041745 0.032852
butter -0.027262 -0.053538 0.059381 0.071809 0.160749 -0.013420 0.067762 0.055216 0.065616 0.031520 0.112690 -0.178900 -0.115868 0.120493 -0.117125 0.126232 0.027820 0.058840 -0.043713 0.144885 -0.088958 0.024209 -0.083137 0.080839 -0.055060 0.066303 -0.062544 0.030403 -0.097082 -0.034242 0.045701 0.041903 -0.006018 -0.009049 -0.096222 0.161487 0.102059 0.084985 -0.053150 -0.031003 0.076992 -0.096264 0.116702 0.031866 0.047071 0.236472 0.054283 0.055729 0.234811 0.010499 -0.056275 -0.142255 -0.016246 0.058023 -0.072940 0.077780 -0.044775 -0.031982 0.037746 0.067910 0.007253 -0.099250 0.049287 -0.043801 0.007625 0.073163 0.195048 -0.083577 -0.085336 0.072950 0.015852 -0.005275 -0.105636 0.079421 -0.046131 0.059665 0.025940 -0.006733 0.026047 -0.037137 -0.012137 -0.166350 -0.272409 -0.024193 -0.160835 -0.076874 0.061633 0.061771 0.152960 -0.003826 0.010730 -0.124976 -0.110958 0.011982 -0.067292 0.195058 0.089448 0.016507 0.032499 -0.032242 0.116870 0.004053 0.136839 -0.018191 -0.036537 0.095991 -0.073595 0.170403 0.028993 0.072910 0.009998 0.100425 -0.041600 0.089930 0.062395 -0.032036 -0.015513 0.107319 0.031825 0.008918 0.047313 0.104511 -0.009474 -0.065053 0.004921 -0.005104 -0.070446 -0.151112
cabbage 0.050727 0.048949 0.011172 -0.011845 0.233466 0.084255 -0.020360 -0.059074 -0.014826 -0.070071 -0.030202 -0.147400 -0.032907 0.118711 -0.044054 0.133267 0.109737 -0.063385 0.020804 0.155166 -0.092575 -0.118123 -0.127904 0.088568 0.009435 0.064193 0.105907 -0.068815 -0.070271 -0.022017 0.084697 -0.005212 -0.104498 0.060933 -0.065835 0.150587 0.058836 0.020562 0.016124 -0.168260 0.192827 -0.099514 0.050014 0.059994 0.079452 0.141846 -0.007174 -0.018299 0.206556 -0.043553 0.051985 -0.039201 -0.037298 0.005535 -0.002042 0.201344 0.048183 0.162304 -0.043454 0.075660 -0.049189 0.032231 0.034808 -0.121585 -0.077963 0.091188 0.089697 -0.026696 0.045094 0.087944 0.053232 -0.014528 0.073042 -0.024011 -0.074705 -0.026100 -0.015417 -0.053912 -0.038173 0.054437 0.025416 -0.023948 -0.345225 0.051005 -0.022043 -0.225363 0.058365 -0.037029 0.119694 -0.010845 -0.099755 -0.022453 -0.155186 0.083779 -0.074709 0.142055 0.083610 -0.022843 0.000287 -0.068688 -0.007068 0.042666 -0.037220 -0.066266 0.034809 0.035027 -0.119684 -0.011073 -0.105420 0.016399 0.025255 0.034619 -0.039804 0.043585 0.052324 -0.049713 0.025495 0.069607 -0.041462 -0.020864 0.066771 -0.102531 0.058083 0.016672 -0.043840 -0.077201 -0.102953 -0.161192
calculation 0.069942 -0.112435 -0.011029 0.041518 0.059847 -0.149848 -0.032480 0.077020 0.116679 0.072314 -0.016076 -0.025070 0.051422 -0.046456 -0.040186 0.007422 0.090397 0.075003 -0.045850 0.179516 -0.009850 0.042775 0.014492 -0.096144 -0.078198 -0.186019 0.128823 0.181994 0.004908 0.083584 0.036141 -0.082323 -0.081859 0.108027 0.049992 -0.032102 0.051468 0.110861 0.133571 0.057399 0.014953 0.161192 -0.007289 0.054535 0.063704 0.088386 0.102283 -0.077845 -0.052956 0.054476 0.034810 -0.228000 0.050818 0.002124 0.086044 -0.088613 -0.023337 -0.008176 -0.100878 -0.008358 -0.043773 0.135399 0.031108 -0.036551 0.012960 -0.036384 0.096594 -0.070898 -0.132485 -0.056937 0.113812 0.058469 0.041003 -0.056481 -0.098772 0.031444 -0.258504 -0.074056 -0.063226 -0.065815 0.130122 0.036261 0.150476 -0.125532 -0.065627 0.084328 0.073670 -0.032377 0.054113 0.058766 0.004965 -0.196916 0.000080 -0.019020 0.074674 0.004109 0.077532 0.044912 -0.016643 0.040481 0.044974 -0.119624 -0.036613 0.134620 -0.113825 0.077775 -0.013970 -0.037410 0.047911 0.061847 0.076118 -0.111673 0.071456 0.091140 -0.120951 -0.015749 0.102480 0.020374 0.187212 -0.119293 -0.138396 0.093888 -0.128445 0.096217 0.082265 0.013715 0.103710 0.070325
canyon -0.083641 0.100616 0.100212 0.025967 0.108792 0.073312 -0.078810 -0.000701 0.094876 -0.073383 -0.150644 -0.001227 -0.153191 0.102914 0.022326 0.085010 0.033600 -0.011056 0.102412 0.045204 0.106725 0.106923 -0.043718 -0.042389 -0.043647 -0.035810 -0.007310 0.020948 -0.036208 0.009807 -0.081856 0.040273 0.001879 0.131203 0.097220 -0.051078 -0.106320 0.049800 -0.028391 -0.025296 0.069476 0.034915 0.141334 0.027533 0.070282 -0.001653 -0.122525 0.084952 -0.101983 -0.143417 -0.001557 -0.038968 -0.017451 0.020835 -0.086238 0.107155 0.002863 -0.084227 0.105241 -0.046497 -0.192775 -0.072704 0.002263 0.026594 0.006344 0.028741 -0.153040 -0.030808 -0.155804 0.044231 0.051466 0.034185 -0.052856 -0.027849 -0.000731 0.005308 0.036078 -0.001997 -0.057870 0.188732 0.036429 0.044694 -0.130970 0.187968 0.030510 0.062088 0.178709 0.095809 0.132092 0.116212 0.053784 -0.008534 0.015428 0.000487 -0.054326 0.095972 0.025308 0.046244 -0.045346 -0.134523 -0.139311 -0.050931 0.022573 0.050340 0.068400 0.012425 -0.052939 0.083526 -0.015910 -0.006869 0.006174 -0.016059 0.161540 -0.217755 0.018202 -0.021782 -0.017877 -0.105031 -0.274777 0.082135 -0.031184 -0.105816 0.055133 0.000452 0.136219 -0.147037 -0.223591 0.135562
car 0.052642 0.045340 0.067645 -0.006948 -0.079533 -0.092151 0.066227 0.048722 0.216745 -0.063611 0.065965 0.097073 0.031457 -0.000816 -0.020447 -0.210258 0.112005 -0.004506 0.145526 0.047912 0.095017 0.123867 0.196600 0.160625 0.058476 -0.106619 0.083193 -0.170278 -0.009552 0.182635 0.008343 0.020286 0.026536 0.060048 -0.090444 0.045398 -0.049707 -0.003881 -0.100303 0.049315 0.192301 0.037983 0.160120 -0.013002 0.039895 0.071359 -0.036136 -0.000453 -0.139733 -0.046994 -0.009320 -0.060113 0.005050 -0.034509 0.034754 0.099150 -0.030311 0.097669 0.048649 -0.010635 0.110713 0.084925 0.046017 -0.080308 0.026542 0.131229 0.020916 -0.126909 -0.136226 -0.008616 0.067706 -0.124502 -0.025735 0.099259 0.048222 -0.138750 0.046129 -0.076088 0.004809 -0.062132 -0.157389 -0.094734 -0.110394 -0.006484 0.018673 -0.015401 -0.043741 0.092650 0.014636 0.123788 -0.015276 0.002306 0.004141 -0.005559 -0.251143 0.128202 -0.063500 0.098860 0.117258 0.061989 -0.057919 -0.033305 -0.064680 0.107381 0.078637 -0.022025 0.009127 0.076904 -0.018008 0.024625 -0.066349 -0.037847 0.109605 -0.119862 0.122903 0.129893 -0.045197 -0.024850 -0.011704 -0.020132 -0.032048 -0.147426 0.078509 0.136410 -0.051438 -0.069013 -0.018847 0.106393
card 0.075818 -0.006285 0.070167 0.109187 0.051775 -0.001317 0.024792 0.032242 0.114220 0.015317 0.054845 -0.076221 -0.066626 0.036854 -0.018234 -0.023104 0.005427 -0.053066 0.019672 0.183345 0.133491 0.075027 0.045584 0.156515 -0.114292 -0.027959 -0.024292 0.129723 0.048395 0.043127 -0.010982 -0.005980 -0.063096 0.158536 -0.006492 0.034293 -0.100347 -0.082168 0.173791 -0.033374 -0.026882 0.232037 0.013768 0.134514 0.082797 -0.084139 0.007467 0.086661 0.002910 -0.031285 0.099086 0.023805 0.032296 0.117262 0.047168 0.115988 0.122338 0.108934 0.032197 0.069679 0.195240 0.032170 -0.004592 -0.087656 0.053520 -0.057019 0.029872 0.005384 0.000329 0.090725 -0.002793 0.038776 0.131894 -0.047257 -0.038947 -0.026989 -0.058096 0.049034 0.000714 -0.121770 0.070731 -0.076341 -0.015122 0.001635 -0.045885 0.004385 -0.076236 0.166308 -0.017494 -0.047225 -0.067161 -0.019283 -0.070013 0.055970 -0.098442 0.069957 -0.044072 0.220528 -0.046646 0.034230 0.098203 0.090561 0.227829 0.019619 -0.101590 0.012258 0.025783 0.059483 -0.150042 -0.010609 0.035453 0.054046 -0.012828 0.042091 0.028244 0.021774 -0.189938 0.035939 -0.034382 -0.030859 -0.205289 -0.068842 0.002294 0.155028 -0.075566 0.027335 0.253455 0.204226
carnivore 0.080852 0.038099 0.178198 -0.122818 0.307913 0.061889 -0.128738 -0.014999 -0.080429 -0.064870 -0.223603 0.015549 -0.091905 0.103431 -0.113567 -0.021430 0.013878 -0.055189 -0.056308 0.049393 0.020499 -0.015054 -0.068493 -0.034545 -0.026772 0.085475 -0.096450 -0.003006 0.109395 0.128001 0.075957 -0.149287 0.000499 0.122232 -0.002229 0.036350 -0.108488 -0.022707 -0.047543 -0.137064 -0.009306 -0.051016 -0.006346 -0.031326 0.042338 -0.004689 -0.063001 0.114535 0.056773 0.106583 0.067537 -0.049511 0.020661 -0.090466 0.180098 0.006763 0.047281 0.022356 -0.029808 0.167007 -0.033142 -0.114228 -0.017778 0.101755 0.042344 0.052744 0.110925 -0.109166 0.176298 0.076240 -0.021064 0.148064 0.023670 -0.038173 -0.097986 0.083849 0.061480 0.023797 -0.060564 0.129744 -0.005931 0.004184 0.045899 0.076713 0.102991 -0.127052 0.110508 -0.124754 0.078054 -0.048825 -0.061705 -0.084596 -0.010642 0.063162 -0.135526 0.088342 0.157866 -0.116563 0.082911 0.015147 -0.017551 0.029400 -0.048337 -0.086587 0.091996 0.019106 -0.047888 -0.030734 -0.013149 -0.035311 0.002922 -0.132600 -0.009184 -0.006968 -0.004461 0.016838 0.036549 0.036355 -0.002489 -0.046875 0.014658 -0.149696 -0.031356 -0.283873 -0.087884 -0.020480 -0.082358 -0.003833
cash -0.013793 -0.072011 -0.039462 0.028797 -0.099344 -0.171961 -0.003445 0.185410 0.165165 0.090498 0.087743 -0.049785 -0.009083 0.031285 0.089225 -0.150075 -0.028347 0.081110 0.084693 0.014377 -0.055288 0.001632 -0.152035 0.176061 -0.055229 0.029392 0.139922 0.220560 -0.131352 -0.167309 -0.044068 0.101027 -0.015736 0.077935 -0.122760 0.002469 -0.020157 -0.035191 -0.047718 0.004504 0.050792 -0.057039 -0.063147 0.087355 0.112004 -0.006506 -0.073576 -0.022406 -0.103919 0.047376 0.004828 -0.068151 0.257902 0.081338 0.166933 -0.000511 0.117986 -0.092105 -0.123589 -0.015116 0.020219 0.018878 0.085840 -0.041814 -0.054362 0.014804 -0.049628 -0.111449 -0.095761 0.003314 -0.097019 -0.081213 -0.091646 -0.020387 -0.057914 0.066133 -0.064782 -0.173677 0.098089 -0.100604 -0.014137 0.020542 0.000098 -0.032614 -0.090368 -0.009811 -0.098065 -0.082719 0.112356 0.016447 0.029914 -0.009133 -0.020169 -0.077245 -0.066971 0.051945 0.033925 0.179241 0.008599 -0.131504 0.049126 -0.011673 -0.139842 0.017255 0.001432 0.080416 0.002469 0.110143 -0.080602 0.075301 0.011865 -0.048936 0.115761 0.059360 -0.055740 0.055011 -0.069280 0.050726 0.019849 0.027964 -0.220116 -0.024964 0.049653 0.100410 -0.151389 0.073889 0.091693 0.088652
cat 0.046196 0.048535 0.181120 -0.028506 0.182193 -0.004367 -0.063495 -0.157805 -0.018998 -0.151575 -0.131499 0.014707 0.019438 0.004541 0.009354 -0.060984 0.163359 -0.037447 0.039328 -0.033234 0.041839 -0.012762 0.007682 0.062547 0.045090 0.049280 0.110289 -0.150458 0.114557 -0.005847 -0.029017 -0.147938 0.001003 0.142819 -0.106895 0.059755 -0.019061 -0.049998 0.020725 -0.050771 0.084556 0.039572 0.082997 -0.005214 0.069545 -0.031961 -0.068137 0.005436 0.058770 0.078611 0.000491 0.006129 0.010021 0.115704 -0.035682 0.204699 0.011492 0.105180 -0.118734 0.097925 0.171309 -0.058273 -0.000737 0.001240 0.082665 0.113012 0.000277 -0.145511 0.075566 0.009643 0.061350 0.053762 -0.018934 -0.057100 -0.077988 0.061373 0.072589 0.046754 -0.056039 0.091284 0.017014 0.024461 -0.108491 0.148802 0.059803 -0.047400 0.095717 -0.015111 0.091476 -0.007301 -0.157949 -0.095528 -0.323830 0.054921 -0.187457 0.016062 0.067517 -0.015333 0.241708 -0.006496 -0.050032 0.079026 0.006846 -0.060927 0.010224 0.007537 -0.120100 0.053513 -0.111236 -0.051396 -0.066994 -0.058898 0.032134 0.153150 0.039835 -0.026613 -0.050750 0.119028 -0.015206 -0.115126 0.063759 -0.055344 -0.034915 -0.142761 -0.128018 -0.024531 -0.019544 -0.028581
category -0.027387 0.080502 -0.125832 0.102851 0.042384 -0.031431 -0.021165 0.220398 -0.073416 -0.076054 -0.105779 0.052714 -0.052987 -0.062226 -0.039686 -0.052600 0.058440 0.019723 -0.072424 0.078405 0.038820 -0.016854 0.010892 -0.076423 -0.024520 -0.041645 0.070575 -0.088702 -0.020951 0.064683 0.093378 0.032241 0.039044 0.097481 0.153511 0.058833 -0.109108 0.048207 0.116786 0.024380 -0.084600 -0.014525 0.083260 0.145081 -0.008990 -0.151228 0.081864 -0.109367 0.110978 0.220531 -0.030359 -0.034266 0.028729 -0.201385 0.087079 -0.103418 0.021350 0.123747 -0.070757 0.009147 -0.014979 -0.024401 -0.106938 0.008075 0.123300 0.141207 -0.120760 0.052876 -0.140199 -0.045031 0.155280 0.098657 -0.199291 -0.020591 0.107875 0.068602 -0.099760 -0.000002 -0.012372 0.201786 0.143261 -0.099644 -0.056669 0.116538 0.052707 -0.033849 0.015336 0.044829 -0.025156 0.114922 0.059903 -0.096495 -0.008108 -0.067480 0.000410 -0.038759 0.115706 -0.015924 0.012777 0.069438 0.116810 0.156856 -0.029127 -0.089900 0.021816 0.090411 0.111656 0.075924 0.050174 0.013726 0.057154 -0.060405 0.058813 -0.075002 0.019988 -0.029049 -0.016747 0.070150 0.028099 -0.123734 -0.049561 0.107982 -0.079699 -0.171562 0.019883 -0.060020 0.149795 0.120843
cell 0.140752 -0.042067 -0.037929 0.000142 0.146177 -0.020954 0.089005 0.000654 0.071693 0.051641 0.118033 0.071645 -0.042494 -0.151354 0.112881 0.000336 -0.004674 0.026807 -0.019246 -0.073830 0.040159 -0.097891 0.114028 -0.049138 -0.144207 -0.043648 -0.021929 -0.209793 0.014713 0.038230 0.033266 0.065165 0.089684 -0.081819 -0.052475 0.117061 -0.007248 0.212224 -0.069427 0.008551 0.032201 0.074131 0.075003 0.146742 -0.086169 -0.159194 -0.132571 0.027006 0.185189 0.054704 0.095430 0.032695 0.023888 -0.031827 0.083714 -0.090340 -0.037752 -0.010609 0.044187 -0.085939 0.157584 -0.051641 -0.005576 0.044316 0.030164 0.005342 -0.030248 0.008235 0.101801 0.048311 0.157096 -0.254269 0.066730 -0.053171 0.018272 -0.065827 -0.078718 0.098367 0.033343 0.012155 -0.015831 -0.050140 -0.046716 0.041689 0.045887 -0.102930 -0.003551 -0.154999 0.049733 0.030150 -0.048561 0.017389 -0.066984 -0.028562 0.091775 0.097782 0.009892 0.025845 0.129443 0.076443 -0.194035 -0.077307 0.134328 0.137952 0.060943 0.024928 0.037680 0.143087 0.105129 0.003649 0.035335 -0.101209 -0.009395 0.124953 -0.037346 0.088375 0.159610 0.084559 0.041851 -0.118648 0.008013 -0.015145 0.075680 0.138266 -0.187924 -0.076947 0.021783 0.078426
cemetery 0.059177 -0.072065 -0.159739 -0.030534 0.136132 -0.000502 -0.093746 -0.168479 -0.077177 -0.045369 -0.168712 -0.058308 -0.019651 -0.037760 0.037418 0.186281 -0.003235 -0.077776 0.146943 0.008371 -0.020250 0.080900 0.003085 -0.090800 -0.053870 0.130809 -0.036237 -0.130327 -0.020203 0.035611 -0.087611 0.014910 -0.041706 0.085919 -0.011967 -0.030087 0.020739 -0.161877 -0.104440 -0.022678 0.063838 -0.078209 0.067326 0.025610 -0.045283 0.173353 -0.051961 0.070970 -0.036320 -0.095881 -0.074339 -0.044644 -0.056393 0.014764 -0.101812 -0.040239 0.170852 0.076399 0.041513 0.009910 0.083006 0.025174 -0.021334 0.209259 -0.017623 0.203547 -0.063486 -0.037297 -0.028271 -0.269598 0.016293 0.024638 0.007734 -0.014704 -0.208537 -0.098416 0.068411 -0.054630 0.111402 -0.068484 0.128053 0.061245 -0.036196 -0.029421 0.164188 0.072977 0.066768 0.047454 -0.013627 0.000652 0.069088 -0.025357 0.042652 -0.041652 -0.012991 -0.068998 -0.098269 -0.050263 -0.079817 -0.062745 -0.008484 -0.098548 0.044806 0.004439 0.073525 -0.125339 -0.011700 -0.045991 -0.041103 -0.029037 -0.015005 -0.100235 0.005528 -0.101718 0.126269 0.098920 -0.074524 -0.133032 -0.136303 -0.008761 0.125145 0.026127 -0.004433 0.022590 0.084943 -0.243829 0.006708 0.088637
center 0.141310 0.040842 -0.055577 0.132806 0.169202 0.107790 0.084762 -0.068994 -0.171400 -0.010102 0.064117 0.007381 -0.068959 -0.062832 0.019148 -0.044716 0.167186 0.086920 -0.046403 -0.024463 0.024405 0.043371 -0.017429 -0.165961 0.016803 0.001001 -0.062677 -0.229671 0.093378 -0.116665 0.065259 -0.017943 0.191267 -0.056501 -0.064575 -0.087844 -0.164518 0.058339 0.094912 0.021125 -0.011578 -0.073621 -0.013628 -0.011067 0.057475 0.010622 0.071710 -0.007486 -0.026678 0.048818 -0.033079 -0.082354 -0.083916 -0.041397 -0.146448 -0.074510 0.116817 0.099866 0.157267 0.089336 0.092074 0.047338 0.023646 0.018100 0.013180 0.057388 -0.072391 0.093503 0.016097 -0.088291 -0.051415 -0.032601 -0.041619 -0.014280 -0.023513 -0.088323 0.131815 0.071538 0.025479 -0.027785 0.148304 0.019146 -0.008832 0.112600 0.140358 0.129412 -0.022948 -0.037485 0.037441 0.023012 0.076200 0.027798 0.054881 -0.010721 -0.033758 -0.075384 -0.103519 0.146814 -0.239919 -0.072790 -0.143252 0.079977 0.040582 0.007207 -0.034903 -0.057971 -0.069822 -0.008278 0.076484 0.117507 0.058364 -0.082547 0.028003 0.031044 -0.136403 0.198753 -0.005111 -0.017854 -0.126952 -0.079339 0.082944 0.110487 0.073970 -0.123204 0.111327 -0.047175 -0.129053 0.124122
century 0.070821 0.063105 0.070169 0.033392 0.046778 -0.149406 -0.036774 -0.048261 -0.190768 -0.138238 -0.037103 -0.027345 -0.111687 0.002689 -0.016144 -0.113148 -0.194948 0.129830 0.125411 0.089392 -0.020960 -0.217105 0.032970 0.002225 -0.124433 -0.011906 -0.017750 0.067062 -0.047966 0.180306 -0.066569 -0.111019 0.193214 -0.017217 0.108189 0.101652 0.080339 -0.047186 0.125463 -0.101030 0.122667 0.040573 0.068728 -0.011754 -0.074714 0.077967 0.084287 0.064618 -0.125114 0.255963 -0.039190 0.065900 0.073729 -0.008311 0.026893 0.028204 -0.004865 -0.050526 0.060392 -0.074296 0.032623 0.098427 -0.049403 -0.019285 -0.085967 -0.001919 0.118117 -0.122936 -0.010773 -0.007506 -0.013043 -0.062452 -0.087308 -0.071785 0.036326 0.082669 -0.148325 0.031047 0.085830 0.031933 0.053493 -0.020123 -0.001250 -0.052125 0.061253 0.061389 0.102659 0.060757 -0.080248 -0.051562 -0.016146 0.088063 0.058699 0.045801 0.138024 -0.030760 0.067526 -0.077429 -0.042422 0.080324 -0.175594 -0.106591 0.036572 -0.091977 0.008069 -0.001908 0.028104 0.051653 -0.010733 0.122925 0.031266 -0.114728 -0.049635 -0.084951 0.044432 -0.016867 -0.019609 0.145234 0.033388 0.070226 0.192463 0.059143 -0.028870 -0.032942 0.231950 -0.102885 0.026252 -0.046024
challenge -0.054284 0.002211 -0.133536 -0.091728 -0.000908 0.159029 -0.081644 0.156807 -0.053693 0.103453 0.178538 0.065429 -0.114952 -0.103339 -0.022699 -0.012903 -0.048876 -0.094946 -0.215263 -0.059384 -0.113755 0.010249 -0.075926 0.051091 -0.027252 -0.120519 -0.038115 0.066904 0.033034 -0.064318 -0.045227 -0.094912 0.040512 -0.024025 0.034866 0.010124 -0.122825 0.057507 0.008820 -0.040869 -0.057230 0.010735 0.052639 -0.087337 0.014795 -0.018277 -0.041749 -0.065851 -0.107059 -0.016613 -0.142334 0.004526 -0.052341 -0.053998 0.129448 0.162061 -0.008229 0.079580 0.027952 -0.006812 -0.049288 0.042660 0.109293 0.063576 -0.064862 -0.056007 -0.142795 -0.002732 0.060357 0.028373 -0.066354 0.171063 0.014699 0.088123 0.087897 -0.059796 -0.062580 0.136456 -0.050972 0.032986 -0.026005 0.038361 0.255822 0.073380 0.077042 -0.188866 -0.006286 0.057426 -0.255179 -0.002935 0.045978 -0.064905 0.033010 0.034891 0.035019 0.145560 -0.064391 -0.078357 -0.001122 0.068414 0.118443 0.048488 0.033638 -0.157223 -0.059018 0.018368 -0.083650 -0.056894 -0.049306 0.022900 -0.115383 0.150364 0.128218 0.002314 -0.124996 -0.130170 -0.011900 0.051266 0.060347 0.041426 0.210255 -0.055560 0.029270 0.124802 -0.036252 0.034480 0.057352 0.072612
championship 0.014667 -0.111667 -0.060275 -0.124899 0.066876 0.111356 0.074775 -0.041398 -0.018966 0.048072 -0.089512 -0.013917 0.036676 0.061021 -0.120485 -0.051148 -0.090187 -0.021496 0.049997 0.055357 -0.003152 0.064165 -0.022837 0.166986 -0.113630 -0.184310 0.065005 0.013765 -0.084442 -0.097882 -0.024614 -0.051751 -0.048787 -0.003704 0.048803 -0.008748 0.066046 -0.012253 0.021770 0.072752 -0.034214 0.106575 -0.051319 -0.067240 0.170368 -0.015035 -0.148430 -0.008528 -0.000578 0.111181 -0.059602 -0.130960 -0.166891 -0.005439 -0.002295 0.095996 0.051380 0.083366 0.108971 0.066897 0.141606 -0.140089 -0.089653 -0.065497 0.047197 0.085810 -0.154739 0.126151 0.073236 0.247507 -0.028716 0.098111 -0.098557 0.027794 0.154726 0.086550 0.042942 0.008176 -0.006145 -0.033002 0.113702 -0.119729 0.080157 -0.030712 -0.003909 0.022379 -0.058211 0.132467 -0.060412 0.059589 -0.023063 -0.052368 0.089359 -0.007768 0.038639 0.119597 -0.095277 0.047518 -0.030755 0.079479 -0.065269 0.119663 0.088920 -0.096305 0.056796 0.015745 0.002442 0.044780 0.000799 0.194356 -0.207561 0.091953 0.014203 -0.045849 0.160805 0.037242 -0.124498 -0.122116 -0.111956 0.068014 0.105319 -0.022038 -0.031578 -0.018326 0.095288 -0.199990 0.046942 0.078832
chance -0.049473 0.039872 -0.138262 -0.108480 -0.115636 0.072759 -0.007771 0.138655 -0.017114 -0.041605 -0.036082 0.015528 0.036855 -0.118489 0.123173 -0.108334 -0.152265 0.058779 -0.051704 0.040192 -0.099731 0.107295 -0.011765 0.043631 -0.062287 0.040233 0.064238 0.133766 0.061943 -0.001607 0.040693 -0.056110 -0.084486 0.089777 0.035883 -0.045622 0.052849 0.129443 -0.018023 -0.026924 0.053108 -0.076762 -0.099551 -0.031361 -0.018405 0.056900 -0.049091 0.096535 0.085028 0.015741 0.034753 -0.081263 -0.096807 -0.001610 0.035402 0.050693 0.164658 -0.026143 0.041607 -0.133235 0.057638 0.086439 -0.020320 -0.039459 0.148211 0.221045 -0.136844 -0.059140 0.112829 0.134610 0.031431 0.048340 -0.030848 0.140525 0.214720 -0.045227 0.052419 -0.075518 -0.083094 -0.011596 -0.026687 -0.089163 0.070721 -0.026447 -0.132756 -0.130604 0.100291 0.034407 -0.166366 -0.053004 0.095511 0.144190 -0.034188 0.143542 -0.054417 -0.029100 0.003534 -0.039832 0.130297 -0.017608 0.062815 0.265224 0.016052 -0.000404 0.040031 0.197097 -0.145090 0.056423 -0.081746 0.120515 0.073179 0.077184 0.112491 0.049366 -0.025121 0.033484 -0.141381 -0.020145 0.046365 -0.011845 0.090853 0.039806 0.046758 0.121035 -0.045172 -0.066041 0.081827 0.016964
change 0.090168 -0.029264 -0.012425 0.021402 -0.019305 -0.023343 0.070682 0.029950 -0.032355 0.151526 -0.081733 -0.112724 0.060698 -0.085317 -0.077758 0.005209 -0.066654 0.019044 -0.161968 0.091459 -0.082853 -0.057083 0.051540 -0.126754 -0.105804 -0.154219 -0.073945 0.086135 0.037399 -0.022526 -0.005511 -0.167484 0.042019 -0.078628 -0.184977 0.117243 -0.005769 0.089341 -0.027287 -0.010802 -0.118466 0.066764 0.003155 -0.074170 0.028771 -0.081020 0.006249 -0.013891 -0.184943 -0.035509 -0.044883 -0.030607 -0.146811 0.033171 0.226953 0.078541 -0.124045 -0.062861 -0.093360 -0.040822 -0.129851 0.082692 0.048473 -0.120459 -0.033939 -0.066110 0.075872 0.003289 0.097818 -0.048443 0.108266 0.071130 0.034798 0.105660 0.177689 0.157707 -0.003833 0.069553 -0.075836 -0.082217 0.114552 0.063628 0.090518 0.045746 -0.007489 -0.108067 -0.034548 -0.004431 0.077580 -0.152318 0.054250 0.010314 0.029482 -0.149396 0.069023 0.132284 -0.032676 -0.044228 0.022005 -0.078317 -0.075734 -0.072693 -0.016180 -0.109918 -0.074610 -0.063203 -0.185081 -0.123820 0.034418 -0.064988 0.051512 0.040141 0.053992 0.014547 -0.180129 -0.104604 0.151610 0.078503 0.108701 0.005200 0.039567 -0.140937 -0.057151 0.075238 0.024924 0.101784 0.127945 -0.016858
chemistry -0.027798 0.126609 0.063724 -0.014457 0.090033 -0.045823 0.090357 -0.037685 0.053382 0.103065 -0.095575 0.050042 0.063130 -0.088868 -0.066874 0.135646 0.149410 0.023716 -0.104963 0.027898 -0.144905 0.031301 -0.142397 -0.065919 0.071712 -0.196532 -0.037498 -0.070517 -0.089925 -0.069734 -0.052663 -0.026839 0.019875 0.055785 0.072257 0.004902 0.239320 0.022787 0.083971 -0.052881 0.043876 -0.040014 0.131544 0.108806 0.064883 0.001670 -0.073827 -0.030721 0.059204 0.070009 -0.081829 0.054043 -0.168022 -0.009884 0.132573 -0.088795 0.136997 0.005133 0.044939 -0.041965 0.041653 -0.005731 0.054063 0.003408 -0.004930 0.042502 0.040450 -0.126797 0.041802 -0.032618 0.125192 -0.124406 0.089816 -0.068171 0.032401 0.079415 -0.123714 0.118910 0.057295 -0.088399 0.058838 0.046959 -0.004291 0.065691 0.174189 0.059074 0.002467 0.066915 0.048332 0.056552 -0.118613 -0.162596 -0.057699 -0.015593 0.155957 0.004066 0.079066 -0.044608 -0.055473 0.129762 -0.053309 0.074063 -0.009578 0.064885 -0.022701 0.162167 0.107218 0.100415 0.186752 -0.073250 -0.010883 0.056275 0.017481 0.200455 0.001100 0.038135 0.204898 0.030057 -0.042625 -0.097926 0.001850 0.080110 -0.104891 -0.055497 0.140007 0.004272 -0.046206 0.158297
