436 128
American -0.063558 -0.103576 0.087839 -0.094601 0.037229 0.006476 -0.106698 0.116031 0.051555 0.088935 -0.113181 0.013006 0.170049 0.080340 0.260114 0.029675 -0.017068 0.155761 0.107035 -0.081099 0.027279 -0.088250 -0.184686 -0.114855 -0.052409 0.261709 -0.040311 0.082918 0.025734 0.205232 -0.028181 0.013259 -0.048251 -0.151263 -0.016742 0.102200 -0.044863 0.036296 -0.040800 0.078519 -0.037973 0.011233 -0.075627 0.158972 0.099478 0.035499 -0.066261 0.048474 0.017006 -0.028829 0.055087 -0.078252 -0.110985 -0.049026 0.068634 -0.067863 0.004453 -0.078078 0.032815 0.143339 -0.020231 -0.142002 -0.063909 -0.071277 0.067045 -0.046549 0.061864 0.080988 0.082029 0.048603 0.129526 0.029135 0.074680 0.068369 0.126250 -0.025673 -0.116544 -0.044087 0.021559 0.067404 -0.024257 0.135076 -0.001161 0.028954 0.007812 0.110137 0.038645 0.002211 0.061194 -0.069840 0.034055 -0.104408 0.175865 -0.025468 -0.022981 0.061378 0.026646 0.005209 0.144198 -0.005906 0.045001 -0.114630 -0.043489 -0.038401 0.103510 0.111374 0.040134 -0.183281 -0.055186 -0.001409 -0.022788 0.047198 0.015607 -0.103098 0.076498 0.100806 0.073382 0.126172 0.083285 0.082277 -0.024745 0.019408 0.155423 -0.019559 -0.161265 0.063184 -0.028381 -0.008550
Arafat -0.028648 0.089960 0.001184 -0.083856 0.009652 -0.093214 0.043821 0.010306 -0.013186 -0.021598 0.119213 0.022445 -0.047388 0.166983 0.086716 -0.027442 -0.020806 0.061435 -0.102298 -0.161953 0.091251 0.012830 -0.164992 0.045536 0.001364 -0.007454 -0.086055 -0.054893 0.166037 0.073364 -0.045106 0.122139 0.067386 -0.026328 -0.026681 0.089678 0.018853 0.085830 0.030654 -0.118619 -0.052873 -0.098268 0.029710 -0.053727 0.187906 0.021681 0.062977 0.119789 0.056296 0.045043 -0.051537 0.080550 -0.010428 -0.045640 0.103438 -0.090731 -0.067878 -0.035120 -0.030566 -0.158394 -0.069993 -0.027528 -0.018059 0.046476 0.101753 -0.006512 0.117792 -0.090330 0.097353 -0.097126 -0.064778 -0.047021 0.323342 0.009086 0.034198 -0.169736 -0.003264 0.082397 0.010149 -0.052659 -0.022669 0.067711 -0.111859 -0.024870 -0.045764 -0.019217 0.011386 0.085277 -0.120383 0.037800 0.127780 0.131756 -0.079715 0.073667 -0.093109 0.180056 0.099091 0.055136 0.097739 0.137078 -0.079738 0.127346 0.049438 0.115753 -0.054816 0.060755 -0.041728 -0.067622 0.064740 -0.131274 -0.024088 0.058940 -0.096018 0.003423 -0.133463 -0.181831 -0.111935 0.129524 0.056257 0.056993 -0.117063 -0.071738 -0.072092 -0.077785 -0.118802 0.068042 -0.048077 -0.014613
Brazil -0.082622 0.044899 -0.070910 -0.167316 -0.126180 0.002811 0.116463 -0.008684 0.032105 -0.000720 -0.097935 -0.165232 0.141219 -0.120178 0.175438 0.069676 -0.059616 0.124653 -0.003612 -0.024868 0.213727 0.115384 -0.004893 0.066901 0.068201 0.072530 0.006236 0.082634 0.051639 0.180512 0.027158 -0.042644 -0.025798 -0.166269 -0.075156 -0.085107 -0.057611 0.054786 -0.105965 0.025674 0.022044 -0.107526 0.005551 0.219467 0.043274 -0.117464 0.007320 0.057693 0.062210 0.083238 -0.030424 -0.122128 0.158067 -0.110667 -0.073478 -0.040986 -0.049202 -0.116426 0.094553 0.020037 0.092728 0.137099 -0.006123 -0.088441 0.097227 -0.035659 0.037812 0.027548 -0.003703 -0.051440 0.038396 0.015428 0.070034 -0.038621 -0.016986 -0.016176 -0.167765 0.008354 0.018220 -0.126760 -0.094065 0.063612 0.062167 0.161437 0.106654 -0.017735 -0.040898 0.032549 -0.077425 0.060439 0.074374 -0.045864 0.038516 -0.085046 -0.116199 -0.014066 0.007994 0.056040 0.073000 0.047314 -0.061325 -0.074486 -0.037683 0.024917 0.151676 0.019145 -0.029173 0.071229 -0.176342 -0.060610 -0.107349 -0.054971 0.008490 -0.101624 -0.133377 0.005635 -0.136646 0.110553 -0.016956 -0.072494 -0.086450 0.063814 0.195686 0.131372 -0.070334 0.024370 -0.093354 -0.007627
CD -0.019906 0.091051 0.104766 -0.023444 -0.059829 -0.057354 0.065739 0.035107 0.071991 0.028143 -0.094077 0.030324 0.150391 0.136755 -0.075792 -0.078154 0.121386 0.208393 -0.017999 0.145027 0.044850 -0.079310 -0.093371 -0.217577 0.116501 0.039563 0.003538 0.000034 0.026230 0.060336 -0.010023 -0.072605 0.095042 0.004859 -0.057022 -0.008220 0.004419 -0.101641 -0.067376 0.168695 0.094922 0.003614 0.040173 0.057462 0.105060 0.011436 0.093876 -0.012498 0.097951 -0.079759 -0.242915 -0.008770 -0.052892 -0.075653 -0.005340 0.073900 0.207818 -0.076385 0.040141 0.046811 -0.039140 0.021178 0.000648 0.012955 0.094729 0.035711 0.133616 -0.017047 -0.111254 0.106672 0.022140 -0.072787 0.051591 -0.065960 -0.025175 -0.027361 -0.102425 -0.107386 0.031852 0.060405 -0.042397 -0.036094 -0.085966 0.031027 0.016153 0.122913 -0.248241 0.064829 -0.077564 0.088090 0.057505 -0.001886 -0.047919 0.056623 -0.027417 0.062565 0.177204 -0.031401 0.039525 0.102657 0.145018 0.024723 -0.174519 0.120523 0.003571 0.013711 -0.153366 -0.129235 0.094860 0.071934 0.095833 0.004163 0.090601 -0.097948 -0.079798 -0.058946 -0.077689 0.006931 0.162348 0.107702 -0.031609 -0.035808 0.004367 0.034839 -0.107778 -0.001510 0.133799 -0.057832
FBI -0.097607 -0.090045 0.098299 0.124899 -0.073457 -0.095550 0.037395 0.104979 -0.146154 -0.044955 -0.128771 -0.028609 0.050854 0.045926 -0.137061 0.008987 -0.027574 0.279860 -0.039625 -0.214212 0.164227 -0.067879 -0.050959 -0.164455 0.025897 0.202376 -0.052423 0.067111 0.077918 0.013002 0.004760 0.018703 0.088232 0.063882 -0.161526 -0.005264 -0.032103 0.025368 -0.022691 0.039271 -0.122383 0.123107 0.048988 0.281900 0.041604 -0.031534 -0.073768 0.124639 0.106403 -0.111423 0.082763 -0.009620 -0.027844 0.159345 -0.110304 -0.092746 0.014771 0.109530 0.080186 -0.042638 0.076087 0.000956 0.017785 0.038161 0.106566 0.000636 0.129482 0.010382 -0.004757 -0.085431 0.022397 0.100139 0.001904 0.109437 -0.027871 -0.004739 0.043957 -0.084322 0.057037 0.109521 0.106661 0.039282 -0.047169 -0.105450 0.056028 0.071757 -0.045105 0.056415 -0.077406 -0.134123 -0.025148 -0.023623 0.003548 0.084305 -0.061114 0.055316 0.002045 -0.059589 -0.007586 0.022323 0.032633 -0.209510 -0.184093 0.005211 -0.048527 0.079401 -0.112056 -0.007249 0.017225 -0.010113 -0.034591 -0.008777 -0.034776 -0.046011 -0.007171 -0.007585 0.010222 0.104659 0.079586 0.001580 0.068289 -0.060640 -0.063852 -0.170302 -0.043207 0.020031 -0.075901 0.035954
Freud -0.052877 -0.021582 0.081295 0.163364 0.144474 -0.021172 -0.020901 -0.134169 -0.058456 -0.030820 0.003083 0.025406 0.007872 0.109298 0.022879 0.129270 0.075293 0.054402 0.048138 -0.017890 0.093664 0.009970 0.012413 0.024808 -0.089989 -0.003471 -0.003699 -0.112033 0.050290 0.061103 0.019227 -0.028059 0.104089 -0.212742 0.070887 0.141283 -0.032765 -0.078717 -0.084628 0.136978 -0.095683 -0.081739 -0.183629 0.026708 -0.013623 0.125883 -0.047099 0.007178 0.041000 -0.049126 0.103570 -0.031926 0.042898 0.048760 -0.021211 -0.046036 0.044625 0.057098 0.236417 0.006152 0.119410 -0.069315 -0.038611 -0.148431 -0.000824 -0.053653 -0.063842 0.004625 0.018009 0.141992 0.047373 -0.133345 0.203126 0.010676 -0.038975 -0.006611 0.024339 -0.181218 0.025978 -0.050598 0.038136 -0.009798 -0.138659 -0.022265 0.032690 0.003748 0.016346 0.178631 -0.089504 0.026655 0.149556 0.021148 0.010584 -0.100379 -0.058863 0.093432 0.017548 -0.028333 -0.000486 -0.049667 0.034761 0.044833 -0.035342 0.277031 -0.033596 -0.064571 -0.096121 0.020567 0.036739 0.045179 -0.075332 -0.171371 -0.072080 0.056958 0.134484 -0.171541 -0.177799 -0.076366 0.097836 0.084191 -0.127015 -0.068596 0.047612 -0.030240 0.063873 0.078033 0.104923 -0.046842
Harvard -0.045967 -0.235716 0.030184 -0.050220 0.032649 0.027201 -0.080789 -0.057435 -0.111952 0.012646 0.129742 0.014401 0.124147 0.054874 0.053168 -0.083919 0.017117 0.086579 0.070359 -0.123401 0.185654 -0.059903 0.040286 -0.085003 -0.049318 0.106716 -0.113892 0.046510 -0.081173 0.133133 -0.036000 -0.035121 0.090956 -0.028708 -0.003210 -0.060225 -0.172539 -0.009890 0.131695 0.175073 -0.156499 0.000197 -0.095357 0.204335 0.045199 -0.022877 -0.062748 0.130324 0.055303 -0.053329 -0.005939 -0.095786 -0.091167 -0.066331 -0.042057 -0.060742 -0.031636 0.022062 0.185971 0.018132 0.136167 -0.187876 -0.113186 -0.061601 0.006046 0.009371 0.095888 -0.006873 -0.008383 -0.049906 0.177394 0.045049 0.075958 -0.011364 -0.060073 0.029412 0.054326 -0.064061 0.073969 -0.013279 0.110068 0.033612 -0.115729 -0.161426 0.001396 0.016721 -0.034001 0.036713 -0.101291 0.134316 0.055653 -0.075347 0.122946 0.125590 -0.039999 0.070289 0.042987 -0.065108 0.072256 0.035780 -0.049295 -0.091231 0.029452 0.026556 0.098459 -0.027082 0.149606 -0.070393 -0.105955 0.074674 0.102536 0.007764 -0.045789 -0.054468 0.138814 -0.002852 -0.101936 -0.021981 -0.028346 -0.091109 -0.148145 0.035649 0.139121 0.017683 -0.030776 0.172715 0.026836 -0.042072
Israel -0.140827 0.065026 0.142697 -0.061501 -0.030878 -0.002145 0.179739 0.057756 -0.097435 0.076879 0.053775 -0.008590 0.027680 -0.006906 0.073127 -0.033788 -0.045558 0.233049 -0.020864 -0.022590 0.080045 -0.079848 -0.091731 0.032793 -0.013566 0.075719 0.001217 -0.053446 0.042237 0.169679 0.086835 0.083881 0.082700 0.019788 -0.051200 0.141227 -0.096881 -0.003810 -0.116351 -0.102558 -0.065045 -0.122091 -0.002330 -0.000687 0.172113 0.033363 0.006109 0.109011 0.166648 0.079646 0.013463 0.132327 -0.045469 0.024909 0.165491 -0.148471 0.009558 -0.001069 0.001220 -0.001174 -0.100001 0.007970 0.018242 0.049859 -0.014004 -0.118520 0.090408 0.019793 0.153151 -0.063036 -0.077331 -0.033411 0.212686 -0.013229 0.002810 0.064342 0.004097 -0.010559 0.042689 -0.062147 0.014880 -0.006240 -0.079749 0.110352 -0.105252 -0.099062 -0.081199 0.092298 -0.024416 0.077666 0.181990 0.107935 0.130824 0.023455 -0.146591 -0.012623 0.022687 0.065714 0.103907 0.009882 -0.094611 0.048741 -0.023528 0.015051 -0.085471 0.202193 -0.082240 -0.125366 -0.099543 -0.009831 -0.132135 0.085150 -0.220819 0.021959 0.036046 -0.136615 -0.052906 0.101279 0.041401 0.017039 0.019463 0.030469 0.050397 -0.101663 -0.024014 -0.014196 -0.100364 0.115314
Jackson -0.014370 0.031082 -0.027576 0.034468 0.062591 -0.071852 0.136201 -0.072892 -0.001953 0.018654 -0.200502 -0.081769 -0.023621 0.074834 -0.076403 0.023263 0.023535 0.117542 -0.150426 -0.140339 -0.025616 0.035187 -0.036694 -0.061318 -0.077118 0.035897 -0.132034 0.182746 -0.013686 0.081804 -0.109178 0.063060 -0.032102 -0.038432 0.014284 0.057225 0.021872 -0.068333 -0.121992 0.114187 -0.096389 -0.029818 -0.058571 0.074877 0.126047 -0.023488 0.095024 0.230090 0.074101 -0.171879 -0.027809 -0.048074 -0.107494 0.080059 -0.080850 -0.071702 -0.015851 0.006841 0.014801 -0.042439 -0.010673 -0.148384 0.105078 -0.106086 0.080242 0.004961 -0.010711 -0.112779 -0.132960 -0.007426 -0.040957 0.007813 0.128414 -0.047066 -0.074385 -0.099885 0.014447 0.086990 0.027708 -0.092045 0.104674 0.147299 -0.029910 -0.015376 0.026173 0.153564 -0.224058 -0.057306 -0.222154 0.058263 -0.036876 0.014632 0.062388 -0.076077 -0.100924 0.088243 0.056469 -0.040490 0.002504 0.043572 0.034118 -0.079295 0.051188 0.153020 0.088259 0.086586 -0.125590 -0.107304 0.041738 0.011304 -0.014870 -0.139931 0.122736 0.042358 0.075597 -0.004879 -0.154038 -0.033647 -0.042617 0.138934 -0.046050 0.056003 -0.002673 -0.049726 -0.072531 -0.018592 0.098191 -0.170001
Japanese -0.076597 -0.074302 0.112778 0.026139 0.032339 -0.072836 -0.133786 -0.083550 0.020864 -0.096002 -0.125077 -0.009989 0.055871 0.139081 0.234394 0.033397 0.115215 0.054987 0.141473 -0.009188 0.068027 0.053987 -0.247837 -0.140057 -0.036380 0.166332 0.094029 0.064921 -0.176556 0.136415 0.118685 -0.004014 0.040752 -0.055032 0.113994 0.045104 -0.030737 0.009928 -0.052439 -0.008811 0.051432 -0.034782 -0.034850 0.142836 -0.100357 -0.033846 0.095100 -0.076634 -0.067002 -0.001833 -0.056015 0.069736 -0.058782 0.012708 -0.011282 -0.033793 -0.025154 -0.132664 0.155508 -0.000233 -0.064136 0.024721 -0.070605 -0.130502 0.196474 0.030563 -0.052904 -0.031000 0.054366 0.063953 0.089667 -0.027488 0.141130 0.074880 0.025849 0.000432 -0.161865 -0.093191 0.052373 0.047661 0.004514 -0.052753 -0.042382 0.174904 -0.105725 -0.077249 0.014419 0.064407 0.010398 0.018317 0.153476 0.073373 0.084383 -0.056270 -0.103177 0.088743 -0.030701 0.000929 0.069113 -0.023258 -0.005142 -0.000568 -0.101058 -0.076013 0.080937 0.055308 0.046551 -0.104809 -0.137534 0.006386 -0.028311 0.129947 -0.042612 -0.050846 -0.076264 0.185266 -0.038629 0.039968 0.117132 0.013669 0.037645 0.109694 0.023243 0.161875 -0.095149 -0.113736 -0.033103 -0.028535
Jerusalem -0.110343 0.082365 0.121095 -0.044717 0.061926 -0.026243 0.126387 0.014526 -0.121323 -0.061309 0.058494 0.036134 0.068851 0.053510 -0.016578 0.009552 -0.020180 0.197744 -0.011819 -0.076491 0.036294 -0.013159 -0.079568 -0.009928 0.011563 0.083114 -0.016013 0.001331 0.022890 0.191713 0.118471 0.043417 0.107579 0.010039 -0.034333 0.176718 -0.080105 -0.026170 -0.071125 -0.121205 -0.120737 -0.137344 0.007406 0.009639 0.192063 -0.023340 0.049679 0.065527 0.124992 0.064960 0.012338 0.158934 -0.003886 -0.030197 0.100971 -0.158969 -0.011364 -0.013499 0.051609 -0.048741 -0.112245 -0.037232 0.087219 0.029873 0.031160 -0.059960 -0.017963 0.069653 0.142648 -0.054850 -0.100805 -0.185768 0.247838 -0.066549 -0.002836 0.046758 0.018573 0.114553 0.124565 -0.052059 0.053528 -0.046165 -0.075086 0.134641 -0.149722 -0.098390 -0.131098 -0.013256 -0.042093 0.098634 0.095028 0.050868 0.103873 -0.031901 -0.172680 0.060099 0.047205 -0.014946 0.081661 -0.038750 -0.179963 0.071677 -0.005335 -0.013446 -0.062104 0.103972 -0.093929 -0.047943 -0.088198 0.157084 -0.128906 0.001825 -0.201217 0.009348 0.055022 -0.058266 -0.030952 -0.003024 0.028008 0.026810 -0.009895 -0.012608 -0.011854 -0.106966 -0.146389 0.014164 -0.059407 0.081255
Maradona -0.043988 -0.022255 0.020475 -0.045026 0.008384 -0.079241 0.153862 -0.062011 -0.056110 0.101363 -0.098347 -0.064703 0.026483 -0.152343 -0.014912 0.049149 -0.045405 0.161881 -0.017657 0.035386 -0.030822 -0.032752 -0.082752 -0.006005 -0.007105 -0.041280 0.073233 -0.083260 -0.016759 0.084613 0.020298 0.064123 -0.098605 -0.257004 0.034945 -0.147177 0.030050 0.046728 -0.255669 0.054836 -0.066706 -0.052290 0.008286 0.044558 0.214193 -0.113423 0.099303 0.083187 0.161798 -0.028038 -0.044818 -0.242728 0.011856 -0.148483 -0.103647 -0.030230 0.030143 -0.037726 0.052021 0.047942 0.058944 0.010716 -0.015529 -0.026616 -0.033385 0.003219 0.009230 0.042398 0.095539 -0.036279 0.050248 -0.047331 0.064067 0.153295 -0.129472 0.039170 0.010736 0.010012 -0.081880 -0.121410 -0.053992 0.029995 -0.097811 -0.108985 -0.022942 0.112813 0.024691 0.067592 -0.050152 0.027848 0.137071 0.034046 0.073319 -0.083674 -0.065478 -0.043031 -0.008019 -0.002181 -0.019465 -0.009389 -0.075513 -0.082637 -0.118451 -0.049347 0.263310 0.096640 -0.136315 0.123473 -0.124862 -0.101245 -0.139659 -0.017657 0.012292 -0.032128 -0.015138 0.059881 -0.212244 0.088983 0.101187 0.055096 -0.043028 -0.033642 -0.041587 0.071705 0.037329 -0.028141 0.109484 0.002814
Mars -0.019555 0.006776 0.094787 -0.091680 -0.105787 0.017547 0.123041 -0.222267 0.010495 -0.150905 0.027804 -0.176209 -0.035181 0.027930 0.012442 -0.127148 0.080807 0.055816 0.121566 0.027172 0.006835 -0.116826 -0.081090 0.079640 -0.042337 0.048270 -0.081833 0.026579 -0.024540 -0.003885 0.045630 -0.099405 0.087908 0.070529 0.061929 0.088051 -0.013411 0.143216 -0.138737 0.205840 -0.089808 0.138071 -0.132657 -0.023054 0.010442 -0.048318 -0.035481 -0.001070 0.001678 0.029534 0.023182 0.023481 -0.037089 -0.080876 0.086776 -0.074472 -0.068801 0.100740 0.230346 -0.039274 -0.106594 0.114745 0.006409 0.015173 -0.024882 0.000529 0.128440 0.056806 -0.026533 0.036961 0.038380 -0.025770 0.167128 0.124362 -0.106302 0.055880 0.000932 -0.030570 0.011648 -0.001442 0.177466 0.153917 0.018204 0.190535 0.008117 -0.080210 -0.087103 -0.003891 -0.138503 0.015464 0.016417 0.007199 0.177210 -0.194121 0.031420 0.028947 0.090710 -0.033140 0.033591 0.025368 0.044606 -0.142868 -0.010364 0.139237 0.023602 0.133360 -0.093719 -0.103745 -0.061776 -0.131958 -0.108222 -0.003007 0.078172 -0.028500 0.017977 -0.006729 0.027921 0.067089 0.064474 0.097665 -0.012839 -0.139850 -0.031593 0.001039 -0.074825 -0.153170 0.037109 -0.055996
Mexico -0.144539 0.151152 0.059210 -0.112621 -0.006683 -0.018437 0.127254 0.063564 -0.100436 -0.024326 -0.013528 -0.215586 0.098805 -0.086025 0.080441 -0.025048 -0.112990 0.155278 0.014421 0.012633 0.234891 -0.003926 0.044584 -0.074302 -0.005241 0.022508 0.003472 0.142172 -0.042832 0.114847 0.027530 -0.076677 0.014021 -0.219132 -0.060029 -0.181605 -0.013625 0.022010 -0.059108 0.014235 0.032757 0.054491 0.045750 0.203509 0.072581 -0.087870 0.036763 0.036441 0.075722 0.133682 0.030610 -0.033657 0.061597 0.076334 -0.033645 -0.170293 -0.186126 0.053367 0.004305 0.039741 -0.039371 0.151383 -0.058528 -0.049625 0.159469 -0.073317 -0.058739 0.097224 0.202762 -0.047437 0.079777 0.129068 0.118855 -0.046965 0.027490 0.091548 -0.071997 -0.033032 -0.056538 0.020889 0.065584 0.141709 -0.004852 0.094510 0.045777 0.110117 -0.015602 -0.008528 -0.165947 -0.101673 -0.010915 0.005512 0.045981 -0.053433 0.009287 0.059527 -0.091410 0.021525 0.038745 -0.098016 -0.095743 -0.140593 -0.009356 -0.047594 0.046218 0.073443 -0.020961 -0.067216 -0.166656 0.032590 -0.087935 -0.014188 0.031625 -0.005212 0.120030 0.010630 -0.123859 0.093489 0.022793 0.024596 -0.099384 0.054248 0.108151 0.030163 -0.002568 0.008810 -0.015470 -0.035883
OPEC -0.016295 0.048013 0.069487 0.026800 -0.090917 -0.010259 0.240439 0.187542 0.029003 0.002471 -0.024403 0.041788 -0.058143 -0.060238 0.030102 -0.001886 0.065908 0.075319 -0.059624 -0.060518 0.064592 0.085764 0.034571 0.026723 -0.067038 -0.042797 0.123282 0.014318 -0.049658 0.159375 -0.072675 -0.098979 -0.011251 -0.133036 -0.099531 -0.017977 0.045277 0.140475 -0.028570 -0.106212 0.143441 -0.083458 0.021332 0.041785 0.085631 0.032064 -0.010314 0.049092 0.033951 -0.074933 -0.053209 -0.006138 0.102177 -0.033431 0.016151 -0.059427 0.077800 -0.004865 0.098964 -0.066855 0.121217 0.086017 -0.004871 -0.087636 -0.098472 -0.118135 0.019168 -0.264815 0.066921 0.015144 -0.078812 0.219189 0.074447 0.176713 0.056316 -0.102117 -0.142657 -0.009414 0.037100 -0.111081 0.051000 0.131424 -0.205056 0.046302 -0.029133 -0.071853 -0.015685 -0.001585 -0.040896 0.096829 0.047302 -0.004103 -0.018484 -0.058492 0.026205 0.071329 0.043886 -0.008517 0.080840 -0.034639 0.067451 -0.031331 -0.070092 0.016915 0.151726 -0.029908 0.053696 -0.045110 -0.138278 0.139202 -0.143830 -0.009296 -0.015792 -0.026034 0.030272 -0.265929 -0.089677 0.087933 0.060004 0.043121 -0.027393 0.021774 0.033914 0.105536 -0.152076 -0.051502 -0.184129 -0.006229
Palestinian -0.091670 0.075102 0.139062 -0.026273 -0.097586 -0.015026 0.206312 0.033730 -0.132926 0.033474 0.066406 0.071304 0.041722 0.050579 0.001572 -0.003603 -0.030052 0.227797 -0.106004 -0.050530 0.032195 -0.065532 -0.102458 0.041929 0.078848 0.084834 -0.014933 0.018816 0.083377 0.159429 0.049246 0.078795 0.087119 0.027838 -0.030272 0.148088 -0.026797 -0.028308 -0.099662 -0.167520 -0.116211 -0.047055 0.020857 -0.018933 0.196699 0.029142 0.017672 0.000082 0.147502 0.142893 0.061118 0.134783 -0.038053 -0.046977 0.181328 -0.138911 -0.044479 -0.021901 -0.032664 -0.065040 -0.006298 0.010354 0.101708 -0.000526 0.021835 -0.048351 0.084130 0.024888 0.198767 -0.022628 -0.095128 -0.044794 0.210333 -0.015070 0.089077 0.006193 0.004150 0.033261 0.065084 -0.115943 0.026703 -0.003661 -0.142722 0.105274 -0.086141 -0.096216 -0.107932 -0.026737 -0.043893 0.144006 0.110453 0.153911 0.089645 0.041798 -0.119759 0.109636 -0.020145 0.057907 0.146122 0.037002 -0.122133 0.051213 0.004758 0.045040 -0.024554 0.127875 -0.028873 -0.118308 -0.086388 -0.038393 -0.067996 0.024574 -0.160692 0.046523 -0.013790 -0.139293 -0.049158 0.043975 0.033761 0.016527 -0.036567 -0.022628 0.014212 -0.138898 -0.086323 0.029205 -0.026995 0.104784
Wednesday -0.164152 0.139962 0.034257 -0.114459 0.057558 -0.132157 -0.078587 0.075632 0.053870 0.036817 -0.057306 -0.012476 -0.040626 0.093227 0.001652 -0.050276 -0.015811 0.215112 -0.054095 -0.105618 0.077673 0.062841 -0.135379 -0.084528 -0.149009 0.030476 -0.119981 0.151751 -0.108511 0.007834 0.089445 0.052788 0.032637 -0.121512 -0.037954 -0.018739 -0.038687 0.087900 -0.185451 -0.018163 -0.012827 0.012779 0.082411 0.143724 0.038347 -0.131546 0.060412 0.063773 0.169378 0.028625 0.048398 0.007183 -0.026308 0.165374 0.101766 -0.124584 0.030853 -0.103733 0.082507 -0.033052 0.029156 -0.122090 0.041888 -0.039500 0.091399 -0.062446 0.046276 -0.023520 0.098950 -0.094577 -0.020427 0.155073 0.017387 -0.017481 0.057573 0.030217 -0.089023 0.053085 0.191946 0.126907 0.064612 -0.088485 0.095946 0.036448 -0.037029 -0.058645 0.026215 -0.088326 -0.027716 -0.039559 0.017350 -0.100695 -0.082469 -0.052620 0.005411 0.022516 0.039171 -0.030936 0.184409 -0.075527 0.107431 -0.153657 0.022167 -0.019426 0.091257 0.012355 -0.034991 -0.194645 -0.133107 -0.077683 0.047235 -0.157015 -0.089893 -0.101121 0.002971 -0.019844 -0.032865 -0.003856 0.085741 -0.101659 -0.056921 -0.053570 0.151434 0.112760 -0.069568 -0.022762 0.039725 -0.135436
Yale -0.093371 -0.128586 -0.001840 -0.019907 0.085556 0.107813 0.005967 -0.112126 -0.112799 -0.005072 0.067020 -0.111119 0.017209 0.164880 0.030262 -0.013890 0.043014 0.158599 0.027573 -0.076548 0.158666 0.009463 -0.055005 -0.232967 -0.050726 0.112514 -0.102578 0.090349 -0.142258 0.131262 -0.075872 -0.023726 0.088026 0.064610 0.021094 -0.040488 -0.181141 0.009702 0.095060 0.066024 -0.132609 -0.110528 -0.109118 0.221888 -0.029937 -0.024553 -0.016269 0.125454 0.077899 -0.079427 0.049907 -0.087426 -0.094092 -0.171385 0.046765 -0.023950 -0.045954 0.046232 0.167390 -0.053453 0.056604 -0.107308 -0.017971 -0.126134 0.019262 -0.005779 0.136889 -0.055638 0.002397 -0.071755 0.061585 -0.000790 0.060523 -0.003031 -0.036438 0.002054 0.138883 -0.106791 0.140239 0.020067 0.112490 0.016416 -0.079603 -0.094289 -0.026145 -0.013329 -0.099626 0.099625 -0.054165 0.067716 0.079471 0.033161 0.105951 0.108691 -0.063258 0.072119 0.083290 0.004811 0.054813 0.024067 -0.044312 -0.074650 -0.036681 -0.092046 0.074373 0.063064 0.104085 0.027064 -0.083124 -0.008238 0.134942 -0.033080 0.053434 -0.050910 0.185519 0.013065 -0.073380 0.043935 -0.003422 -0.078084 -0.151529 0.028148 0.133434 -0.041944 -0.072037 0.135007 0.118079 0.004001
abuse -0.038738 0.042689 -0.051269 0.045106 0.119236 -0.175080 -0.035629 0.010307 -0.015388 0.040072 -0.270269 0.042338 0.027130 -0.132511 -0.150324 -0.000076 0.023053 0.229039 0.042364 -0.020376 0.126767 -0.110899 -0.064166 0.030503 -0.003060 0.113730 0.030130 0.094388 0.004394 -0.017029 0.136803 0.152801 0.075796 0.002373 -0.067519 -0.048071 -0.107930 -0.064620 -0.083752 -0.070891 -0.165858 0.100277 -0.015218 0.179770 0.042817 0.074845 -0.001729 0.139522 0.189210 0.049072 0.036276 -0.074527 -0.004568 0.044098 -0.107922 0.013502 0.001514 0.100457 0.074669 -0.086161 0.125980 -0.030216 0.088264 -0.059571 0.096656 -0.087563 0.124814 0.042124 -0.036687 0.089084 0.061337 0.111771 0.186811 0.141570 -0.073575 0.073634 -0.001358 -0.133559 0.058660 -0.011535 -0.020566 0.110746 -0.006319 0.087066 0.079076 0.143041 0.000429 0.011525 0.092062 0.020880 0.091979 0.117902 -0.007999 0.012183 0.058089 -0.075802 -0.042035 -0.088272 -0.038600 -0.041140 -0.042478 0.020676 0.038261 0.133335 0.100364 -0.091269 0.007426 -0.023593 -0.044107 0.005891 -0.052805 0.030083 -0.095461 0.121882 0.114993 -0.176094 -0.132650 -0.032179 0.006335 0.153389 -0.014501 0.051332 -0.045740 -0.003433 -0.063540 0.105052 -0.008449 0.051059
accommodation -0.045197 0.208074 0.022724 -0.079301 0.014159 0.005686 0.019588 0.034810 0.064337 -0.130848 -0.012852 0.083484 -0.046165 -0.004110 0.139035 -0.004256 0.216188 0.135470 0.050777 0.032312 0.070610 -0.256999 -0.024154 -0.036315 0.096791 -0.136209 -0.062050 -0.144800 0.042378 0.069982 0.082296 -0.004199 0.052528 -0.121838 -0.067114 0.013202 0.016219 -0.021591 -0.015582 -0.007530 -0.173582 -0.031732 -0.139039 0.049990 0.030259 -0.006520 -0.172627 0.032353 0.053516 0.032597 0.178017 0.153809 0.063077 -0.004928 0.023177 0.156436 -0.067311 -0.051691 0.078068 0.008495 -0.008376 -0.112879 0.054399 0.085411 0.008049 0.001665 0.074806 -0.081047 -0.037858 0.022379 -0.097136 -0.067986 -0.023881 -0.030581 0.045401 0.122801 0.022548 -0.070297 0.157825 0.003344 -0.009565 0.120457 -0.069278 0.044694 0.032355 0.002747 -0.200816 0.058727 -0.136827 0.058389 -0.020849 0.127137 -0.030042 -0.001912 -0.028970 -0.036951 0.038241 -0.158104 0.017065 -0.118721 -0.136819 -0.034601 -0.100383 -0.004300 0.222012 0.008310 0.007102 -0.063004 0.127618 -0.018455 0.035165 0.025963 -0.136195 -0.154674 0.063065 -0.022622 -0.040591 -0.065965 -0.081891 0.073077 -0.039637 0.115286 0.019805 0.055927 -0.052668 0.034937 -0.108032 -0.168295
activity -0.110890 0.156179 -0.033241 0.069289 0.152450 -0.134264 0.155426 0.151038 -0.036686 0.027315 0.001904 0.012573 -0.072423 0.080688 0.013508 0.044594 -0.078704 0.113136 0.050062 -0.014916 0.049992 0.085094 -0.027082 -0.065249 -0.066820 -0.005862 0.095407 0.069389 0.057663 0.233221 0.099221 0.054015 0.061780 0.156163 -0.080892 -0.076653 -0.094144 0.117250 0.016864 -0.037345 -0.005931 -0.091027 -0.014982 0.210965 -0.079545 -0.053920 -0.068226 -0.023785 0.135021 0.004710 0.094954 0.075611 -0.025371 -0.018996 0.055007 -0.126148 0.094564 0.073297 0.118213 0.064365 0.137742 0.083674 0.100473 0.104123 0.018555 -0.118008 0.194001 -0.033026 0.003571 0.136280 0.067805 0.118098 -0.016027 -0.007961 0.030151 0.055407 -0.074318 -0.076462 0.090094 -0.047821 0.057676 0.038685 0.007645 0.160193 -0.069726 -0.059491 0.020352 -0.049966 -0.045820 0.144037 0.029706 0.035634 0.082977 0.101204 -0.010315 -0.016601 0.133829 -0.018353 -0.077882 -0.011734 -0.001680 -0.211790 0.057547 0.011978 0.137363 0.006052 0.031325 -0.082578 0.076348 0.008084 -0.110025 0.020874 -0.155897 -0.052528 0.006717 0.116779 -0.160874 0.049192 0.100912 0.000269 0.023642 -0.050501 -0.008995 -0.156951 0.171452 0.066505 0.048925 -0.034833
admission -0.115816 0.046044 0.070712 -0.068349 0.183530 0.014881 0.037729 -0.159097 -0.014487 0.084914 -0.184903 0.076042 0.069357 0.032665 0.081707 -0.129286 0.038383 0.252123 0.104866 -0.023367 0.095654 -0.073879 -0.002163 0.006866 -0.014498 -0.023557 -0.044574 -0.131071 0.034574 0.095439 -0.059210 0.010665 -0.028191 -0.071335 -0.133124 0.081330 -0.072027 -0.134126 -0.111029 -0.079088 -0.105621 0.045107 0.081766 0.087057 -0.034891 0.054242 -0.060564 0.046713 0.064345 -0.146252 0.038415 -0.092395 0.143289 -0.021358 -0.025046 0.144290 -0.062954 0.022189 0.015305 -0.015228 0.002688 -0.123042 0.069690 -0.043006 0.071157 -0.051425 0.078827 0.034882 0.032926 -0.006799 0.065216 0.063635 0.098930 0.013857 -0.112031 -0.067225 0.000142 -0.025196 -0.058684 0.043789 0.079808 0.145319 -0.113119 0.064040 -0.038258 0.050923 -0.020812 0.125352 -0.050462 0.024728 0.078767 -0.005777 0.088149 0.158019 -0.039867 -0.150720 0.016616 -0.098066 0.041174 -0.224584 0.024844 -0.003498 0.057404 -0.064938 0.289911 -0.130044 -0.030461 -0.153775 0.011215 -0.105688 0.030007 -0.049995 -0.166507 -0.044163 0.069064 -0.037551 -0.094337 0.009389 -0.018747 0.026513 -0.113728 0.069385 -0.001962 -0.104111 -0.084534 0.042626 0.023137 -0.123173
airport -0.064506 0.101387 0.105470 0.095442 -0.157249 -0.050035 -0.015952 0.064949 -0.038154 -0.132674 0.102790 -0.135122 0.089501 0.009099 0.019598 -0.086322 0.114859 0.128373 0.043568 -0.038580 0.038412 -0.119824 -0.005137 -0.017254 0.017609 -0.027211 -0.127685 0.033997 0.065699 0.122015 -0.049691 0.085248 0.080728 -0.141700 -0.074135 0.029124 -0.085151 0.115588 -0.067375 -0.116572 -0.170239 -0.058520 0.128899 -0.046178 -0.004718 -0.017786 -0.102578 0.074615 0.067342 0.062654 0.039351 -0.066661 0.055290 0.121541 0.008372 -0.033816 -0.033842 -0.089745 0.146692 -0.092794 -0.125350 0.057828 -0.018048 0.038706 0.094302 -0.085778 0.041054 0.056524 -0.137491 -0.078802 0.057973 0.086566 -0.028759 0.072819 -0.092705 0.197849 0.053929 0.023756 0.117443 -0.016460 0.074212 0.170439 -0.050243 -0.115184 -0.023145 0.035292 -0.170348 0.018280 -0.087137 -0.153240 -0.021015 0.083510 -0.189939 0.057906 0.024463 -0.023560 0.033493 0.004560 0.114926 -0.076124 0.027446 -0.181387 -0.097696 -0.048964 0.129915 -0.005988 0.045004 -0.132112 0.036631 -0.102163 -0.084990 -0.114368 -0.014782 -0.139602 -0.066028 0.038543 -0.049588 0.069888 0.012372 0.035067 -0.126831 -0.124465 0.029531 -0.033172 -0.055958 0.051522 -0.207785 -0.010660
alcohol -0.133004 0.083211 -0.034684 0.041463 0.053033 -0.145998 0.076988 -0.004931 0.076290 0.106319 -0.063794 -0.069045 0.014283 -0.064830 -0.026416 -0.098981 0.174981 0.231005 -0.068999 -0.026130 -0.033046 -0.183673 0.019387 -0.129372 -0.004446 0.018802 0.019469 -0.106196 -0.042485 0.075153 0.037900 0.213288 0.045248 -0.090311 0.028830 -0.103850 -0.004038 -0.078953 0.004891 -0.044401 -0.149770 0.139050 0.051517 0.139899 0.008305 0.014603 0.029894 0.091262 -0.028155 -0.020181 0.053211 0.014821 -0.061442 -0.005766 -0.003245 0.080261 -0.058033 0.148034 0.184267 -0.055553 0.037903 0.037079 0.025681 -0.047056 0.020631 -0.034534 0.057436 -0.086652 -0.008245 0.140953 0.034424 0.153494 0.217175 0.038883 -0.085957 0.058642 0.021586 0.014991 -0.012012 -0.101834 -0.011386 0.048818 -0.027952 -0.002637 0.135288 0.042179 -0.013025 -0.008635 -0.059138 0.195512 -0.223539 0.040688 -0.005589 -0.106448 0.029331 -0.026634 -0.083501 -0.007084 0.028228 -0.062368 0.101245 -0.131747 0.069707 -0.005576 0.159319 -0.106629 -0.040699 -0.091108 -0.039721 0.046497 -0.049755 0.088872 -0.088726 0.173653 0.060667 -0.069946 -0.072932 0.106733 0.222488 0.021294 -0.093465 -0.017646 0.014425 -0.063450 -0.103342 0.060473 -0.022808 -0.059220
aluminum -0.064705 0.018354 0.100297 -0.034533 -0.005333 -0.104784 0.012107 0.055203 0.226387 -0.010153 -0.095571 -0.164270 0.071401 0.070624 -0.032440 -0.127130 0.042787 -0.021160 -0.147771 0.023424 0.096961 -0.026435 -0.130044 0.001104 -0.015840 0.062953 0.093887 -0.020911 -0.210298 0.024312 0.045837 -0.036428 0.038781 -0.048027 -0.016499 -0.031654 -0.250497 0.125128 -0.072394 0.002715 0.116072 -0.027885 0.021032 0.151439 -0.091558 0.051397 0.024487 -0.098970 0.043624 -0.046880 -0.005502 0.012163 0.167577 -0.034062 0.010418 0.076070 0.012133 -0.046935 0.056558 -0.025552 0.071419 0.164692 0.009080 0.008177 0.092861 0.048085 0.039998 -0.097246 -0.025415 -0.007659 0.067058 -0.051696 0.076597 -0.019477 -0.052536 0.010823 -0.201845 -0.022683 0.135359 -0.061060 -0.069718 0.134196 0.015522 -0.056876 -0.028162 -0.080400 -0.154510 0.086288 -0.055080 0.020495 -0.006409 -0.018106 0.141384 -0.158166 -0.129088 0.063424 0.121793 -0.025233 0.022603 0.233818 0.090649 0.018795 0.028269 -0.079725 -0.014807 0.029003 -0.038618 -0.104975 0.035767 0.051692 -0.107020 -0.153014 -0.034658 -0.037419 -0.080190 -0.026838 -0.162878 -0.061019 0.018507 0.017739 -0.049984 -0.163018 0.094754 -0.054394 -0.069556 0.100130 -0.201596 -0.058406
animal 0.085555 0.152446 0.139362 0.067365 0.035059 -0.140861 -0.051668 -0.100126 0.044635 -0.016006 -0.113396 -0.028622 -0.037554 0.017930 0.071693 -0.042465 0.076615 0.118364 0.010232 -0.043426 0.004098 -0.007858 -0.154475 -0.103602 0.059257 0.004881 0.080215 0.222334 -0.037914 0.150702 0.030830 0.004109 -0.005428 -0.099692 0.047860 -0.089430 -0.113158 0.041535 -0.070522 0.060580 -0.103227 0.070142 -0.068187 0.128289 -0.040510 -0.009124 -0.028621 0.073774 0.034348 0.070834 0.203465 -0.001464 -0.115923 0.009941 -0.154505 -0.086806 -0.036563 0.193744 0.158148 -0.073375 0.052054 0.068572 -0.068044 0.001181 0.008880 -0.103924 0.015856 -0.076065 -0.100477 -0.080896 0.097604 0.014531 0.055469 0.042859 0.038121 0.045961 0.174652 0.034344 0.069687 -0.248868 -0.038178 0.047618 -0.133952 0.017168 0.127401 -0.046791 0.005256 0.056169 -0.056234 0.045805 -0.009929 0.046877 -0.045835 0.016128 0.008687 0.058344 -0.077587 0.005271 0.073769 0.165922 0.137498 -0.003628 -0.016226 0.022915 0.016232 0.016225 -0.139416 -0.143278 -0.143121 -0.125200 -0.021686 -0.100427 -0.016206 0.039963 0.082097 0.080030 -0.090353 -0.078291 0.033528 0.185141 0.028407 -0.019410 0.086137 -0.116606 0.009010 -0.172613 0.118755 0.008767
announcement -0.066327 0.040288 0.140741 0.102732 -0.051968 -0.065951 -0.050915 0.019316 0.013309 0.067007 -0.092252 0.110584 0.026980 -0.062172 -0.062093 -0.175530 -0.083420 0.202115 0.111441 -0.187228 0.000185 -0.007363 -0.121825 0.033764 0.066869 -0.086799 -0.049535 0.018535 -0.118522 0.057299 -0.044368 -0.088858 -0.071510 -0.013875 -0.066976 0.069909 -0.081195 0.125584 -0.233689 0.051813 -0.041656 -0.097510 0.103213 0.144568 -0.048645 0.025426 -0.144326 0.071190 0.053703 -0.022392 -0.051113 -0.137666 -0.064016 -0.014014 0.001487 -0.057760 0.090848 -0.174814 -0.005881 -0.041595 -0.077450 -0.066888 0.026360 -0.006791 0.081516 -0.047043 -0.012333 -0.068901 0.035607 -0.053575 0.008143 0.098146 0.057671 -0.022186 0.079990 -0.043357 -0.185143 0.042330 -0.057170 0.200908 0.004055 0.139525 0.054881 0.137820 -0.018639 -0.026978 -0.042938 -0.050680 -0.017300 0.016895 -0.010444 -0.099596 0.000880 0.074619 -0.043571 0.088245 0.223146 -0.080974 0.027205 -0.124604 -0.003085 -0.134767 0.004250 0.066829 0.057854 -0.014252 0.021238 -0.222657 -0.091287 -0.003704 -0.066185 -0.024363 -0.226703 -0.028031 -0.163998 -0.037783 -0.143707 -0.041532 0.010146 -0.117204 -0.056978 -0.052301 0.028645 -0.036830 -0.049374 -0.003961 0.055660 -0.018968
anxiety -0.099790 0.006149 0.164179 0.087166 -0.004942 -0.146417 -0.051501 0.034808 0.014902 0.006016 0.065265 0.074660 -0.015392 -0.017165 0.032364 -0.033446 0.053047 0.100190 0.132511 -0.056861 0.073273 -0.000860 -0.050243 -0.110791 -0.143987 -0.020260 0.144109 0.065295 0.022926 0.203293 -0.074111 0.047447 -0.020932 0.019438 0.043947 -0.034299 -0.122735 -0.159693 -0.004024 0.105239 -0.083213 -0.064534 -0.036640 0.096886 0.026799 0.051619 -0.027066 0.039817 0.065417 -0.047145 -0.022043 0.035599 -0.058705 0.031423 0.012006 0.004228 -0.008835 -0.134133 0.155157 0.051906 0.119050 -0.125776 0.091406 0.017394 0.030832 -0.059215 0.240810 0.011399 0.080511 0.075834 0.090184 0.171364 0.144235 0.052748 -0.105742 0.063220 0.038332 -0.002126 0.092127 0.062523 -0.064032 0.027363 0.067368 0.100470 0.000455 0.054805 0.142177 -0.092888 -0.100018 0.140476 -0.049089 -0.008992 0.023666 -0.105223 -0.166575 -0.069127 0.013448 -0.048225 0.050724 -0.069043 0.075932 -0.030736 0.032104 -0.023078 0.159327 -0.224055 0.032041 -0.048916 0.037634 0.080918 -0.192106 -0.013633 -0.097346 0.122571 0.198731 -0.025319 -0.236175 -0.063699 0.033583 0.091157 -0.047386 0.108561 -0.015590 -0.015806 -0.000437 0.028360 -0.026376 -0.059537
approach 0.086681 -0.035514 0.027922 0.084866 -0.085272 -0.015405 0.011388 0.088839 0.033009 0.013596 0.015417 0.088837 0.059133 -0.099105 0.026345 -0.031643 0.169893 0.181634 0.241832 -0.104462 0.026763 -0.123328 0.072826 0.089315 -0.066166 -0.082541 0.025689 0.028621 0.016605 0.286684 -0.049976 0.014303 0.027204 -0.059533 0.012794 -0.012120 -0.034327 0.124807 -0.074479 0.151793 -0.105253 0.074997 -0.163766 0.128815 -0.065332 -0.039517 -0.003605 -0.012033 0.053611 0.082720 0.072762 0.006223 0.000945 -0.015234 0.120363 -0.030234 -0.083984 0.001016 0.095626 -0.126230 -0.139118 -0.028850 0.015219 -0.040755 -0.026440 0.057495 0.031534 -0.041622 0.016355 -0.080882 0.047700 -0.001911 0.096476 0.093315 0.149005 0.006546 -0.186937 -0.011405 0.049146 0.129712 0.063792 0.049206 -0.067446 0.100640 -0.064317 0.063755 0.167493 0.066749 -0.031068 -0.020813 0.086384 0.007309 -0.009805 0.009535 -0.112978 -0.024992 0.040317 -0.188822 0.212203 0.067223 0.047495 -0.005824 0.147577 -0.072822 0.099001 0.070583 -0.029791 -0.062357 0.100938 -0.064720 -0.001744 0.026533 -0.044824 0.054850 -0.049561 0.051473 -0.153912 -0.024417 0.100414 -0.019113 0.049267 -0.024909 0.206116 -0.079929 -0.069657 0.191833 0.000996 -0.005251
architecture -0.066203 0.044970 -0.025703 0.001426 0.029756 -0.155732 -0.007915 -0.132088 -0.085598 -0.122193 -0.007847 -0.024411 0.166982 0.202443 0.037475 -0.050514 0.067346 -0.066908 0.149278 -0.140409 0.095425 -0.124278 0.174164 -0.122354 0.008776 0.020624 0.035827 -0.174981 -0.008554 0.227263 -0.018547 -0.001002 0.088479 -0.096289 -0.113501 0.012205 -0.106959 0.119346 -0.161499 0.100103 -0.049927 -0.080598 -0.182167 0.119082 0.128215 0.028784 -0.150415 -0.049732 0.021245 0.025083 -0.010789 -0.084738 0.013076 -0.069896 0.120660 -0.057054 -0.003977 -0.047093 0.095285 -0.143261 -0.087073 -0.047885 -0.094139 0.041632 -0.036101 0.024896 0.069139 -0.087708 -0.053818 0.050788 0.039938 -0.072580 0.097336 -0.065658 -0.027113 -0.000571 -0.106406 -0.155053 0.160349 0.127518 0.025577 0.016246 -0.019001 0.033306 -0.044971 0.052191 -0.063098 0.016365 0.078078 -0.073952 0.016352 0.012077 0.070323 0.043370 0.017846 -0.006346 0.097258 -0.111609 0.002486 0.125602 -0.051015 0.009446 -0.092098 -0.033044 -0.003517 -0.075297 -0.044725 0.087571 0.015849 0.073148 -0.014175 0.031719 -0.070086 -0.209359 -0.005058 0.043783 -0.166294 0.012567 -0.141483 0.095082 -0.008588 -0.083958 0.082764 0.023335 -0.035932 0.149966 0.058392 -0.067029
archive 0.045337 -0.087572 0.015319 -0.022810 -0.007774 -0.031717 0.172512 -0.042721 -0.107750 -0.061614 -0.037290 -0.096888 -0.042245 0.127051 -0.087891 -0.078049 0.039295 0.107584 0.087677 -0.029362 0.049764 -0.058505 -0.037038 -0.151692 0.127736 0.174279 0.074510 -0.020700 -0.058755 0.139758 0.025552 0.081393 0.095659 -0.009200 -0.114944 0.139916 -0.110430 0.000123 -0.061781 0.007631 -0.140342 -0.037473 -0.150134 0.087777 0.067473 0.082214 -0.093242 0.220088 0.151673 -0.060578 -0.052722 -0.124439 -0.008130 -0.037679 -0.071172 -0.035852 0.078060 0.083876 0.117519 0.087473 -0.047210 -0.144471 -0.076122 0.013064 0.087988 -0.101306 0.064830 -0.115143 0.006255 -0.029546 -0.068520 -0.132870 -0.094316 -0.091013 0.002174 -0.032823 -0.038893 -0.099627 -0.037492 0.011761 0.004043 -0.033272 0.027969 -0.087287 0.062339 0.027777 -0.069635 0.015806 0.011062 -0.063673 0.117805 -0.067615 -0.124344 0.060072 -0.050289 0.068848 0.224287 -0.211888 -0.083477 0.003391 0.161008 -0.019302 -0.122995 -0.005329 0.080794 0.012210 -0.224442 -0.031186 -0.051286 0.112457 0.027958 -0.135991 -0.039761 -0.164733 -0.008213 -0.047745 -0.050888 -0.016489 -0.013116 0.055321 -0.020215 -0.026366 0.017615 0.036740 -0.040662 -0.022920 0.105419 -0.148675
area -0.062782 0.163808 0.113064 -0.103314 0.015964 -0.239901 0.032817 0.145124 0.051926 -0.231155 -0.003320 0.083748 -0.037163 0.094516 0.039759 -0.079325 0.095657 0.147316 0.154936 -0.101599 0.042674 -0.051484 0.012471 -0.116224 0.028343 -0.018465 -0.064958 0.056099 0.113069 0.162065 0.130888 0.054812 0.030871 -0.074283 -0.072000 -0.066312 -0.036577 0.080993 -0.124266 0.001260 -0.099527 0.023773 -0.139584 0.200060 0.021110 0.051189 0.044458 -0.017800 0.128586 0.011166 -0.045931 -0.016386 0.014925 0.050440 -0.103675 -0.175213 -0.122622 0.006618 -0.003296 -0.041479 -0.100083 0.013465 0.236697 0.033969 0.071497 -0.064010 0.055182 0.036837 -0.010276 -0.042320 0.076555 0.022482 -0.047663 -0.028254 -0.057384 0.075670 -0.093776 0.027339 0.062622 -0.134201 0.023035 0.083621 0.053561 -0.103385 0.013928 -0.047253 -0.053579 -0.059970 -0.134233 -0.009263 -0.123690 -0.014715 -0.031496 -0.008656 0.094095 -0.054892 -0.018933 -0.060387 0.063380 0.016308 -0.060748 -0.262603 -0.002540 -0.014848 0.048324 0.024986 -0.049254 -0.049852 0.074295 -0.053739 -0.016946 0.001850 -0.102175 -0.217686 -0.039799 0.049410 -0.014898 0.104293 -0.026783 0.054695 0.074239 -0.140633 0.089710 -0.103866 -0.019014 -0.051028 -0.002801 0.088547
arrangement -0.099942 0.077830 -0.044387 0.049835 -0.099537 -0.040955 0.144971 0.026121 -0.002592 -0.158297 -0.063731 0.121203 0.014778 -0.009423 -0.051227 -0.057241 0.111203 0.213999 0.041205 -0.095191 0.001478 -0.118913 -0.203346 0.116321 -0.138966 -0.006802 -0.157440 -0.150306 0.040748 0.151733 -0.071163 -0.077799 -0.053722 0.054391 0.025825 0.072572 0.013023 0.027855 -0.101707 0.088036 -0.118649 0.000752 0.045080 0.190618 -0.097810 0.103140 -0.040271 0.113896 -0.029972 0.026274 0.084055 -0.055481 0.107760 -0.001516 0.022479 -0.032814 -0.027003 -0.048307 0.083297 0.092421 0.005589 -0.046971 0.081745 0.022297 -0.067271 -0.052754 -0.094616 -0.128073 -0.060662 -0.001369 0.065457 -0.082240 0.002248 -0.124830 0.077074 0.001483 -0.195169 0.021975 0.118775 0.041604 0.070086 0.069636 -0.055684 0.093912 -0.020561 0.023860 -0.023969 0.098491 0.064135 0.066415 0.056516 0.062387 0.001035 0.089066 -0.071520 0.035312 0.102831 -0.206259 0.144242 -0.038994 0.143772 0.066437 -0.018706 0.129551 -0.018455 0.020668 -0.033472 -0.031214 0.229892 -0.093204 -0.028147 0.146703 -0.067657 -0.100470 -0.002670 -0.040407 -0.118192 -0.051627 -0.124690 0.056160 -0.074780 0.049819 0.041119 -0.080308 -0.064927 0.032908 0.064831 -0.129741
arrival -0.129393 0.054493 0.026933 0.028040 0.001693 -0.072839 0.026913 0.028075 -0.056324 -0.112546 0.043170 0.027334 -0.028350 -0.046615 0.036628 -0.097769 0.029518 0.067201 0.207850 -0.173665 0.014961 -0.130994 -0.076405 0.028918 -0.007208 -0.084523 -0.032275 0.115916 0.070725 0.025937 -0.052039 0.004965 0.067096 -0.089912 -0.077902 0.128008 0.063064 0.083598 -0.243018 -0.038215 -0.084412 0.040827 0.081018 0.113091 -0.001849 -0.068773 -0.056211 0.079685 0.048938 0.010255 -0.086087 -0.111641 -0.000787 -0.048353 0.013098 0.003271 -0.034435 -0.140815 0.105662 -0.070744 -0.099870 -0.070735 -0.027027 -0.077837 0.097323 -0.080999 0.164878 0.158072 0.131859 -0.086360 0.078772 0.018578 0.107584 -0.065726 -0.009647 0.154955 -0.113865 0.055417 0.052023 0.046987 -0.163581 0.144293 0.014839 0.066624 -0.039764 0.076662 -0.072875 0.003190 -0.163439 -0.097782 0.006485 0.076032 -0.068887 0.000918 -0.000291 0.080774 0.154410 -0.000026 0.082991 -0.076729 0.060912 -0.066815 -0.118239 0.006054 0.154144 -0.009274 0.039973 -0.158406 -0.167874 -0.035056 -0.036344 -0.061206 -0.041298 -0.169756 -0.257061 0.043307 -0.154828 -0.035179 0.032436 0.085259 -0.023999 0.089123 0.006487 0.053723 -0.008234 0.058040 0.058990 -0.029238
article 0.020670 -0.033496 0.145740 -0.157121 0.074567 0.134784 0.050525 -0.073180 0.086353 0.071185 0.004654 0.157572 0.066068 -0.005475 -0.033751 -0.013610 0.047878 0.088317 -0.049942 -0.162484 -0.083468 0.144052 -0.104296 0.014305 -0.012319 -0.076630 0.111490 -0.030374 -0.043303 0.191008 0.032716 -0.096669 0.070558 -0.091357 0.018998 -0.052350 -0.028768 -0.120000 0.074043 -0.004277 -0.223924 0.081923 -0.053728 0.094326 0.084063 -0.065778 -0.027549 0.150141 0.107081 -0.040197 -0.078688 -0.054959 0.134647 -0.041791 -0.035335 -0.181274 0.136908 0.093861 0.042050 -0.022098 -0.004697 -0.065742 0.011269 -0.025025 -0.038177 -0.005296 0.048403 -0.002119 -0.061651 0.159200 0.084135 0.067401 0.076071 0.014380 -0.014595 0.126463 0.074893 -0.012818 0.038883 0.157506 0.154159 0.031405 -0.056742 0.078648 -0.060763 0.023872 0.073970 0.073764 0.003650 0.048107 0.098517 -0.013798 -0.024012 0.124354 0.065744 0.008008 0.076280 -0.017037 0.151641 -0.057795 0.135791 -0.058701 0.026354 0.066138 0.103806 0.014138 -0.027083 -0.187595 0.036194 0.061828 0.120960 -0.024745 -0.082511 -0.166537 -0.066767 0.050180 -0.143867 0.130932 -0.111500 0.061334 -0.033216 -0.195065 0.121561 0.032171 0.141052 -0.031181 -0.011059 0.033513
artifact -0.048640 -0.080576 0.148787 0.028064 0.094353 -0.169609 0.093508 -0.046909 -0.012790 -0.022920 -0.045084 -0.179669 0.083480 0.134613 0.050169 -0.004348 0.067387 0.091514 0.019819 -0.210238 0.066482 -0.046907 0.073819 -0.181961 0.003972 0.097336 0.159337 -0.072893 0.029879 0.059832 -0.018548 -0.043722 0.170656 0.078844 -0.051184 -0.025682 -0.076209 0.003798 -0.140606 0.015181 -0.072003 0.071495 -0.174745 -0.010738 -0.092156 0.040479 -0.067352 0.061001 0.123359 -0.063968 0.066996 -0.060691 -0.052188 -0.013611 -0.013547 -0.092166 0.092627 0.022491 0.142987 0.092637 -0.136654 -0.076565 -0.037556 0.008464 0.014478 -0.079677 0.048994 0.023602 0.068075 0.127166 -0.069243 -0.155069 0.067419 -0.022511 -0.136485 -0.111798 -0.026076 -0.009900 0.118638 0.026215 -0.048916 0.149924 0.019333 0.077915 -0.022790 0.016450 -0.012563 0.086285 0.030238 -0.048407 0.024513 -0.032318 0.014674 -0.037301 -0.115844 0.074524 0.127703 -0.047249 -0.032537 0.003522 -0.010584 0.098723 -0.181718 -0.156102 0.060378 0.092609 -0.097414 0.027862 -0.105527 0.152185 -0.096641 -0.085299 -0.053885 -0.107285 0.024392 0.078347 -0.136117 0.079608 -0.033718 0.184704 -0.016201 -0.138569 0.001131 -0.160059 0.000546 0.059510 0.072262 -0.094592
association -0.045434 0.058006 -0.105280 -0.047112 0.162405 0.046329 -0.027402 0.173409 -0.155043 0.014515 -0.038433 -0.027158 0.201684 0.157326 0.134755 -0.016914 0.014686 0.081580 0.021844 -0.011974 -0.059111 -0.102606 -0.135452 -0.046926 -0.022492 0.074756 -0.003022 0.066733 0.110810 0.051914 0.019157 0.102606 -0.243658 -0.198082 0.036382 -0.054907 -0.136180 0.071623 0.012997 0.039178 -0.278718 -0.009343 -0.071641 0.177490 0.029593 0.019195 -0.080739 -0.047497 0.151562 0.023367 0.006100 -0.291095 0.002936 0.016170 -0.088831 -0.035968 0.004812 -0.016046 0.034182 -0.029095 0.091004 -0.121048 0.003557 -0.104078 0.042687 0.059562 0.013569 -0.016857 0.061155 0.141031 0.026194 0.072835 0.006114 -0.005533 0.172831 -0.043158 -0.032099 -0.087469 0.037677 -0.036922 0.003574 0.067710 -0.107964 0.000338 -0.069565 0.020904 -0.080965 -0.057156 0.009582 -0.017005 -0.010696 -0.070274 0.060908 0.116650 0.020337 0.011484 0.036356 -0.126496 0.010053 0.007952 0.014995 -0.180297 0.093217 -0.062162 0.086393 0.100183 -0.029108 -0.131739 0.016404 -0.083275 -0.013877 0.036747 -0.013794 -0.007668 0.040092 -0.056494 -0.022506 -0.014634 0.167816 -0.045794 0.001088 -0.068403 0.155570 -0.011686 -0.137116 -0.018419 -0.035762 0.021712
astronomer -0.116168 -0.105511 0.000267 -0.072842 0.056262 -0.178024 0.116172 -0.100043 -0.083370 0.003917 0.149610 -0.061700 0.069058 0.097316 -0.130233 -0.184456 0.045035 0.009987 0.111551 -0.102831 0.085618 0.031745 -0.043647 -0.072766 -0.090095 0.095745 -0.022841 -0.112501 -0.000536 0.013003 0.000715 -0.095073 0.141183 -0.014783 -0.050088 0.092300 -0.190196 0.106158 -0.101785 0.201283 -0.182895 0.070750 -0.068490 0.036118 -0.059315 0.040736 -0.096757 0.159333 0.090012 0.042148 0.001739 -0.117661 -0.032082 0.019515 -0.031383 -0.147179 0.160753 0.065171 0.246608 -0.049786 0.014803 -0.046433 -0.058604 -0.085784 -0.133997 0.002003 0.033418 0.071129 -0.008639 0.008441 0.066976 -0.014837 0.078627 -0.039142 -0.037869 -0.069363 -0.121851 0.048192 -0.104212 0.033385 0.040019 0.039762 -0.110209 -0.021203 -0.097019 -0.169137 -0.141032 -0.030634 -0.112829 -0.036535 0.009491 -0.047074 0.129107 -0.124675 0.053808 -0.021219 0.063009 -0.030013 -0.079527 0.024066 -0.032239 -0.078350 -0.123493 0.064243 0.038348 0.025197 -0.082916 0.117225 -0.041289 0.045110 -0.118750 0.032047 -0.010558 -0.100364 0.124631 -0.009658 -0.098027 0.009320 -0.045620 0.122614 0.020554 -0.045914 0.024624 0.107398 0.036414 0.004185 0.124983 -0.043967
asylum -0.098677 0.110064 0.130758 0.086501 -0.084722 0.056920 -0.023503 0.045292 -0.060931 -0.085147 -0.041123 -0.032701 0.005815 0.027734 0.009441 0.061446 0.123100 0.228907 0.201334 -0.035968 0.097975 -0.115334 -0.013672 0.187610 0.010994 0.006627 -0.096238 -0.075013 -0.068508 0.085253 0.153249 -0.050474 0.029836 -0.075069 -0.311325 0.005859 -0.007237 -0.044684 -0.107045 0.029874 -0.009146 -0.010706 -0.096812 0.037128 0.087447 -0.076274 -0.047230 0.142938 0.209492 0.082552 -0.018016 0.071846 -0.030607 0.046402 -0.074054 -0.046858 -0.041927 -0.020313 0.107826 -0.134044 0.208929 -0.001259 -0.066112 0.013576 0.011121 -0.162477 -0.023596 0.024558 0.019565 -0.014230 -0.008846 -0.040699 0.138471 0.035486 0.088436 0.040999 0.078677 -0.149825 -0.021887 0.077271 -0.056083 0.024794 -0.086039 0.034350 0.059057 0.201026 -0.010003 0.054082 -0.038937 -0.047194 0.041132 0.164578 -0.125480 -0.060738 -0.058695 -0.032389 -0.123022 -0.052082 -0.014358 0.048492 0.070096 -0.038915 -0.146818 -0.013474 0.079481 0.002190 0.103954 -0.048188 0.029965 -0.007856 0.007418 0.003253 -0.079749 -0.076252 -0.011936 -0.013052 -0.039750 -0.112177 -0.103849 0.158572 -0.104898 0.064161 -0.031539 -0.069025 -0.044331 0.023627 -0.109882 -0.108202
atmosphere -0.047845 0.133784 -0.068337 -0.075176 0.031717 -0.143797 0.041952 -0.019734 0.033566 -0.096339 0.094038 -0.076370 -0.137278 -0.030149 -0.033140 -0.245690 0.040578 0.071164 0.200814 -0.094508 -0.082378 -0.093153 0.046240 -0.088229 0.001629 0.086612 -0.012674 0.043078 0.030181 0.196363 0.070192 -0.022093 -0.015523 0.038079 0.028753 0.044828 -0.016644 0.014992 -0.022453 0.042551 -0.093183 0.066038 0.113096 0.042319 -0.220700 0.003252 -0.113058 -0.007768 0.075842 0.060258 -0.046607 -0.011709 0.052983 -0.134995 0.211613 -0.025821 -0.057849 0.037497 0.166526 0.000375 -0.093631 -0.117521 0.145804 -0.103301 0.043744 0.021901 0.125631 -0.058235 -0.049150 -0.081757 0.077212 0.148311 0.064131 0.000732 -0.023667 0.105178 -0.133754 0.079384 0.080423 -0.018708 0.059363 0.084214 -0.051937 0.118450 -0.124785 0.002138 0.015436 -0.009456 -0.004811 -0.039059 0.017652 0.071529 0.011241 -0.176398 -0.087840 0.000714 0.161992 -0.035284 -0.043146 0.103985 0.022770 0.008815 -0.037982 0.049757 0.033236 0.115973 -0.063485 0.017233 -0.050684 -0.144434 -0.099066 0.065300 -0.018733 -0.167964 -0.044712 -0.139924 -0.078450 0.114951 0.104537 0.183463 -0.097391 -0.004596 0.023102 -0.004979 -0.065508 -0.077294 0.050256 -0.096623
attempt 0.020387 -0.051116 0.090651 0.030590 -0.023808 -0.167497 0.129740 0.019544 0.113412 -0.029255 -0.074157 0.015564 0.020071 0.027178 0.088895 0.067220 0.027735 0.307838 -0.003317 -0.180859 -0.118634 -0.030083 0.022096 0.029881 0.086601 -0.029665 -0.204701 0.126695 0.157638 0.004458 0.069489 -0.013843 0.027977 0.048765 0.011667 0.106001 0.034214 -0.061385 -0.071407 0.114122 -0.012087 -0.020471 0.034732 0.017017 -0.056956 0.066783 -0.051142 0.051239 0.112139 0.006186 -0.039673 -0.089879 -0.056992 -0.035506 0.031910 -0.123520 0.029704 -0.001445 0.040046 -0.168878 -0.021772 -0.016894 0.034739 -0.067777 -0.047781 -0.102864 -0.005014 0.079493 -0.009003 -0.154656 0.090829 0.001493 0.059067 0.135928 -0.097746 0.067294 -0.155975 -0.138280 -0.030811 0.065888 0.057594 0.068422 0.051326 0.018435 0.033232 -0.087009 0.010718 0.045592 -0.031849 0.036302 0.160459 0.018364 -0.093404 0.053474 -0.106942 -0.079357 -0.039899 -0.117363 0.144376 0.060435 -0.016374 -0.096812 0.077012 -0.175967 0.052619 0.070616 -0.014843 -0.205502 -0.045343 -0.153820 0.010706 0.005290 -0.117671 0.003190 -0.110196 0.059033 -0.164231 0.061115 0.018470 0.097966 -0.051959 -0.067927 0.091190 -0.050123 -0.110841 -0.019210 -0.075094 -0.223717
attitude -0.007812 0.030931 0.046126 0.065963 0.061710 -0.072444 -0.083349 0.097446 0.017540 0.004191 -0.044105 0.043099 0.058297 -0.153635 0.060115 -0.028401 0.068693 0.053490 0.210446 -0.055991 0.003699 -0.118382 0.039328 0.098953 -0.023879 -0.016666 0.073941 0.008950 0.158723 0.202193 0.026737 0.107434 0.053109 -0.099771 -0.046867 -0.068005 0.004629 -0.007424 -0.054229 0.151530 -0.118285 -0.018415 -0.043313 0.101742 -0.107101 0.040875 0.040933 0.101382 0.054596 0.144921 -0.019685 -0.017748 -0.050634 -0.074074 0.117746 -0.006238 0.090090 0.009052 0.093621 -0.113478 -0.058615 -0.104422 0.043186 0.043276 -0.098649 -0.002713 0.113077 -0.039349 0.055671 -0.025504 0.129526 0.129303 0.151034 0.030612 0.012163 0.032318 0.007661 0.016439 0.003485 0.076768 -0.041891 0.106976 -0.080873 0.176832 -0.162353 0.109186 0.085557 0.115566 0.025258 -0.055333 0.003777 0.087634 0.043634 -0.072467 -0.169253 -0.036589 0.017429 -0.040638 0.211294 -0.051990 0.123611 0.069242 0.113811 -0.077310 0.127336 0.026335 -0.068691 0.045920 0.056266 0.031539 0.011633 0.055922 -0.063492 -0.101623 -0.054282 0.071465 -0.221210 -0.064249 0.293066 0.093897 -0.053407 0.095504 0.054191 0.076001 -0.044014 0.083192 0.063907 -0.017517
automobile -0.044729 -0.100925 0.065555 -0.122276 0.009141 -0.088874 -0.023348 0.047276 -0.028984 -0.045317 -0.016314 -0.113946 0.047360 0.082342 0.116517 -0.037953 -0.025675 0.072200 0.065477 -0.006800 0.000562 0.014407 -0.203575 -0.028016 -0.066569 0.142700 0.041586 -0.041594 0.026450 0.137900 -0.085073 0.140992 -0.088809 -0.144601 0.035752 -0.240495 -0.104494 -0.018996 -0.010128 0.004186 -0.199747 0.057451 0.079514 0.150373 -0.001381 -0.055885 -0.112432 -0.148026 0.028356 0.001893 0.043415 -0.161310 0.058325 0.024628 -0.004059 -0.036570 0.087988 -0.029676 0.055289 0.040307 -0.068748 0.073332 -0.044724 -0.135221 0.077566 -0.017912 -0.062333 -0.093160 -0.088862 0.114952 -0.042765 0.125112 0.116074 0.110405 0.001310 -0.103689 -0.105473 -0.007939 -0.013448 -0.043673 -0.074005 0.026007 -0.142855 0.216940 0.069175 0.024187 -0.261002 -0.053052 0.104212 0.003888 0.055802 -0.087140 0.025582 -0.000560 0.112438 0.019719 -0.029407 -0.057209 -0.000132 0.036217 0.052044 0.002666 -0.026721 -0.059753 -0.019296 0.123438 -0.001288 -0.099996 -0.007918 0.148347 -0.025440 -0.099551 0.014743 -0.126205 0.012465 -0.012786 -0.045891 0.006716 0.184354 -0.015064 -0.086909 -0.042477 0.179495 -0.154582 -0.029003 -0.081147 -0.098371 -0.067276
avenue -0.030688 0.006025 0.013990 -0.082214 0.077249 -0.164380 -0.079375 0.067827 0.084141 -0.258458 0.084616 0.040154 0.078901 0.224753 -0.059113 -0.108451 0.111816 0.095070 0.059780 0.062599 0.120051 0.164793 -0.091052 -0.168541 -0.036711 -0.010580 -0.031548 0.084412 0.023011 0.148931 0.090621 -0.039631 0.096238 -0.034015 -0.089881 0.071844 0.029227 0.125840 -0.027079 -0.076091 -0.159489 0.005890 -0.121470 0.080858 0.078884 0.073456 0.019406 0.012185 -0.013461 -0.091764 0.002778 -0.103552 0.041954 0.007259 -0.022191 -0.100932 -0.112032 0.098272 -0.021197 0.017813 -0.094226 0.088017 0.000167 -0.027063 0.088876 -0.037590 0.064306 -0.036030 -0.032376 -0.100385 -0.018409 -0.183048 0.057032 0.004345 -0.125627 0.051947 0.014502 0.037575 0.057277 0.086204 -0.074591 0.109236 -0.066516 0.004141 -0.054948 -0.017974 -0.059102 0.090619 -0.061744 -0.078933 -0.086123 0.009694 -0.032137 0.057646 0.194371 -0.000167 0.002619 -0.010480 0.243871 -0.211137 -0.012459 0.002719 -0.025069 0.018302 -0.029924 0.008061 -0.026826 -0.040836 -0.028170 0.121190 0.059273 0.010232 -0.082446 -0.081158 0.151301 0.094972 -0.095373 0.180616 0.011621 -0.045564 -0.090660 -0.011668 0.167980 -0.021727 -0.062174 0.121793 0.046762 -0.029098
baby 0.010095 0.120729 0.102252 0.031071 0.014337 -0.031268 -0.022900 -0.069061 0.012659 -0.019580 -0.241185 0.004878 -0.029137 -0.016357 0.041207 0.060521 0.170505 0.061699 0.002393 -0.105159 0.154580 -0.012706 -0.295401 -0.098570 0.068346 -0.145859 0.033960 0.198652 -0.047754 -0.086184 -0.003004 0.103710 0.076585 -0.106042 0.014153 -0.030694 0.029882 -0.000888 -0.063242 0.112333 0.002839 0.041772 -0.011418 -0.040649 0.112726 0.102060 -0.081899 0.089065 0.027984 0.111217 -0.048071 0.015259 -0.066744 -0.010450 -0.067178 -0.018493 0.026621 0.080893 0.057851 -0.115432 0.036929 0.044109 -0.015351 0.006337 0.077358 -0.093851 0.154150 0.031541 -0.004945 -0.109001 0.103145 -0.058633 0.206610 0.011738 -0.026070 0.121892 0.006214 0.101203 -0.030019 0.014491 -0.143360 0.155705 -0.056889 0.028493 -0.007152 -0.087117 -0.178581 0.161452 -0.069589 0.155925 -0.025739 0.078801 0.050784 -0.135479 0.046504 0.094258 0.067260 -0.085730 0.072578 0.001897 0.108394 -0.020308 0.010209 0.149521 0.096012 -0.076133 0.015670 0.002828 -0.008514 0.027233 0.031098 -0.001820 0.090226 0.055284 -0.049573 -0.056785 -0.210277 0.027921 0.096095 0.160981 -0.035812 -0.009813 0.092039 -0.122068 -0.043626 -0.078854 0.023024 0.059396
bank -0.019924 0.132736 0.139469 0.030638 -0.176684 -0.079094 0.075388 0.096933 -0.059780 0.024752 0.037837 0.088807 -0.018514 0.126393 -0.035126 0.129746 0.000015 0.228199 -0.133635 -0.053108 0.059395 0.166782 -0.126119 0.014118 -0.033083 0.084968 -0.076204 0.025008 0.091334 0.255370 -0.025762 -0.080270 0.040247 -0.017617 -0.079030 -0.141184 -0.213934 0.269224 -0.102314 0.028656 -0.032260 -0.088771 0.101851 0.098204 0.026028 -0.010129 0.067316 -0.034126 -0.017774 0.107833 0.079494 -0.043723 0.009100 0.040617 -0.053167 -0.014540 0.083530 -0.038947 -0.003069 -0.070963 -0.020811 -0.053227 -0.047226 0.063742 -0.009474 -0.087116 0.080734 -0.047536 -0.056413 -0.119697 0.044125 -0.019826 0.051270 -0.000521 0.014757 -0.101324 -0.030430 0.120103 -0.004798 -0.007027 0.033592 0.058676 -0.081931 -0.005226 -0.099994 -0.159261 -0.064781 0.121540 0.104799 0.140394 0.040920 0.006989 -0.027279 0.004390 0.027614 0.027615 -0.029969 -0.228267 0.047612 -0.105146 0.003545 0.014395 -0.111079 -0.068631 0.081023 0.023415 -0.108881 -0.123909 0.058347 0.158459 -0.030841 -0.091023 -0.040302 -0.000461 -0.034537 -0.112020 -0.021556 0.083270 0.108471 -0.008281 0.028393 -0.093070 -0.027749 0.101093 -0.002058 0.058677 -0.127308 -0.094144
baseball -0.064140 -0.020119 0.058952 -0.063803 -0.004301 -0.132273 0.031361 -0.021899 0.085937 0.053399 -0.149344 -0.140716 0.264183 0.135182 -0.049145 -0.128156 -0.051512 0.252901 0.110011 -0.035410 0.058302 0.094230 -0.132535 -0.049373 -0.163370 0.006547 0.088680 -0.057478 -0.014923 0.013068 0.004590 0.025149 -0.120424 -0.026800 0.053434 0.028032 0.005384 0.005113 -0.015212 -0.060731 -0.077755 0.071818 0.071727 0.067289 -0.093135 -0.079106 0.128422 0.065418 0.056930 -0.050112 -0.022307 -0.096625 0.043549 -0.016805 -0.050726 -0.031211 -0.074056 0.098905 -0.037079 -0.036983 0.015415 -0.023037 -0.082969 -0.108612 0.064743 0.208314 0.123135 0.007071 0.147528 -0.020900 0.060602 0.080199 0.106167 0.184175 -0.121149 -0.125755 0.084852 0.026094 0.103705 -0.047078 -0.046342 -0.006597 -0.077145 0.018146 -0.140135 0.040015 -0.139842 0.006906 -0.007880 -0.024733 0.016865 0.000396 0.063338 0.044865 -0.078145 0.126483 0.063794 -0.066478 -0.015536 -0.114473 -0.046188 -0.161362 0.067434 -0.029966 0.077414 0.176283 -0.112088 -0.028057 0.017885 0.043990 -0.059103 -0.039373 0.125674 -0.120431 0.043961 -0.013007 -0.136408 0.013992 0.151942 0.181938 0.006412 -0.063655 -0.064690 0.045214 -0.106857 -0.014958 0.087906 -0.005877
basketball -0.124088 -0.075758 0.083913 -0.066189 -0.059218 -0.092324 -0.009170 0.063965 -0.005944 0.137086 -0.139395 -0.134912 0.170885 0.082719 -0.047493 -0.014990 -0.042143 0.097141 0.034240 -0.038310 -0.061910 -0.044949 -0.140793 0.005999 -0.066817 -0.069856 -0.065713 0.106066 -0.014516 0.031868 -0.018863 0.105520 -0.086331 0.047073 -0.032528 -0.011244 -0.089513 -0.080068 -0.042897 -0.068489 -0.193274 0.004129 -0.031654 0.189286 0.066425 -0.126165 0.160480 0.106511 0.095463 0.019503 -0.001050 -0.193207 0.044525 -0.081626 0.060532 0.072492 0.056634 -0.030571 0.010662 0.011499 -0.108536 -0.125788 -0.023259 -0.106032 -0.023127 0.036848 0.135248 -0.071337 0.151823 -0.020822 0.224692 0.002548 0.119537 0.041531 -0.057546 -0.014398 0.084795 -0.042602 0.118407 -0.039469 0.027427 0.012418 -0.064819 -0.053446 -0.066050 -0.071414 -0.186938 -0.021522 0.056245 -0.064229 -0.035935 -0.025189 0.190841 0.037170 -0.054302 0.004911 0.067207 0.020144 -0.065234 -0.060126 -0.175895 -0.230066 0.047417 -0.029698 0.102046 0.078881 -0.110734 0.051496 0.039928 0.061261 -0.001974 -0.078652 0.061832 -0.063351 0.005811 -0.006303 -0.201306 -0.003395 -0.029761 0.091183 -0.141567 -0.002277 0.063409 -0.065168 -0.093743 0.064389 0.062259 -0.124960
bed 0.009268 0.150516 0.084426 -0.035927 -0.072880 -0.107675 -0.015680 0.011856 0.087802 -0.096126 -0.182499 0.016650 -0.027676 0.015816 -0.044915 -0.012616 0.070083 -0.062453 0.036954 0.031884 0.169256 -0.105292 -0.153224 -0.161835 -0.018339 -0.125116 0.098377 0.010175 -0.006981 -0.051137 -0.092602 0.094088 0.110036 -0.106484 -0.003685 -0.122898 0.062911 -0.082015 0.033049 0.044336 -0.005634 0.000478 -0.073915 0.123158 -0.018598 0.134218 -0.000471 0.071249 -0.004464 -0.005093 0.037216 -0.013175 -0.012989 -0.042082 -0.080798 -0.010723 -0.015609 0.074417 0.239999 0.109676 0.048078 -0.043369 0.154917 -0.033531 0.041489 -0.065857 0.150124 -0.027680 0.103704 -0.097663 0.091373 -0.074889 0.090613 -0.013443 0.030849 0.050584 -0.043351 0.089750 0.133944 0.110006 -0.046038 -0.033992 -0.104662 -0.019264 -0.052699 -0.075934 -0.055967 0.100596 -0.197930 0.135261 0.043227 0.222591 -0.087307 -0.066137 -0.027555 -0.009793 0.061736 0.008442 0.065859 -0.080343 -0.009535 -0.048338 -0.111265 0.166015 0.110565 -0.002095 -0.073936 -0.099330 0.056944 -0.084015 -0.018274 -0.018149 -0.074622 -0.129387 0.079376 -0.087353 -0.104789 0.060573 -0.047304 0.088723 -0.173113 -0.145851 0.100950 -0.131529 -0.125951 0.023900 -0.019969 -0.119519
benchmark -0.025224 0.142255 0.022969 -0.024470 -0.041979 0.068299 0.099594 0.018996 0.011680 -0.051630 -0.014172 -0.056722 -0.129502 0.136590 0.057295 -0.012903 0.102678 0.164567 0.013913 -0.145523 0.039884 0.064941 -0.157927 -0.013634 -0.143635 -0.126021 -0.055718 0.022290 -0.077747 0.074726 -0.041642 0.049342 0.125519 -0.024986 -0.044624 -0.019821 -0.117012 0.051294 0.000215 0.139917 0.054344 -0.067463 0.052578 0.125501 -0.031876 -0.116021 0.008201 -0.141718 -0.031932 -0.005140 -0.119097 -0.036853 0.028602 0.146507 -0.015297 0.003454 0.107493 -0.130932 -0.027533 -0.136027 0.113733 0.149727 -0.018474 -0.031632 0.029952 -0.058076 0.096934 -0.184243 -0.097673 0.124518 0.011000 -0.024289 0.120449 0.083954 0.065430 -0.156639 -0.144468 -0.014616 -0.134292 0.032753 0.098919 0.155852 -0.009181 -0.053353 -0.056891 -0.008583 0.197027 0.071487 -0.030739 0.084478 -0.057794 0.063325 0.053218 0.091179 -0.054608 -0.040446 0.095105 -0.090818 -0.002124 -0.034478 -0.122029 0.156393 -0.007192 -0.035068 0.162806 -0.039067 -0.062937 -0.084179 -0.180245 0.019449 0.008899 -0.047335 -0.005975 -0.108876 0.013827 -0.153606 -0.095450 0.041518 0.060325 -0.119817 -0.067905 -0.099964 0.098946 0.039274 0.041995 -0.084794 -0.064202 -0.122474
bird -0.054901 0.067702 -0.015142 0.045043 -0.094523 -0.044728 0.022365 0.034162 0.026153 -0.073298 -0.118090 -0.058176 0.025268 -0.012231 -0.023368 -0.112682 0.055652 0.000563 0.119418 -0.163898 0.023463 -0.006042 -0.038368 -0.061698 0.073118 -0.038399 -0.026756 0.276428 -0.084153 0.064674 -0.026167 -0.103838 -0.021375 -0.221112 0.103288 0.013909 -0.218663 0.014479 0.032035 0.023740 0.030469 -0.059062 -0.047330 0.015525 0.005611 -0.077379 -0.052617 0.008592 -0.058267 0.035801 0.054976 0.023998 -0.015458 0.063739 -0.033291 -0.172429 -0.002945 0.144109 0.041413 -0.035826 -0.100564 0.025759 -0.146085 -0.023089 0.189790 -0.066294 0.058628 -0.013938 0.120340 -0.105567 0.106966 -0.018150 -0.020407 -0.128183 0.067098 0.088484 0.119701 0.067742 0.058535 -0.089733 0.014500 0.051625 -0.023881 -0.092172 -0.006123 -0.108223 0.039701 0.113734 -0.113343 0.005236 0.001236 0.008115 0.037164 0.013393 -0.049974 0.074588 0.031762 0.004732 0.093196 0.151498 0.016844 -0.077497 -0.147037 -0.028019 0.059843 0.006772 -0.201139 -0.071337 0.109757 -0.043984 -0.174372 -0.153026 0.003496 -0.144208 0.046323 0.095656 -0.234933 0.029275 0.079376 0.231939 0.007024 0.027886 0.093100 -0.059480 0.046158 -0.061432 0.077672 0.067747
bishop -0.050786 0.062442 -0.058347 -0.053425 0.144179 -0.129094 -0.099944 0.061916 -0.046935 -0.022132 -0.086900 0.098202 0.097051 0.005866 -0.088774 -0.065620 0.038154 0.103019 -0.005938 -0.046706 0.062452 -0.034310 -0.097527 0.017590 -0.119802 0.010704 -0.192202 0.103540 -0.028654 0.039598 0.107776 0.158525 0.158642 -0.055672 -0.127626 -0.052662 0.018289 0.067643 -0.132753 0.142179 -0.246590 0.097456 -0.037133 0.087477 0.154079 0.085361 -0.083082 0.255947 0.111219 0.052201 0.033882 -0.075924 -0.040328 -0.026089 -0.073279 -0.125865 0.007274 0.012285 0.119341 -0.109646 0.012841 0.042787 0.038067 -0.134414 -0.090115 -0.050020 -0.027978 -0.069048 -0.029316 -0.083873 0.123173 -0.053411 0.094348 -0.023973 -0.183325 0.095953 -0.024702 0.037773 -0.061181 -0.029133 0.138777 0.089862 -0.017085 -0.102624 0.003840 -0.037595 -0.067764 0.093443 -0.074733 0.050109 0.186076 -0.001118 -0.016247 -0.005384 0.022719 -0.002943 0.071096 -0.124431 0.056888 -0.013246 -0.107932 -0.039468 -0.041417 0.010886 0.057971 -0.087137 -0.015203 -0.043358 -0.093894 0.149235 -0.192703 0.088035 -0.062559 0.057734 -0.014428 -0.022837 0.044205 0.016405 -0.019665 0.094713 -0.043105 0.039059 0.020000 0.158686 -0.105880 0.046085 0.011183 0.100935
block 0.013288 0.048460 -0.040283 0.107743 0.050291 -0.132518 -0.033916 0.082955 0.096588 -0.129000 -0.083811 -0.069397 0.136194 0.215699 -0.086878 -0.066876 0.181603 0.248930 -0.019558 -0.016077 0.041177 0.005790 -0.024137 -0.011238 0.033235 -0.084244 -0.060533 0.050683 0.038045 0.069624 0.102757 -0.043820 -0.028163 0.132842 -0.082603 -0.030217 -0.064697 0.026260 0.058553 0.044962 -0.053027 -0.095978 -0.144527 0.119166 -0.012302 0.003636 0.023169 0.125409 0.065350 -0.055056 -0.068809 -0.022034 0.058736 0.049195 -0.046900 -0.199286 -0.108764 -0.080657 0.093676 -0.108891 -0.048316 0.052731 0.120491 -0.110908 0.072555 -0.048688 0.064509 -0.033069 0.062433 -0.184132 -0.082266 -0.107126 0.080845 -0.039684 0.029477 0.119684 -0.071814 0.004653 -0.056855 -0.057458 -0.027615 0.045510 0.104672 0.025440 -0.098439 0.021913 -0.120720 0.101481 -0.032848 -0.012024 0.020269 0.097603 -0.108213 -0.076202 0.038895 -0.044545 0.040197 -0.132084 0.069059 -0.024966 0.015519 -0.009162 0.127258 -0.004030 -0.193819 0.076795 -0.024686 -0.178022 -0.064143 -0.001997 0.004314 -0.072021 -0.177099 -0.073191 0.087483 0.002117 -0.120725 0.011994 -0.101311 -0.013290 -0.090540 -0.058015 0.204910 -0.176074 -0.036630 0.009723 0.041354 -0.099046
board -0.089629 0.032434 0.067290 0.043462 -0.020043 0.006138 0.031201 0.043083 -0.058043 -0.041991 -0.124783 0.071589 0.209138 0.121621 0.104298 -0.153326 -0.014014 0.094996 -0.096826 -0.022032 -0.028393 -0.169776 -0.171075 0.018597 -0.127093 -0.085978 -0.010176 -0.002682 0.050993 0.116058 0.053378 0.025850 -0.022240 -0.168134 -0.060837 -0.008571 -0.182159 0.108064 -0.112508 0.120721 -0.126087 0.135114 0.003826 0.116200 -0.017448 0.010580 -0.132122 0.001862 -0.023956 -0.010151 -0.034033 -0.075380 0.083844 0.206285 -0.031391 0.063084 -0.032691 -0.083091 0.048044 -0.100356 0.062113 -0.037420 0.051232 0.002998 -0.005596 -0.071617 -0.027235 -0.059082 0.107900 -0.148283 -0.015590 0.159073 0.039208 0.006162 0.074141 0.041424 -0.055856 -0.028344 0.022836 -0.002549 0.110639 0.051587 -0.075232 -0.153334 0.005053 -0.146993 0.028629 0.038383 -0.011528 0.162534 0.038159 -0.028623 -0.068051 0.071992 -0.111628 0.120230 0.148479 -0.236856 0.067283 -0.047195 -0.017275 -0.122643 0.136183 0.021766 0.018180 0.065195 -0.014459 0.055589 -0.073548 -0.057840 -0.087601 -0.012308 0.163703 0.011832 -0.149517 0.009449 -0.105765 0.019791 0.050558 -0.105792 -0.088018 -0.056613 0.145616 -0.007054 -0.116152 0.025658 -0.007688 -0.014908
book 0.018131 0.012655 0.072567 0.005302 0.037621 0.051221 -0.019108 0.001443 -0.055697 0.046058 0.000189 0.045972 0.100116 0.025491 0.009931 0.069126 -0.004474 0.210294 0.081740 -0.102660 0.052229 -0.079080 -0.062546 -0.134727 0.085041 0.058488 0.019606 0.026894 -0.042813 0.139609 0.078162 -0.147206 0.088392 -0.138520 -0.124594 -0.000137 0.014536 -0.092194 -0.077177 0.109280 -0.156242 0.162478 -0.100471 0.052776 -0.057811 0.034979 -0.098943 0.062267 0.086819 -0.115730 -0.006987 -0.093660 -0.087064 -0.114640 0.035822 0.055846 0.045846 -0.027004 0.050488 0.042349 0.040522 -0.139344 -0.005707 -0.026933 0.005177 -0.097355 0.150725 0.114353 0.002185 0.180942 0.042364 -0.149311 0.096702 0.081272 -0.152804 -0.087846 -0.014353 -0.010004 0.065774 0.038027 0.075328 -0.073066 -0.115659 0.059120 0.082619 0.019552 -0.057784 0.176879 -0.079849 0.107907 0.085900 -0.118527 -0.038351 0.073293 -0.083172 0.073483 0.246753 -0.112756 0.151158 -0.082171 0.019552 -0.013354 -0.042866 -0.039195 0.042772 0.044346 -0.012589 -0.144315 0.085786 -0.017455 -0.041260 0.011391 0.049864 -0.142854 0.077717 -0.092102 -0.100963 0.070866 0.025890 0.137040 -0.079440 -0.176899 0.156448 0.088121 0.064063 0.043923 0.017055 0.073511
boxing 0.027091 0.095401 0.035315 0.150450 -0.023528 -0.164107 0.096385 0.047515 0.219209 0.045512 -0.012299 -0.029255 0.048206 -0.041633 0.134706 0.008768 -0.032561 0.154777 -0.000019 0.008306 -0.061351 -0.035580 -0.136332 0.039422 -0.164122 -0.032914 0.049467 0.103795 -0.064578 0.022776 -0.109047 0.070703 -0.118809 -0.213167 -0.164080 -0.003685 0.037851 -0.014874 -0.004928 0.008368 -0.135852 -0.092329 -0.078407 -0.021126 0.042953 -0.021458 0.091424 0.177888 0.097554 -0.024170 0.071416 0.008087 0.089556 -0.126991 0.066756 0.014780 -0.038434 0.034969 -0.077381 0.021948 -0.073460 -0.123850 -0.110019 -0.041990 0.135057 -0.055029 0.034859 -0.073438 0.004508 0.066188 0.096487 -0.036515 0.176069 0.038767 0.064246 -0.082448 0.094588 -0.011765 0.025387 -0.044268 0.001253 0.070710 -0.114934 -0.122221 -0.024939 -0.213639 -0.147676 -0.018728 -0.003183 -0.059169 0.025580 -0.032275 0.051058 0.004342 0.159121 0.095188 0.021153 -0.003497 0.036218 -0.014929 -0.031815 -0.175247 -0.020891 -0.093134 0.057099 0.042521 -0.084139 0.020400 -0.034877 -0.055328 -0.082079 -0.091382 0.146511 -0.102622 -0.014364 0.012566 -0.221285 0.022473 0.061510 0.224837 -0.144925 -0.018511 0.055014 0.040186 -0.068254 0.023150 0.024867 -0.065052
boy 0.043151 0.016124 0.073652 0.019607 0.065949 -0.137655 -0.009045 0.086455 0.022596 -0.055767 -0.145849 0.024508 0.044639 -0.029741 -0.044211 -0.055857 0.089953 0.185322 -0.024772 0.006680 0.158432 -0.043879 -0.189253 -0.050318 -0.086759 -0.123254 -0.002470 0.172241 0.015435 -0.034600 0.079297 0.024137 0.078142 -0.106418 -0.135437 -0.061793 0.032795 -0.195440 -0.082282 0.028716 -0.095112 0.039994 -0.013884 0.004753 0.014088 0.096576 0.003878 0.055178 -0.016302 0.182217 0.030768 -0.020115 -0.076479 0.002673 -0.163671 -0.070035 0.101538 0.059193 0.061210 -0.169571 0.066324 -0.085476 -0.012453 -0.095969 0.095514 -0.090674 0.160348 0.083523 0.056936 -0.091918 0.119548 -0.077842 0.180287 -0.070964 0.006216 -0.020705 0.001549 0.138813 0.057791 0.009462 -0.024713 0.106862 -0.056832 0.033395 -0.125307 -0.013546 -0.090201 0.127139 -0.116995 0.069446 0.073726 0.081006 0.037766 -0.041006 0.019205 -0.048507 -0.007902 -0.023413 -0.093820 0.045906 0.080901 -0.173338 0.083290 0.093339 0.159546 0.119204 0.033551 0.014309 -0.001518 -0.020986 0.014135 -0.098335 0.094870 -0.122727 -0.037423 -0.014784 -0.185630 0.121669 0.107315 0.110130 -0.032521 -0.102048 0.131067 -0.112035 -0.046553 0.025687 0.120477 0.032614
brandy -0.055605 -0.039208 0.032679 -0.028951 -0.057738 -0.230321 0.089299 0.163791 0.120774 -0.102795 -0.053928 0.190958 -0.030261 0.037172 -0.056844 -0.096076 0.241133 0.041776 -0.100445 -0.157630 0.128906 -0.169922 0.050500 -0.202075 0.061919 -0.025963 0.038808 0.103897 -0.032293 -0.038092 0.003468 -0.046359 0.166833 -0.148326 -0.140782 0.058924 0.109665 0.085850 0.045072 0.017610 -0.096956 0.032389 0.039673 0.136299 -0.045527 0.071575 0.086798 0.140913 -0.041531 -0.057853 -0.080826 -0.010059 -0.101148 -0.026434 0.013108 0.052703 0.035092 0.098001 0.011312 -0.035788 -0.092867 0.042527 0.068186 -0.015934 0.040047 -0.025070 0.091146 0.000978 0.036699 0.016667 0.017276 0.018464 0.079958 0.023802 -0.206256 0.039176 0.013036 0.087069 -0.070903 0.024870 -0.105184 -0.053512 0.002145 0.135292 0.001555 0.046291 -0.069138 0.220547 -0.167224 -0.043322 -0.148173 -0.010621 0.041535 -0.064242 0.009000 -0.098546 0.003643 -0.019195 0.044268 0.031636 0.087760 -0.077166 -0.048182 -0.014792 0.031053 -0.006418 -0.177879 -0.155014 -0.025460 0.051222 -0.080373 0.034151 0.024789 0.035520 0.023183 -0.086559 -0.091944 0.133765 -0.012649 0.098360 -0.118166 0.032808 0.009284 -0.067557 -0.099501 -0.042465 0.085669 -0.009414
bread 0.044158 0.179361 0.112218 -0.141662 -0.052313 -0.035243 -0.055106 0.054460 0.172167 0.008844 0.036562 0.048465 0.003637 -0.021146 0.048679 -0.166517 0.279083 0.031944 -0.017431 -0.144841 0.114550 -0.149516 -0.036394 -0.059394 0.034896 -0.024057 -0.126219 0.035325 -0.060637 -0.053292 -0.003193 0.074606 0.102560 -0.166285 -0.040031 0.095062 -0.087361 0.076773 -0.039561 0.133698 -0.039894 -0.002906 -0.025583 0.041504 0.060099 0.148598 0.074176 -0.100199 -0.111497 -0.057555 -0.049630 -0.073902 0.019727 -0.088540 0.100722 0.061703 -0.020034 0.027651 0.109704 0.115855 0.136377 -0.001070 -0.043907 0.088764 0.017101 0.003245 0.029818 -0.040280 0.054874 0.023103 0.173829 -0.112831 0.173790 -0.020235 -0.143569 0.016590 -0.060547 0.036329 0.046063 -0.125914 0.075239 -0.082707 -0.146556 0.059916 -0.016256 -0.098562 -0.157801 0.017945 0.009097 0.034447 -0.109954 0.153163 -0.045949 -0.063677 -0.151000 0.076216 0.022877 -0.100389 0.018860 0.067584 0.044675 0.016373 -0.111483 -0.073373 0.106851 -0.022221 -0.085406 -0.225645 -0.104572 0.067423 -0.012567 0.017402 -0.001996 0.058568 0.077363 -0.029238 -0.062927 0.057350 0.010369 0.102849 -0.045175 -0.136783 0.052200 -0.051143 0.017771 0.010001 0.040644 0.116854
brother -0.060235 -0.070150 -0.069256 0.084850 0.038727 -0.282805 -0.117980 0.172734 0.049237 -0.025385 -0.083663 0.035426 -0.047794 0.063650 0.060195 -0.016534 0.127396 0.099063 -0.118084 -0.209173 0.157147 0.011974 -0.078374 0.056790 -0.067416 -0.085566 -0.041981 0.121877 0.034352 -0.023217 -0.092139 -0.023244 0.108001 -0.188995 -0.138619 -0.009628 0.084711 -0.199480 -0.076139 0.055632 -0.098428 0.076369 0.017449 0.054712 0.036133 0.051326 0.040412 0.216127 -0.007905 0.077494 0.018484 -0.083388 -0.129291 -0.037714 -0.121359 -0.019445 0.075181 -0.080088 0.054199 -0.001856 0.009385 -0.129161 -0.044963 -0.047109 0.075834 -0.072067 0.130808 0.078949 0.036965 -0.053223 0.079945 0.070030 0.166969 0.007846 0.056773 0.012794 -0.072789 0.059361 -0.052077 -0.035955 0.094932 0.008811 -0.047075 0.020827 -0.052650 -0.036645 -0.125290 0.144035 -0.097039 0.025937 0.107839 0.017900 -0.107919 -0.056517 -0.036420 0.063217 0.041842 0.011900 0.016750 -0.061018 0.104959 -0.129846 -0.064833 0.247944 0.042925 0.035033 -0.083439 0.008971 0.042283 0.012998 -0.005695 -0.010370 -0.026062 -0.101870 -0.022690 -0.007816 -0.194416 0.077930 -0.031394 0.013855 -0.089880 -0.012878 0.097958 -0.045681 0.014215 0.147525 0.020942 -0.009752
buck -0.013317 0.032479 0.137148 0.089081 0.092074 -0.230754 -0.059359 0.109271 0.157905 0.020066 -0.120205 0.013625 0.050911 0.109504 -0.010830 -0.110131 0.145597 0.183700 0.021292 -0.131241 0.050185 -0.039315 0.209609 0.053819 -0.164304 0.101159 -0.078946 0.097426 0.050258 -0.001184 -0.145824 -0.140631 0.036675 -0.037283 0.058840 -0.013368 -0.080768 -0.015628 0.019035 0.170094 -0.024332 0.078033 -0.033852 -0.054682 0.037551 -0.114279 -0.109197 -0.107041 0.117145 -0.026169 0.033571 -0.033994 -0.069473 0.037879 0.056162 0.034723 0.006643 0.142829 0.045899 0.030813 0.040501 0.104740 -0.132573 0.063090 0.071918 -0.022671 0.008451 -0.115369 0.099000 -0.030021 0.060441 0.019231 0.091964 0.058176 -0.016796 0.026383 -0.040024 0.024890 -0.042592 -0.106349 0.031779 0.036188 -0.070225 0.041114 -0.101132 0.003704 -0.122361 0.208047 -0.080971 0.039504 0.052989 0.059610 0.001355 0.031228 -0.027260 0.059573 0.078247 -0.112574 0.110257 -0.049902 -0.006600 -0.060199 0.046812 0.007959 0.090330 -0.021877 -0.101393 -0.034983 -0.083110 0.104747 0.033915 -0.000743 -0.021093 -0.066787 0.035652 0.077333 -0.063038 0.003901 0.218085 0.035342 -0.177950 0.051423 0.169850 -0.025013 -0.099998 -0.096467 0.186173 -0.107325
butter 0.035958 0.149837 0.056787 -0.104355 -0.024571 -0.028907 0.013392 0.087771 0.011655 0.040448 -0.160898 -0.018454 -0.014931 -0.004407 -0.019000 -0.245613 0.177889 -0.055817 -0.063125 -0.056037 0.041187 -0.147283 -0.091354 -0.085359 0.063099 -0.103347 -0.058292 0.154681 -0.035521 -0.026258 0.065131 0.001965 0.064979 -0.087664 0.003754 0.052724 -0.031463 0.093579 -0.109353 0.169396 0.004203 -0.012937 0.029533 0.074922 -0.000048 0.104556 0.051206 -0.131611 -0.074917 -0.107265 0.015331 -0.118984 -0.017834 -0.145203 0.137528 0.115590 -0.030280 0.100195 0.071786 0.172012 0.007138 0.031928 -0.051585 0.015027 0.056340 -0.007359 0.004336 -0.041539 0.165033 0.030627 0.223479 0.007199 0.171283 0.018780 -0.088226 0.096856 -0.063502 -0.009877 0.102715 -0.029115 0.131833 -0.119142 -0.126105 0.017833 0.025823 -0.063430 0.007858 0.136960 -0.014970 0.052640 -0.096860 0.071210 -0.018127 -0.143924 -0.148622 0.073836 -0.071811 -0.148347 -0.032217 0.100265 0.071241 0.007806 -0.047505 -0.051544 0.034243 -0.043983 -0.060674 -0.214651 0.008311 0.107297 -0.042579 0.022428 0.000138 0.037534 0.085416 -0.040069 -0.128602 0.074739 0.038603 0.115151 -0.094499 -0.102565 0.017932 -0.020043 0.102666 0.015424 0.054662 0.135131
cabbage 0.046235 0.097457 -0.013429 -0.123866 -0.122263 -0.059581 -0.016172 0.024939 0.110999 -0.066842 -0.035128 0.098837 -0.010193 0.029231 -0.003785 -0.138608 0.207501 -0.046366 -0.037164 -0.172776 0.110915 -0.111687 -0.115740 -0.156471 0.006562 -0.135037 0.075373 0.232005 -0.033804 -0.029745 0.083254 -0.082755 0.010028 -0.115935 0.014058 0.086970 -0.101262 0.080923 -0.100027 0.024349 -0.050507 -0.028439 -0.021051 0.077140 0.042257 0.037539 0.115107 -0.073282 -0.141849 -0.018082 -0.105542 -0.060934 0.038754 -0.107573 0.049730 0.032155 -0.050711 -0.040107 0.086117 0.103211 0.074727 -0.015100 0.020897 0.169895 0.023589 0.058988 0.077083 -0.103053 0.054322 0.011253 0.063530 -0.020318 0.158109 -0.050929 -0.087786 -0.139211 -0.009409 0.035941 -0.012289 -0.019076 0.002232 -0.098946 -0.135965 0.029475 0.016354 -0.109216 -0.048538 0.102720 -0.036230 -0.115941 -0.042979 0.118822 -0.044298 -0.121616 -0.224802 0.053288 -0.027406 -0.048010 -0.021530 0.057320 0.067757 -0.023765 -0.137846 0.026716 0.090737 -0.054622 -0.124275 -0.100011 0.058153 -0.005368 -0.196984 0.052663 0.052929 -0.016652 -0.020228 0.069795 -0.210240 0.044181 -0.126253 0.164164 -0.001966 0.056152 0.105531 -0.024716 0.031629 -0.094085 0.012815 0.088502
calculation 0.046592 0.113814 0.061806 -0.033793 -0.011029 0.173755 0.047018 0.072491 0.013905 -0.038361 -0.026742 -0.011722 0.114771 -0.060567 0.094819 -0.016316 0.092975 0.164226 0.111984 -0.148153 -0.098536 -0.070194 -0.077357 -0.025253 -0.068966 0.054761 -0.115335 -0.080351 -0.096858 -0.003079 0.006280 -0.193896 0.199699 -0.089074 0.000110 0.043037 -0.060898 0.002838 0.109133 0.141366 -0.103204 0.112424 0.022813 0.072053 -0.198110 0.013478 0.091149 0.002745 0.202564 -0.011002 0.095415 0.054615 -0.017460 -0.139906 0.146381 0.026174 -0.050219 -0.090810 0.102856 -0.011975 0.034596 -0.015710 0.052551 0.044428 -0.060106 0.040185 0.031636 -0.144708 0.029038 0.018661 0.090552 -0.068974 0.110393 -0.082136 -0.012413 -0.064018 -0.056628 0.079410 0.007992 0.022491 0.109213 0.060807 -0.033754 0.098862 0.033157 0.093413 0.037068 0.076315 0.042195 0.130947 0.055655 -0.050110 -0.068484 -0.011059 -0.035540 0.112557 0.179892 -0.130249 -0.036464 -0.075814 -0.015063 0.089497 0.035663 0.085592 0.205119 0.005589 0.017916 0.134242 0.061995 -0.029591 -0.079231 -0.050160 -0.196975 0.006862 0.046471 0.131052 -0.126284 0.040914 0.186013 0.061024 -0.039431 -0.060950 0.082818 -0.125240 -0.000489 0.085110 -0.066232 0.022301
canyon -0.094441 0.014232 0.131589 -0.138002 0.027764 -0.192567 -0.000346 0.003785 0.062918 -0.128374 -0.161020 -0.069697 -0.092355 0.001321 0.055521 -0.067314 -0.081289 0.069919 0.083879 0.031885 0.033433 -0.130779 -0.105762 -0.036443 0.048322 0.088080 -0.003532 0.067741 0.068002 0.039409 0.092086 -0.086273 -0.039382 -0.176616 0.018297 0.035447 -0.066084 0.091489 -0.126994 -0.049499 -0.046619 0.114571 -0.212738 0.090761 0.074185 0.131538 -0.014098 -0.085897 0.074992 0.022950 0.012596 -0.104541 0.009541 0.001794 -0.027050 0.007491 -0.015540 0.169156 0.116272 -0.036941 -0.218513 0.228901 0.039475 -0.062893 0.116503 -0.009738 0.061053 0.021883 0.061669 -0.041451 -0.143130 -0.037882 -0.090684 -0.051747 -0.045791 -0.067595 0.065761 0.102529 0.125545 0.026807 0.042550 0.086545 -0.073091 0.100341 -0.103948 0.057035 -0.050124 0.118132 -0.140683 0.038927 -0.077664 -0.033136 0.104480 -0.076143 0.031200 -0.021576 0.028315 0.043704 -0.075360 -0.000649 -0.163951 -0.069324 0.019314 -0.096932 0.017078 -0.027677 -0.105414 -0.040771 0.018870 0.002102 -0.165523 -0.022606 0.015744 -0.129590 0.086762 -0.006236 -0.079470 0.153234 -0.012906 0.024298 -0.036707 -0.089423 0.087379 -0.110555 -0.149361 0.041185 0.052166 -0.175488
car -0.060743 -0.001511 0.183866 -0.029348 -0.096867 -0.260982 -0.038983 0.077873 0.097989 -0.225288 -0.088602 -0.028891 0.016554 0.031580 -0.055602 -0.063192 0.050806 0.029643 -0.008879 -0.073627 0.110816 0.049470 -0.126726 -0.026879 -0.001315 -0.045007 -0.035956 -0.114067 0.064095 0.046993 0.002076 0.114599 0.129511 -0.160569 0.070187 -0.188018 0.065216 -0.060206 -0.023003 0.024656 -0.114052 0.069121 0.016179 0.028388 0.005035 0.050387 -0.028931 -0.092853 0.047457 -0.027866 0.028013 -0.027726 -0.023600 -0.081448 0.006379 0.058787 0.082067 -0.137869 0.119415 0.018793 -0.119704 0.110293 -0.009479 -0.082943 0.147567 -0.110527 0.000719 0.051223 -0.134791 0.023276 -0.023834 0.056074 0.167423 0.016560 -0.060689 -0.022973 -0.062682 0.033688 0.057239 -0.033166 0.039843 0.060898 -0.005175 0.008177 0.084987 -0.019627 -0.267230 0.002837 0.031629 0.046483 0.099615 -0.018751 -0.021832 0.007495 -0.022368 -0.049120 -0.131992 -0.072786 0.117398 -0.054886 0.068515 -0.081097 -0.091189 -0.075502 0.105670 0.003494 0.037836 -0.101016 0.095330 0.105414 0.073256 -0.089245 -0.108756 -0.143074 -0.034049 0.098402 -0.072123 0.058988 0.166447 0.014091 -0.111401 -0.106988 0.216321 -0.174915 -0.016494 -0.070773 0.006845 -0.036838
card 0.048648 0.108433 -0.030961 0.087205 -0.085270 -0.032059 0.099943 -0.004455 -0.085892 0.064352 -0.083698 0.026042 0.149014 0.058641 0.087605 -0.066691 -0.059192 0.118173 0.046986 -0.099996 0.219692 0.080778 -0.175507 -0.123035 -0.094107 0.201048 -0.059813 0.089499 0.066809 0.038800 -0.105678 -0.052718 0.035268 -0.024240 -0.112040 -0.119698 0.053717 -0.020516 -0.012159 0.134712 0.016091 0.037487 -0.019650 -0.041734 -0.076404 -0.082834 0.078850 0.078045 -0.059469 -0.057524 0.061801 -0.045082 -0.003218 -0.115225 0.034914 0.081784 0.131174 0.008302 -0.027764 -0.021990 -0.076894 -0.134663 0.105421 0.171552 0.104508 0.139127 0.152088 0.021521 -0.023227 0.019858 -0.000784 0.003018 0.009930 -0.120727 -0.076350 0.054854 -0.015238 0.012810 -0.027435 -0.129707 -0.037061 0.028312 -0.086236 0.015873 0.055874 0.043390 -0.136076 0.052288 0.073903 0.022414 0.050874 -0.033320 -0.033631 0.083103 0.074151 0.040062 0.001702 -0.262867 0.086776 -0.075478 0.102169 -0.019184 -0.143238 -0.143928 0.010061 0.029423 -0.040130 -0.186160 0.004095 -0.004283 -0.012210 0.077315 -0.119486 -0.136024 0.007964 0.026644 -0.047877 0.093492 0.195392 0.011629 -0.022292 0.157505 0.049600 -0.032557 -0.131314 -0.008618 -0.042902 -0.169880
carnivore 0.004096 -0.009809 0.071400 0.069019 -0.058518 -0.072421 0.025417 -0.019964 0.098198 -0.011257 -0.103274 -0.036502 -0.052798 0.103339 0.048532 -0.041716 0.113412 0.099186 0.144622 -0.154353 0.106596 -0.049281 -0.149983 -0.096841 0.160470 -0.008176 -0.048938 0.193261 0.031313 0.042373 0.115120 -0.111733 -0.046949 -0.128073 0.055886 -0.082156 -0.130122 0.071088 0.062648 0.017730 -0.087407 -0.032630 -0.017769 0.045849 0.008773 -0.140086 -0.058104 0.085516 -0.074492 0.081796 0.104800 0.027744 -0.023679 -0.024431 -0.004461 -0.122914 0.021648 0.154484 0.125825 0.007505 -0.050016 -0.016078 -0.148024 0.105876 -0.000960 -0.026990 0.010251 0.000615 -0.012144 0.021306 0.266086 -0.086071 0.029329 -0.069799 -0.037072 -0.032605 0.026759 0.115055 0.074015 -0.202381 -0.085848 0.046544 -0.079978 0.081991 -0.018981 -0.142396 0.144588 0.015580 -0.005754 0.086544 0.003930 0.052118 -0.059531 -0.141609 -0.121114 0.001525 0.035053 0.016632 0.036762 0.066941 0.056410 0.061983 -0.162810 0.012205 0.023430 0.020568 -0.056690 -0.177734 -0.008773 -0.003370 -0.237997 -0.003462 -0.071920 -0.059910 0.102019 0.048383 -0.075338 -0.080261 -0.024571 0.099195 -0.145391 -0.040822 0.039715 -0.146627 0.031212 -0.156376 0.088989 0.056571
cash 0.013484 0.071197 0.126758 0.025808 -0.026429 0.022664 0.082731 0.148511 -0.069153 -0.076694 -0.143588 0.066323 0.012961 -0.057274 0.047289 -0.002577 -0.032940 0.235537 -0.029966 0.040570 -0.102913 -0.069067 -0.122677 -0.043639 -0.175385 0.057535 -0.085456 -0.040940 -0.005202 0.111843 -0.097327 -0.143805 0.136847 -0.020651 -0.056955 0.020881 -0.024280 0.043471 -0.007584 0.104994 -0.001371 0.055685 0.050306 0.192350 -0.048633 -0.018752 0.018853 -0.109521 0.033056 0.005854 0.102146 0.108027 -0.067356 -0.035536 0.032471 0.113378 -0.005853 -0.095210 -0.044843 0.043135 -0.011088 0.106079 -0.012429 0.065864 0.130227 0.110484 -0.142524 -0.002463 0.183375 -0.142262 0.034583 -0.102498 0.000074 -0.065453 -0.036189 0.055025 0.029066 0.069891 -0.006209 -0.105721 -0.042717 0.005487 -0.032426 0.018187 0.019210 -0.042890 -0.116024 0.148643 0.032563 0.026624 0.040889 -0.048202 -0.007237 -0.028591 0.027206 0.021562 0.064191 -0.217512 -0.027254 -0.187435 0.148341 0.021981 -0.113467 -0.058422 0.214442 0.017476 -0.095897 0.016831 -0.033359 0.109369 0.007542 -0.004825 -0.132688 0.001236 -0.067220 0.008759 -0.119729 0.104719 0.163640 0.063495 -0.140760 -0.138193 0.028252 -0.037503 0.017661 0.018878 -0.082110 -0.228463
cat 0.047316 0.101958 0.122739 0.171170 -0.022226 -0.147898 -0.011713 0.089413 0.056409 -0.019842 -0.075210 0.066611 -0.013545 0.057619 -0.058580 0.014212 0.108922 0.095003 0.012633 0.009289 0.175828 0.004873 -0.215783 -0.163581 0.068981 -0.104358 0.011879 0.099975 -0.038594 0.083867 -0.040126 -0.057852 -0.072541 -0.154579 0.118871 -0.060227 -0.081361 -0.036912 0.034055 0.177850 -0.038456 0.072118 -0.061894 0.071252 -0.107101 0.025565 -0.065961 0.102037 0.009760 0.067025 0.034724 -0.073297 -0.085903 0.030819 -0.038856 -0.021470 0.064730 0.027927 0.143151 0.017410 -0.014434 0.057137 -0.001300 0.056118 0.010998 -0.072038 0.088903 0.063303 0.037009 -0.049981 0.169576 -0.081143 0.069822 -0.023552 0.045560 0.024477 0.111785 0.154490 0.137374 -0.087291 -0.063232 -0.096548 -0.190606 -0.032511 0.091958 -0.049818 -0.022030 0.154880 -0.082054 0.006136 -0.008638 0.023319 -0.079954 -0.051789 -0.021288 0.104289 0.035485 0.003164 0.094587 0.190208 0.089899 -0.051316 -0.000568 0.047266 0.011002 0.085901 -0.140288 -0.115148 -0.036597 -0.023743 -0.011893 -0.059087 0.076902 -0.152955 0.120464 0.144728 -0.214252 0.045295 0.133971 0.118643 -0.061020 -0.098437 0.066858 -0.117645 -0.009376 -0.112697 -0.004220 0.084395
category -0.055916 0.024005 0.052512 0.064002 0.066311 -0.145136 -0.037103 0.074867 -0.049395 0.053907 -0.255779 -0.128616 0.021190 0.079389 -0.022653 0.053389 -0.039011 0.005819 0.099330 -0.028166 -0.055379 -0.043990 -0.105882 -0.089300 0.046293 -0.156631 0.037482 -0.031314 0.003324 0.125724 0.116755 -0.170540 0.039197 -0.165276 -0.126681 -0.199714 -0.019851 0.054864 0.010297 0.120933 -0.016130 -0.062494 -0.140357 0.015983 0.050429 0.008036 0.069323 -0.020583 0.134208 0.143925 -0.006053 0.003642 0.018933 -0.020821 -0.077245 -0.103244 -0.105040 -0.051953 0.009322 0.105616 -0.053780 0.030267 -0.061938 0.027282 -0.032172 0.149034 -0.021779 0.012216 0.079546 0.169489 0.083480 0.116739 0.113047 -0.132337 -0.051899 0.034813 -0.080207 -0.145985 0.012925 0.024235 0.153663 0.054643 -0.051005 0.077895 0.081332 0.071897 0.050110 0.055626 -0.129331 -0.008069 -0.067482 -0.066234 0.095143 0.097285 0.055500 0.032204 0.153665 -0.063998 0.026767 0.063393 0.009421 -0.015049 0.055523 0.084234 0.118373 0.095826 0.038434 -0.143041 0.011060 0.057548 -0.007778 -0.066103 0.048120 -0.166074 0.033636 -0.029614 0.040805 0.277812 0.084631 0.019229 -0.176387 0.052068 0.050115 -0.090478 0.024384 0.092235 0.005538 0.005424
cell -0.122515 0.074379 0.012694 0.126139 0.004758 -0.051790 -0.040768 -0.047691 -0.142864 -0.014077 0.060163 -0.084153 0.040434 0.026340 -0.094798 -0.128450 0.061710 0.057363 -0.057863 -0.049363 0.145583 0.020520 -0.100510 -0.265655 0.006995 -0.043545 0.136973 -0.012068 -0.073347 0.100838 -0.007101 0.135613 0.045939 0.072236 0.079201 -0.109415 0.021030 0.015126 -0.006609 0.099905 -0.016316 0.125806 -0.025408 0.123567 0.083185 -0.044680 0.069735 0.132053 0.013641 0.033867 0.089152 -0.040275 -0.132398 -0.072614 -0.043976 -0.038857 0.125089 -0.146209 0.115970 0.011297 0.107948 0.089261 -0.066766 0.064638 0.173992 0.015666 0.099171 0.081039 -0.082028 -0.086636 0.069175 -0.027081 0.088663 0.004365 0.112062 0.069883 -0.062319 -0.153163 0.006634 -0.147697 0.032748 0.080539 -0.016533 0.076724 0.050820 -0.059749 -0.087051 0.065054 -0.053985 0.025954 0.157774 0.077723 -0.134185 0.050471 -0.020245 0.033637 0.022400 -0.027636 0.030739 -0.014489 0.055437 -0.175521 0.092430 0.031087 0.114631 0.082457 -0.018593 -0.059279 0.006170 0.021443 -0.031193 0.050275 -0.244879 0.007285 0.066339 -0.041839 0.098274 0.121099 -0.026310 0.116382 -0.086470 -0.069411 0.217573 -0.175338 -0.091231 0.059257 0.029922 -0.034160
cemetery 0.203043 0.001290 -0.042344 -0.124050 -0.028210 -0.105864 -0.009338 -0.085857 0.007387 -0.153498 0.001471 -0.020658 -0.001507 0.110320 0.003621 -0.048855 0.102458 0.098078 -0.055688 -0.160903 0.122575 -0.078592 -0.195653 -0.028261 -0.051627 0.031147 -0.169210 0.081487 0.101862 -0.039515 -0.088593 0.047516 0.128562 -0.217772 -0.102285 0.018032 -0.163170 0.016741 -0.076387 -0.161809 -0.141732 -0.039955 -0.131810 0.049335 0.048650 0.111742 -0.088837 0.057853 0.121138 -0.027137 -0.055738 -0.151909 -0.011756 0.028719 -0.100812 -0.128871 0.026339 -0.019771 0.117805 -0.038490 -0.130541 -0.033118 0.111823 0.033727 0.091284 -0.091866 0.092125 -0.036240 -0.087075 0.029510 0.045553 -0.034280 -0.037632 -0.042587 -0.051233 -0.103541 0.017103 0.073321 0.074239 -0.054366 0.075669 0.133138 0.021773 -0.053005 0.041765 0.023735 0.046294 -0.020610 0.023972 -0.206231 0.015290 0.010081 -0.039392 0.003432 -0.039170 0.058061 0.062269 0.033545 0.039165 -0.153178 -0.107071 -0.226515 -0.167061 0.029794 -0.000956 0.032024 -0.032515 -0.029328 -0.012075 0.116188 -0.122051 -0.013885 0.003512 -0.064154 0.053796 -0.069321 -0.029286 0.022615 0.040819 0.085424 -0.031198 -0.020204 0.131552 -0.145333 -0.145289 0.055370 -0.066761 0.004082
center -0.069847 -0.005868 -0.037739 -0.116496 -0.002822 -0.129864 -0.076468 -0.056225 -0.193462 -0.110056 -0.077274 -0.068241 0.000326 0.207357 0.180131 -0.097046 0.038666 0.031993 0.046410 0.019860 0.058585 -0.111978 -0.026419 -0.123146 -0.064083 0.046957 0.055188 0.201834 0.002348 0.167738 -0.003590 0.087162 0.017374 -0.021071 -0.054458 -0.025367 -0.091078 0.035298 -0.079881 0.014680 -0.074737 0.053651 -0.068419 0.151150 0.053760 0.085445 0.080439 0.086129 0.284224 -0.004083 0.031997 -0.119277 -0.035685 0.064160 0.117158 -0.105514 -0.056042 0.103005 0.044440 -0.032139 -0.061637 -0.149991 -0.081414 -0.020689 0.022135 0.055413 0.106272 0.080343 -0.133356 0.003128 0.090498 0.066214 0.029001 0.003558 0.032511 0.125505 -0.029353 -0.023179 0.054561 0.017878 0.085535 0.190720 -0.062817 -0.095594 -0.154830 0.026040 -0.039004 0.056038 -0.250149 -0.079272 -0.092037 -0.054914 -0.024555 0.174303 -0.016668 0.054289 0.083500 -0.043551 0.072723 0.057205 0.000071 -0.103637 0.073349 -0.015125 0.024842 0.024961 0.044976 -0.055880 -0.057718 0.084578 0.106953 -0.144708 -0.062279 -0.005987 0.098994 -0.023358 -0.009059 -0.004195 -0.057437 -0.058625 -0.040795 -0.039660 0.177170 -0.025366 -0.109700 -0.010714 -0.026728 -0.050250
century 0.010843 -0.033889 -0.095602 -0.141497 0.160655 -0.191172 -0.042831 -0.073950 -0.009269 -0.112947 0.047579 -0.063346 0.044476 0.112816 0.097343 0.026160 -0.019806 0.108742 0.054854 -0.155685 0.049937 0.030251 0.048199 -0.084799 0.014132 0.136309 -0.050794 0.006063 -0.162835 0.149298 0.087800 0.021312 0.033095 -0.139956 -0.146112 0.099946 -0.006842 0.135371 0.055005 0.050070 -0.155183 0.029560 -0.146904 0.122746 -0.017008 0.148843 -0.018313 0.087731 0.056188 -0.018463 0.038034 0.022503 -0.024025 -0.051579 -0.097309 -0.061381 -0.035123 0.098411 0.049400 -0.139921 -0.021273 -0.032598 -0.156083 -0.089323 -0.055350 -0.029624 0.054446 -0.135464 0.107651 0.027413 0.086607 0.013274 0.150303 -0.062479 -0.026786 -0.199138 -0.303824 0.084302 -0.007101 0.084421 -0.133748 -0.006640 -0.007689 0.097098 0.114362 -0.045996 0.055032 0.099773 -0.001360 -0.006743 -0.011655 0.114353 -0.038350 -0.194362 0.016572 0.024139 0.072855 -0.015804 0.032922 0.010194 -0.062056 0.147585 -0.007079 -0.056976 0.034840 0.076418 -0.039849 -0.111760 -0.030861 0.006573 -0.011704 -0.084045 0.003235 -0.142216 0.026742 0.042330 -0.016644 0.052504 -0.033968 0.121598 -0.103464 -0.058345 0.032698 0.030672 -0.041596 0.033661 0.122541 -0.006537
challenge -0.117468 -0.044670 -0.027870 0.087660 -0.029866 -0.198691 0.060987 0.066114 0.036558 0.091718 -0.065052 0.024607 0.061640 0.003867 0.071828 -0.074453 0.099627 0.265460 0.156563 -0.119680 0.008905 -0.092783 0.040378 0.073908 -0.024437 0.041849 0.167943 0.196328 0.058627 -0.001617 -0.060327 -0.016653 -0.105865 -0.080538 -0.201802 0.061226 -0.022040 0.091684 -0.058131 0.159636 -0.188851 -0.014460 -0.215698 0.008437 0.083510 -0.047750 0.012612 0.097307 0.112021 0.024297 0.031348 -0.004296 -0.032679 -0.161520 0.020749 -0.051200 -0.029488 -0.033479 -0.093104 -0.088643 -0.006171 -0.050921 0.008249 -0.106226 -0.023409 0.036028 -0.014150 0.012918 -0.000399 -0.055142 0.101405 0.050465 0.108127 0.039378 -0.003151 0.029460 -0.023723 -0.049061 -0.004190 0.023586 0.004845 0.017061 -0.038632 0.077268 0.045618 -0.094403 0.074439 0.046109 0.057316 -0.058326 0.078951 0.003486 -0.076975 -0.054017 -0.045203 -0.134176 0.096515 -0.116043 0.184724 0.050744 0.084077 0.008862 0.035500 -0.008934 -0.024273 0.021967 0.203236 -0.074613 0.008535 -0.178844 -0.067444 -0.007024 -0.147186 -0.111933 -0.026846 0.083897 -0.206249 0.103086 -0.039405 -0.040514 -0.014473 0.083496 0.106038 -0.000842 -0.125883 -0.005745 0.013610 -0.138632
championship -0.115699 0.000844 -0.069820 0.020349 -0.124721 -0.045628 0.098277 -0.051044 -0.019935 -0.044336 -0.123789 -0.078887 0.047254 -0.034118 -0.075916 -0.053438 -0.109704 0.129876 0.059996 0.012018 -0.037256 0.020816 -0.168651 0.006210 -0.117137 -0.040658 0.030345 0.034587 0.102357 -0.080792 -0.147945 0.004770 -0.267064 -0.114752 -0.091027 0.069086 -0.045707 0.096744 -0.032519 0.088927 -0.205463 -0.007394 -0.058728 0.076528 0.072023 -0.164501 0.131832 -0.036586 0.056666 0.141151 -0.036332 -0.096369 0.032923 -0.073820 0.031014 -0.007690 -0.003279 0.059622 -0.001490 -0.085775 -0.195942 -0.076877 0.017090 -0.058773 -0.068037 0.093932 0.007502 0.051606 -0.033571 -0.055362 0.035825 -0.043821 0.204378 0.186738 -0.082422 -0.087007 -0.116392 -0.011651 0.006611 0.069867 0.012331 -0.054497 -0.114882 -0.122695 -0.003517 -0.125793 0.014697 -0.017812 -0.054544 0.051679 0.041008 0.016207 0.028793 0.040849 0.026578 -0.085157 0.026251 -0.084098 0.011620 -0.012441 -0.095280 -0.100841 -0.174635 -0.110601 0.083283 0.100763 -0.108658 0.000589 -0.045205 0.077234 -0.033316 -0.000766 0.009506 -0.227552 -0.050915 -0.125577 -0.120155 0.105908 0.070663 0.080985 -0.094563 0.101733 0.118194 0.021766 -0.037823 -0.050692 0.150982 -0.019542
chance -0.108699 -0.136214 0.001781 -0.078324 -0.161833 -0.146226 -0.011116 -0.036056 0.002424 -0.100729 -0.081564 0.016500 0.010603 0.121674 0.078187 0.007838 0.036635 0.240707 0.114198 -0.133085 0.018788 0.012082 -0.035021 0.014720 0.061324 -0.163462 -0.035874 0.161487 0.190640 -0.015136 -0.137307 0.004044 -0.134333 -0.061167 -0.087920 -0.036663 0.007311 -0.021863 -0.074470 0.145377 -0.108478 -0.079413 -0.094794 -0.013969 0.013345 -0.071860 -0.023842 0.080197 0.136079 -0.037363 0.068927 -0.016557 -0.058805 -0.108182 0.066423 -0.034758 -0.008740 0.012112 0.016551 0.020300 0.057862 -0.028090 0.020340 0.078938 0.000299 0.103835 -0.082873 0.067692 0.130027 -0.066063 0.029335 0.027027 0.171062 -0.018014 -0.059079 0.053299 -0.165630 0.006072 -0.098883 -0.058610 0.050947 0.035751 -0.029194 0.020890 -0.027949 -0.056896 0.068530 0.128621 0.016072 0.018106 0.013262 0.064990 -0.073340 -0.066410 -0.121666 -0.222137 0.154280 -0.075096 0.119426 0.075065 -0.058889 -0.102356 0.063095 -0.073274 0.170641 0.026000 -0.049405 -0.149187 0.096652 -0.049255 0.028164 -0.058813 -0.021863 -0.041800 -0.017352 -0.083903 -0.166716 0.099036 0.132588 -0.005824 -0.122117 0.047308 0.092750 -0.023655 -0.067720 -0.142458 0.132395 -0.091084
change -0.147709 0.146861 -0.114196 0.072765 -0.063944 -0.040021 0.014160 -0.030689 -0.015175 0.045772 0.067951 0.014290 0.168264 -0.010420 0.000955 -0.060518 0.048227 0.119946 0.262142 -0.145160 -0.066382 -0.015952 -0.009861 0.052300 0.024990 0.111831 -0.014053 0.088327 0.140676 0.158415 -0.034278 -0.015818 -0.133234 -0.086395 -0.086535 -0.101746 0.039634 0.107720 0.013982 0.246917 0.003119 0.108167 -0.070545 0.083501 0.021100 -0.024942 -0.067277 0.117925 0.081271 0.021198 -0.005575 0.016249 -0.109825 -0.113598 0.104363 -0.089181 -0.051719 -0.000122 0.170431 -0.073500 0.008046 -0.028722 0.026051 -0.002969 0.022494 0.083024 0.076571 -0.256413 0.101484 -0.066328 -0.017651 0.081839 0.118842 0.029987 -0.015759 -0.028213 -0.029998 0.005023 -0.035329 0.129479 -0.011988 0.065845 -0.047203 0.073092 -0.009677 -0.008305 -0.002781 0.001923 -0.046714 0.111687 0.040816 0.048496 -0.026726 -0.064175 0.044464 0.062632 0.147302 -0.053928 0.083213 -0.037764 0.071399 0.153862 0.020686 0.084302 0.101319 0.146208 0.095751 0.008949 -0.061176 -0.054238 -0.038132 0.015810 -0.182453 -0.055795 -0.083294 0.007717 -0.205099 -0.086282 0.109197 0.065593 -0.042978 -0.024155 0.124949 0.039851 -0.128671 -0.078122 -0.113702 -0.010734
chemistry -0.051223 -0.048883 0.014418 0.003770 0.010142 -0.020554 0.044096 0.008829 -0.057403 0.026472 0.016685 -0.073535 0.113427 -0.038173 -0.012025 -0.196776 -0.053371 0.015482 0.003038 -0.159894 -0.020079 0.077079 -0.124542 -0.198872 -0.153787 0.045851 -0.025707 -0.102544 0.098123 0.022717 -0.015360 0.146631 -0.010990 0.063765 -0.062587 -0.109033 -0.186529 0.054869 0.046008 0.130354 -0.064358 0.116116 -0.175805 0.173676 -0.100413 -0.019177 -0.080354 -0.051626 0.105077 0.019328 -0.010531 0.046009 -0.070190 -0.270227 0.079738 0.015457 -0.024168 -0.002961 0.274578 0.027924 -0.005607 -0.019199 -0.059214 0.098797 -0.111127 0.040604 0.075388 -0.065053 -0.043940 -0.082699 0.030002 0.014046 0.175751 -0.058190 0.005267 0.049640 0.069265 -0.006192 -0.017375 0.005335 0.068620 0.002191 -0.061773 0.046282 -0.027377 -0.043978 -0.060801 0.091416 -0.060566 0.019393 -0.022350 -0.087785 0.165895 -0.047875 -0.027809 0.045417 0.172259 -0.085497 0.092240 0.207455 0.108753 -0.184431 -0.080149 0.030104 0.061080 0.007479 0.051365 0.070086 -0.071873 -0.100378 -0.065004 0.049995 -0.032725 -0.039301 0.101204 -0.070140 -0.095355 0.009381 0.024482 0.103588 -0.048473 -0.120476 0.027519 0.116116 0.009090 0.085297 0.085928 -0.038914
children -0.002822 0.120438 0.055446 -0.110434 0.069666 -0.150670 -0.052115 -0.035748 0.004197 0.042936 -0.190922 0.033264 -0.086164 0.041435 0.084771 -0.036749 0.076349 0.188960 0.081095 0.038513 0.088659 -0.074325 -0.179675 0.021740 0.093060 -0.065645 -0.059741 -0.028002 0.004502 0.073810 -0.003432 0.160432 0.094715 -0.048566 -0.087459 0.023105 -0.075263 -0.191268 -0.042365 0.021990 -0.132246 0.070683 -0.069975 0.072283 0.028087 0.011418 -0.061850 0.112238 -0.082808 0.177468 0.048567 0.129544 -0.087531 0.011115 -0.058370 -0.023951 -0.045043 0.148133 0.020225 -0.050936 0.179379 -0.051794 -0.038702 -0.026213 0.127973 -0.136494 0.061297 0.087375 0.030345 -0.059563 0.018891 -0.002600 0.182962 0.007354 -0.027747 0.069726 0.015437 -0.023438 -0.052455 0.013941 -0.044684 0.001918 -0.125331 0.008410 0.078083 -0.074612 -0.113495 0.095602 -0.090732 0.104422 -0.035352 0.063205 0.105667 -0.108852 0.012345 0.056502 0.055116 -0.104804 -0.085736 -0.054305 0.071098 -0.127451 0.011883 0.258628 0.197805 0.005814 0.028583 -0.035434 0.050921 0.068079 0.027996 -0.053961 -0.015597 0.023115 0.125040 -0.087597 -0.154476 -0.012207 0.015105 0.203705 0.023607 -0.002324 0.113771 -0.056133 -0.101721 0.085770 0.009118 0.068021
